3441 100
amino_acid_content: 0.92076135 -0.2566368 -0.5879153 -0.45187622 0.3630338 0.60860485 -0.04534169 -0.13771084 -0.18076947 0.71618646 -0.38688606 0.4699397 0.3246804 -0.491386 0.57604307 0.6326398 0.48003772 0.19545312 -0.9304295 1.0163285 0.18742496 0.61082184 -0.18661483 0.15320407 0.10361198 -0.73041296 -0.16375779 0.74588734 -0.8532232 0.29892588 -0.3105083 0.022636319 0.24416211 0.095096186 0.21061334 -0.012224387 0.038166676 0.11636342 0.3352441 0.25275928 1.4386023 -0.075925864 -0.058574215 0.61972296 1.0137743 -1.1961234 0.42241174 -0.7188592 -0.4685287 -0.1860635 0.22376285 0.05495433 0.5148966 0.56078714 0.059704635 0.6376905 0.0154467765 1.2777227 0.46869156 -0.6653452 -0.16993546 0.3227661 -0.7244865 -0.1047223 0.4175583 0.17928317 -0.3625497 -0.42136505 -0.72917587 0.4646073 -0.8096285 -0.24217653 -0.318049 -0.7981883 -0.3674104 -1.4068004 -0.4559143 0.058329836 -0.1614692 -0.11085107 0.47211376 -0.51090425 0.94405544 0.7147572 -0.0440002 0.93820494 0.7470366 -0.13270496 0.7326252 0.48134512 0.6917905 0.53218526 -0.71781754 -0.43826962 0.060806554 -0.5384719 -0.17273462 0.10018559 0.40621543 -0.5172064
rice:山田錦 0.5339758 -0.031305194 -0.39210913 0.41362032 -0.16286953 -0.35653555 0.2619267 0.6307743 -0.73324287 -0.027026989 0.3279768 -0.06809767 -0.096865244 0.517796 -0.1117076 -0.21198648 0.5185075 0.7000817 -0.5965125 -0.2629077 -0.2635307 0.10806718 -0.4727818 -0.26227602 0.014158306 0.098624356 -0.18650982 -0.18462023 -0.5735061 0.046790373 -0.25974765 0.0029770187 -0.11320491 -0.8594312 -0.4472814 0.3049865 -0.3428571 -0.32779953 -0.34580806 -0.8280388 0.71624327 -0.19662331 0.42027423 0.5243883 0.3508449 0.040006496 -0.75243026 0.02169031 -0.0587344 -0.3065378 -0.18760104 0.11076343 0.32351157 -0.22931853 0.20463055 0.26414573 0.5032758 0.022994509 0.13004585 0.7437901 0.050151087 -0.21564347 -0.33213374 0.07625565 0.3713959 0.28761324 -0.61948323 0.33432668 0.05631379 -0.000101749654 0.03904549 -1.2933598 0.7518853 -0.053283814 1.0515825 0.07955273 0.22630821 0.6312078 0.10901987 -0.5337785 0.5691714 0.16256104 0.16425495 0.94483864 -0.4641854 -0.02103836 -0.5798899 0.0103499275 -0.13936673 0.6832094 0.12102984 0.3052069 0.58678955 0.9321416 -0.23820475 -0.14656892 -0.08466269 0.71660954 -0.34426764 -0.52531004
rice_polishing_rate:60 0.4939052 0.106408946 -0.3400161 -0.054630987 0.30181167 0.22821376 0.4542069 -0.075148515 -0.3310085 0.055371515 -0.5472659 -0.06685404 0.5968656 0.3842205 -0.29976332 -0.22940387 0.025717624 0.45749456 -0.23075968 -0.09911439 -0.7469207 0.48114368 -0.13829094 -0.74217194 0.28687093 -0.023521835 -1.2639718 0.3175069 -0.2991112 -0.5980494 0.6420408 -0.15020648 -0.28816617 -0.06359799 0.34907758 0.95334363 -0.50980604 -0.079133734 -0.09306473 -0.6200174 0.38190442 -0.4430069 -0.45500758 0.5796406 -0.33078426 -0.5468947 0.72946334 0.13280512 0.23875678 -0.029918171 0.17559645 -0.69465274 -0.8119336 -0.10284893 0.35232696 0.63256115 -0.6718515 -0.4967698 0.654825 0.06335219 0.28339943 -0.24866028 -0.35466546 -0.24978542 -0.1746331 0.91867614 -0.24631141 0.4267064 0.016158635 -0.34772697 -0.6276099 -0.9200588 0.19464311 -0.36368766 -0.26900014 0.22071987 0.4147758 -0.091942616 0.6951226 -0.4025162 0.26705176 0.45878813 -0.21742985 -0.15244062 -0.17558531 0.5040605 0.7569528 -0.3353698 -0.22166172 0.5507104 -0.5873281 -0.001092252 0.000110307075 0.27164656 0.051093943 -0.0010684251 0.4453964 -0.025670435 -0.56310695 -0.30509955
alcohol_rate: 1.2535731 -0.20246336 -0.8023519 0.11874451 1.0925429 0.74599403 -0.025151242 0.32299793 -0.7801056 0.6804722 -0.3661698 0.44289914 -0.124635175 -0.72910064 0.15880461 1.2675385 0.25088403 0.0800964 -0.16440493 0.8231724 -0.05342399 0.82087195 0.81729543 -0.91908884 -0.052598525 -0.44454283 0.57618016 -0.13602522 -0.3876485 0.31925297 -0.2151379 0.59029055 0.7603438 -0.055735122 0.8919498 0.59477836 0.105238855 -0.22968097 0.3821393 0.069802806 1.0842581 0.18021238 0.12421522 1.2875572 0.9411289 -0.27939788 1.0138413 -0.3420001 0.27731746 0.0743804 -0.19759986 0.161359 0.37838945 0.37548572 -0.13848296 0.15027632 0.30321983 1.2427711 0.59115815 -0.25356293 0.33145982 0.8446467 -0.6576041 0.032396227 0.15211423 -0.6123256 0.131379 0.108920015 0.34094396 0.81744283 -0.19747834 -0.17374323 0.32010794 0.0110698175 -0.2768252 -0.5320634 -0.45099726 -0.23321359 0.18523915 0.26317996 0.1435086 -0.76389086 1.0505502 0.36135286 0.29935998 1.121259 0.4038153 0.29052794 0.32119536 1.3264273 1.257725 0.6872542 -0.7584584 -0.15637203 0.062254418 -1.477392 -0.008665823 0.37118965 0.57149976 -0.56022424
sake_class:純米吟醸 0.14082868 -0.24063997 -0.56839454 0.85531396 0.08873768 0.49449494 -0.05971152 0.15691558 -0.3867562 -0.78279394 -0.060084626 0.4441584 0.5539601 0.30344868 -0.7041589 -0.62564397 0.45097238 -0.48135445 0.37150097 -0.26331967 -0.5515881 0.06765197 -1.2333547 -0.33860347 0.28382233 -0.137736 -0.9326644 -0.39448944 -0.3015874 0.39079094 0.4750965 -0.6102889 0.4813339 -0.21041884 0.4378222 0.77603376 0.15605986 0.58977747 0.17478822 0.40728068 0.6726571 -0.4911761 -0.4652853 -0.18926103 0.17401426 0.2154089 -0.14837971 -0.4878987 -0.4797825 -0.20631737 0.031178145 -0.3272926 0.23969719 0.3946555 0.93620664 0.42199123 -0.43102342 -0.41831753 -0.45430955 0.34281904 0.6473167 0.1930197 -0.4456457 0.39873016 -0.046767183 0.36243778 -0.23861825 0.30619058 0.49823532 -0.5721821 -0.27177367 -0.35385913 -0.03011181 -0.01190126 0.051456023 -0.14635 -0.22007538 -0.17918797 0.3745555 -0.44437826 0.49876726 0.36153266 -0.20328827 -0.30721554 0.22273676 0.44849345 -0.26510614 -0.43509683 0.108909205 -0.1741916 0.60275096 0.35439688 1.4650906 0.6357391 0.59951526 -0.43103436 0.29929554 0.3777735 -0.15063345 -0.525823
sake_class:純米 -0.10391397 -0.007835007 -0.78413707 -0.2661604 0.37747383 0.26499474 0.14868778 0.78831244 0.17308703 -0.7443414 -0.039899748 0.2839222 0.6638338 0.9410816 0.08756888 -0.45076382 0.9213348 -0.083939314 -0.032882582 -0.47371328 -0.83246255 0.73607993 -0.19416057 0.21928912 -0.09077112 0.19047204 -0.46001428 0.28423625 -0.18477076 -0.372674 -0.6514772 -0.21127851 -0.04668722 -0.25451136 0.3183391 1.2584811 -0.01883919 -0.35446078 -0.1206442 -0.99427354 0.31445238 -0.76105106 -0.2773647 0.33530304 0.15623532 0.44727033 0.33746928 0.5515266 -0.21343969 0.00923938 0.13281785 -0.20713353 -0.28713167 -0.25712165 -0.11929039 0.25081939 -0.36645368 -1.1667601 0.32024446 -0.43676883 -0.1864383 0.3652577 -0.39879984 -0.43169156 0.088921644 -0.456191 -0.19942135 0.48225966 0.42581955 -0.48248297 -0.25626254 -0.16758355 0.0040530525 -0.10963767 -0.28601396 0.45971167 0.12793183 0.06534106 0.26711264 0.31723064 0.06339966 -0.9294831 0.0066683656 0.28075686 -0.19593918 -0.38790447 0.13130844 0.10520359 0.2137361 0.28880775 0.17876449 1.0136067 0.37644288 1.115527 0.3496895 -0.22653858 0.73495156 0.2768679 0.08396652 0.3669735
alcohol_rate:15.00 0.059650477 0.25126353 -0.9362575 0.7969909 -0.0743543 0.12914512 0.7762632 -0.14232069 -0.5289918 0.5816206 -0.6842308 -0.044756122 -0.57521105 -1.1947552 -0.37980014 0.8604012 -0.44603214 -0.12851766 0.87483764 0.19961783 -0.15455446 1.2722704 -0.07723671 -0.21789312 -0.7229677 -0.815514 -0.87859994 -0.014955968 -0.123794444 0.97643745 0.053911388 -0.15693176 0.31268296 -0.15375285 -0.8020884 -0.18875405 -0.5041713 -0.67903006 0.61728597 0.20413707 -0.5079461 0.40458974 0.91330796 -0.43328336 -0.5074493 -0.36782035 0.43862528 -0.29593658 -1.4817417 0.15696183 0.2576792 0.8569896 0.8236015 0.3090052 0.87745804 0.042145237 0.12470019 0.013732857 0.685713 -0.33444375 0.024399497 -0.81278217 -1.0168657 -0.13480902 -0.7311993 0.42096198 0.7826623 -0.09390893 -1.1584316 -0.3268989 -1.0487841 0.7558006 -0.28853798 0.4021957 0.09587937 -0.19064116 -0.89575565 0.5773573 -0.056765366 -0.113494 -0.19918531 -0.75520676 1.0267683 1.0112723 -0.647812 0.24572319 1.0529329 -0.7578091 0.35154995 0.34157023 -0.7124055 0.2462539 0.23290029 0.27180615 0.18014602 -0.258161 -0.34578016 0.0674658 0.5890476 0.11666854
sake_meter_value:3.00 0.046598494 -0.32498938 0.0065518464 0.49132925 0.11063579 -0.37625915 0.47656533 -0.5417914 0.23223858 -1.1425982 0.8948125 0.64345574 0.43637437 0.70081556 -0.5269532 0.33398312 1.149326 0.020122979 0.6883092 0.2686503 -0.6533909 0.14177185 -0.9630681 0.17757717 0.3433154 -0.041432764 -0.58325654 0.3802611 0.02677144 -0.43485394 0.15348355 0.30468616 0.135365 0.34547848 0.25209743 1.2038392 -0.13655092 0.15495847 0.065069884 -0.33523852 0.6881064 -0.026617656 0.20921515 -0.30879185 0.084253184 -0.35267982 -0.059875734 0.47271982 0.3942917 -0.11587641 -0.884391 -0.25415364 -0.3432112 0.16508985 0.1749913 0.64482266 0.60827017 -0.4660671 0.73976004 -0.049708776 0.49711683 -0.68101233 -0.2590128 0.18321398 -0.6787235 -0.12540825 -0.9204891 0.5704845 0.4706029 -0.5732644 0.39794162 0.12337804 0.020414654 -0.82932174 -0.06826913 0.3388842 0.62622094 0.028589422 0.40664333 -0.5488979 0.09364026 0.2395487 0.40423775 0.0916108 -0.067305624 -0.56053036 -0.5220313 -0.6615741 -0.0345971 0.264975 -0.6132459 0.48931617 -0.08153407 -0.13231412 0.575558 -0.91848236 -0.026210254 0.2804042 -0.29497126 -0.49456054
method_for_making_sake:原酒 -0.75880843 -0.34624618 0.95126164 0.2062991 -0.3563916 0.5350866 0.06268657 -0.14694542 -0.37443724 0.6862463 0.09952582 0.22292179 0.4218086 0.8680402 -0.12061532 1.2720144 0.67659104 0.8863475 -0.04949659 -0.53756875 -0.06849855 0.17661326 0.43883064 0.31542957 -0.036357604 0.15016618 -1.4869545 -0.05088734 0.13870107 0.01595977 -0.43366453 0.7559371 0.55135477 -0.20502563 -0.65688246 0.63023674 -0.5099369 -0.15209125 -0.45331633 0.41462237 0.29190263 -0.6464374 -0.5195299 0.31807485 0.130705 -0.18856622 0.7460774 -0.19890624 -0.885727 -0.09923316 -0.996035 -0.18466692 -0.55100256 0.6103139 -0.19860737 -0.62836087 -0.74265635 0.6620351 -0.066440485 0.34168816 1.3519083 0.62919104 -0.836357 0.34550548 0.2184599 -1.493927 -0.9737466 0.31390482 -0.4360697 0.14068328 -0.09382741 -0.8399025 0.17153224 0.37995636 -0.7131826 -0.726273 0.6439599 0.0020862536 0.121845685 -0.3776573 -0.110158145 0.829639 0.057576958 0.80495197 0.099373266 -0.06200607 -0.17751248 -0.21127741 -0.38343674 0.4241394 -0.45545447 1.3220898 0.13245454 0.07748156 1.0371559 -0.930924 -0.12899187 -0.2471477 0.5570591 -0.13725019
yeast:自社酵母(詳細不明) 0.78369987 -0.7486034 -0.23852435 -0.13985117 0.27920613 -0.0011668777 0.03958535 -0.011671291 -0.86053336 -0.21822812 0.13764736 1.0379167 -0.37030897 0.5170071 -0.41752234 -0.73863304 0.26038417 0.25584915 -0.07282808 -0.63595104 -0.30351081 0.001715516 -0.07009311 -0.48062298 -0.61062604 0.36149767 -0.63789976 -1.0771141 0.20430513 -0.051151473 0.8809904 -0.50878364 -0.50310194 -0.386021 -0.007140009 1.2440238 -0.31347105 0.55523384 -0.45303732 -0.47376817 0.29140508 -0.5913047 -0.661429 0.10860518 -0.40312558 0.032097254 0.4303508 -0.44461787 -0.07533453 -0.12588665 -0.39733514 -0.27334774 -0.2658358 0.06282105 0.24289046 0.44197077 0.36034063 -0.5324378 0.2217678 0.20160224 0.05110297 0.33859104 -0.022777284 -0.19286498 0.27474716 -0.09076383 0.069291584 0.07517513 -0.1440809 -0.20927756 -0.29545107 0.11227837 0.7368414 -0.23097442 -0.26723874 -0.32170823 0.63822854 0.57463884 0.27889845 0.25892705 0.5065169 0.0064491713 0.24591002 0.27624384 -0.7095118 0.37752077 -0.10582247 -0.8939422 -0.5349353 0.59799844 -0.4004929 1.0450041 0.41746408 0.72185093 0.14980301 -0.50165117 0.08271079 0.17082706 -0.32433847 -0.7154235
sake_class:純米大吟醸 0.37129918 0.13469918 -0.10706386 0.35730547 0.048295382 -0.45567015 -0.67761916 0.8204155 -0.6495685 -0.60595936 0.2626171 0.9923062 0.24730298 0.013959392 0.030913884 -0.57840514 0.7281523 -0.35476577 0.055548225 0.2141825 -1.3225954 -0.23009625 -0.098145396 0.04225422 -0.039603397 -0.61477685 -0.9641289 -0.11211425 -0.48024228 -1.006375 1.3360956 -0.05550575 0.43880072 -0.6757807 -0.34007123 0.8221747 -0.7841731 -0.09552377 -0.06746826 0.063288055 0.81239426 0.111072406 0.38246453 -0.14525373 0.4694555 -0.38265944 -0.96539944 0.01302102 -0.17107153 0.6034135 0.38045764 -0.2097376 0.33747292 0.35660058 1.063768 -0.21957935 -0.38233966 -0.6051662 0.20765764 0.04508498 0.17572023 -0.59794015 0.38225666 -0.2314767 -0.26125616 -0.38608667 -0.43050048 0.0450266 0.15061063 -0.064270645 -0.0778654 -0.09217526 0.34510225 0.4919628 0.5142482 0.3016365 -0.039177086 0.3041137 -0.11648164 0.15460563 0.09582275 0.029747937 0.24162552 0.68848467 0.3286663 0.71443796 -0.1178367 -0.10545139 0.6622196 0.87039286 0.69891894 0.41735315 1.2623743 0.5304023 0.12355238 -0.68205464 -0.21388546 0.76324594 0.22811706 -0.375461
rice:五百万石 -0.09769585 0.16208786 1.1375681 0.0060704523 0.01730442 0.17688096 0.9427025 1.0925711 0.013029663 -0.32974738 -0.40987894 -0.2762081 -0.0377153 -0.14008543 -0.6863482 0.15314427 0.8000505 -0.40130383 0.84742576 -0.9913774 0.55233383 -0.7204533 -0.33645806 0.21050404 -0.022942387 0.732289 -0.1086979 0.022833506 0.45999753 0.5570763 -0.096714534 0.20342833 -0.15784065 0.35925144 0.11175456 0.5343277 0.11047788 0.095416844 -0.15109704 0.6194407 -0.16554774 -0.54404503 0.61426824 0.35927382 0.46072444 -0.51142806 -0.39135063 0.631578 -1.0225698 0.06620069 -0.08773295 -1.1860379 -0.22723311 0.12905401 0.3762768 0.4808776 -0.37249613 -0.31531474 0.12796687 -0.11503852 0.22881481 1.0605806 0.16078642 -0.1691635 0.045463663 0.13474889 0.43714857 -0.077207536 0.068628065 -0.8162532 -0.00935463 -1.443309 -0.4070201 -1.0994983 -0.88617676 0.24799015 0.75991136 0.51477706 1.7611265 0.14955384 0.41221803 -0.38115028 0.2674234 0.9923585 0.33127624 0.4039247 -0.30549622 0.33363324 0.3327467 0.9278326 0.092724375 0.87360793 0.4311964 1.2457327 0.5862068 -0.5391727 0.87185764 0.22236918 0.33722758 -1.1288177
titratable_acidity:1.60 0.114528574 -0.7229632 -0.09019308 -0.091302715 -0.14087725 0.35602018 0.0932966 -0.035075 -0.29341087 -1.2669108 -0.18913719 0.52095574 0.11981582 0.11290851 -0.34600353 -0.0860713 0.28748685 0.5325437 -0.25332254 0.24938804 -0.3530496 -0.29118463 -1.252889 -0.018619755 -0.048715774 -0.009624037 -1.442101 -0.24232821 0.19293258 0.016600767 0.22978634 -0.20736505 0.40811804 -0.13005438 -0.31391174 0.10275287 -0.261588 0.19460484 0.040196348 -0.38957247 0.3106348 -0.6744431 -0.2772785 0.35327742 0.3885727 0.4030916 0.29821172 0.054433968 -0.11965589 0.03476361 0.18716739 -0.052102212 0.105677344 0.59964746 0.15913664 0.19451867 -0.17292784 -0.25759706 -0.044697817 0.59556824 0.09353042 0.17042369 0.72263086 -0.21798956 -0.55479753 0.33710787 -0.3379664 0.4596296 0.6453599 -1.0722748 -0.46394753 -0.73777044 0.36886936 -0.27085173 -0.3358042 0.5828642 1.1540563 0.4816278 -0.024497608 -0.18833494 0.63518 -0.2948142 -0.55518603 -0.028049275 -0.37611455 -0.112841785 0.59889144 -0.5322679 0.052256625 -0.19708253 0.2693998 0.239117 0.447465 0.33426514 0.35332507 0.070672624 0.6253746 0.51889735 0.119459525 -0.4985527
sake_class:特別純米 0.5114336 -0.5631648 0.46317795 0.119702674 -0.1575011 -0.13658634 0.22837354 0.67027795 -0.95311993 -0.1638217 -0.08888552 -0.6560206 1.1399858 0.5438841 0.063871376 -0.24830137 0.3060561 -0.4921609 0.26337662 -0.62129295 -0.84586155 0.76071733 0.29564625 -0.5054228 0.47392455 -0.8047356 -0.69400436 0.45383105 -0.2594525 0.022085952 0.10698873 -1.0459517 0.4501914 0.028772356 0.42711094 1.5529599 0.29790932 0.104393676 -0.42494154 0.04838759 0.22322614 -1.0533994 -1.1314113 0.31440473 0.33628494 -0.40544987 -0.09404029 -0.02377958 -0.15766218 0.2814553 0.377907 0.27288726 -0.6075017 0.286419 -0.21628642 0.56503224 0.10912088 -0.6264709 -0.17597537 0.8960444 0.6475426 0.10914576 -0.009773896 -0.29109937 -0.22400606 -0.7895601 0.258143 -0.14676504 0.1075275 -0.7733138 -0.18698084 -0.3635369 0.040067296 -0.3543019 -0.69463027 0.88485336 0.9924426 -0.8986457 -0.554021 0.64918506 0.31855628 -0.525307 -0.2934113 0.1797958 -0.2352665 0.010767164 0.35730326 -0.7577042 0.25182545 0.3703467 0.7478461 0.19420616 0.11145348 0.55384177 0.9543576 -0.5275418 0.3885775 -0.0017558483 -0.6749355 0.2547945
method_for_making_sake:生酒 0.020956367 -0.6572662 -0.11847709 0.9857281 -0.15043293 0.024954816 0.4180525 0.86316335 -0.098737314 0.571115 0.28260618 1.3737031 -0.07653036 -0.19238348 -1.0113932 0.998796 0.48713902 0.3777883 -0.7948159 0.19945511 0.090323046 0.9129907 -0.18425716 -0.5299132 -0.23546313 0.3270778 -1.4705437 -0.39388463 -0.22724742 0.44320408 -0.34341264 0.36298984 0.81340694 0.1542989 -0.39183277 0.27428913 0.2560988 -0.010208412 -0.09732279 0.88339394 0.34883553 -0.37554768 -0.89365125 0.44113266 -0.8690772 0.06980377 0.12644377 -0.47103712 -0.089425884 -0.74266845 -0.40880072 -0.11213589 -0.64333475 0.5956724 0.51291686 -0.24276118 1.0254203 0.7335927 0.35941327 0.68025404 0.8874342 0.27757117 -0.43410695 -0.23762275 0.095672585 0.1313077 0.20117173 0.019069524 0.60003155 0.08186556 -0.23088624 0.20683047 -0.32307807 -0.10121796 -0.90538365 -0.12202828 0.73893297 -0.0497488 1.2954998 -0.27167115 0.4815171 0.076056525 0.039659213 1.2534664 -0.08393616 0.50815207 -0.24848081 0.32463804 -0.5471567 0.47121415 1.5790318 0.5261327 -0.54782856 0.7795781 0.006833844 0.26702005 0.7145298 -0.67578334 -0.23207983 -0.039851505
titratable_acidity:1.50 0.4666183 0.16009058 -0.2305009 -0.17594494 0.085470095 -0.11558647 -0.7696565 -0.1580507 -0.5055563 -0.566249 -0.24562433 -0.040080026 0.05062198 -0.07524896 -0.25604454 -0.29561937 0.8939936 0.51984316 0.19766563 -0.40039584 -0.7328566 -0.106373005 -1.1258048 0.46241665 0.21301937 0.05279764 -0.9579779 -0.26459038 0.11043474 -0.114942275 0.102895774 -0.41223294 -0.032764226 -0.27937177 0.19226576 0.6535334 -0.10841952 0.21547824 0.26626572 -0.07435733 0.388772 -0.7598845 0.59744525 0.25055233 0.14725439 0.23654123 0.24400762 0.034465853 -0.47397244 0.54774666 0.19700448 -0.94161797 -0.1983668 0.3151509 0.15128592 -0.3587679 -0.013481592 -0.34681365 0.23107533 1.1949986 0.11036767 -0.12879607 1.0411557 0.14644691 -0.4594184 0.32056335 -0.2983469 0.30147785 -0.084489115 -0.65587634 -0.23362269 0.011776935 0.45601517 -0.03451354 -0.6086578 0.08739379 0.57565427 0.06358912 0.148389 -0.1715235 0.38131207 -0.13540953 -0.3018894 0.24479915 -0.543876 -0.9010965 0.30928102 -0.35671806 -0.2021867 0.17727345 0.13651676 0.57892734 1.3077229 0.4843541 0.57704616 0.029654806 0.48665288 0.37470993 -0.31218398 -1.268319
rice_polishing_rate:55 0.30471328 0.3789915 0.12356249 0.67271894 -0.18961266 0.43804953 0.72135615 -0.41489527 -0.79312265 -0.42527443 0.36151257 1.0168948 0.8001238 0.23396039 -0.14087588 -0.9299916 0.15175065 -0.41399413 0.17979212 1.2324611 -0.2760075 0.14287636 -0.99705327 -1.231283 0.8723386 -1.0040492 -0.24946886 -0.50709987 -0.29635343 0.14285219 0.5303111 -0.12104458 0.18655229 -0.5912589 -0.5765596 0.33508003 -0.08271036 0.32972407 -0.9054613 0.8456503 0.04491033 -0.2836497 -0.11196541 0.65491694 -0.12362336 -0.10481027 -0.03258249 0.9791954 -1.5486743 -0.11751375 -0.29087064 -0.072756715 -0.17200784 0.2559482 -0.009296345 -0.12516409 0.16877592 0.030097052 0.17572527 -0.05951876 0.31321582 0.40051174 -0.04906104 -0.5856468 -0.39061478 0.8302814 0.6111253 0.60983574 0.15720591 -0.3760589 -0.7409136 -0.49858773 0.49612153 0.030175788 -0.122588724 0.49893534 0.811045 0.26478624 0.72370094 -0.66033316 0.10493702 -0.09425721 -0.10895996 0.29793248 0.4187202 0.3610067 -0.7290866 -0.4672123 -0.17922781 0.14565226 0.32546255 0.40613943 1.2755426 0.2711794 0.7460661 -0.57645375 0.5605176 0.057635866 -0.92988926 -0.9092694
rice_polishing_rate:50 1.1764276 0.29242247 0.061692353 0.47485292 -0.15151803 -0.36982638 -0.4447588 -0.2534197 -0.6917788 -0.048796836 1.1021062 1.1181852 0.7836774 0.54566574 -0.6347344 -0.18488888 0.47630426 -0.54366606 -0.009017696 0.36410186 -1.2294364 -0.14714572 -0.5994144 -0.35517442 0.9212662 -0.7117808 -0.30746868 -0.87523407 -0.49185628 0.34969464 -0.047315504 -0.50932974 -0.11956522 -0.93032295 -0.8830081 1.2876375 -0.4192249 0.6542041 0.11736167 -0.29792047 0.14524837 0.055476148 0.14641343 0.6736986 0.47239587 -0.2938057 0.27678657 0.5807865 -0.15965572 -0.36845013 -0.21829534 -0.41004077 0.15230258 0.11395678 0.49158913 0.88220817 -0.5773044 -0.1799892 0.06290547 0.50748813 -0.0018467559 0.36198118 0.26474676 0.16310315 -0.2766563 -0.0688565 0.24479246 -0.6164525 0.2674951 -0.88526005 -0.39889246 -0.32024974 0.03467072 0.65447503 -0.38886613 0.17351238 -0.26035193 0.10545326 1.1082289 -0.5309308 0.0111111775 0.40605542 1.4382088 0.08725919 0.11797616 0.41981086 0.4439997 0.21009843 0.41902396 0.1298941 0.162486 0.16521522 0.91644573 0.36920708 0.032449443 0.014869315 1.5299407 0.44314486 -0.16012806 -0.6611252
alcohol_rate:16.00 0.43571702 -0.5689192 -0.46867117 0.6078904 0.5709729 0.11155783 0.5686864 -0.75100285 -0.2951048 0.10828254 -1.0438507 0.30585912 -0.43078092 -0.49468616 -0.17075789 0.8706799 0.2797305 0.09928923 0.43776602 -0.10882554 -1.2171953 1.0843503 -0.012093498 -0.18302293 -0.20308973 -0.9286182 -0.974032 0.026604116 -0.33903039 0.44390464 -0.21562481 -0.17632954 0.843934 -0.43023336 -1.0630795 0.1881398 -0.34702256 -0.04312303 0.0085231615 0.6387378 -0.17955405 0.3893486 1.0990738 -1.1311761 -0.17369185 0.53422815 0.82030636 -0.5588265 -0.30441117 -0.7931192 -0.9089445 0.60830176 0.77947 0.27909565 0.84434456 -0.2638314 1.5098823 0.7789749 0.56340474 -0.100666136 0.3474562 0.41530603 -1.1235917 0.7350278 0.19367437 -0.3960404 1.3615911 0.49315256 -1.3315378 -0.6920283 0.20002344 0.7027934 0.26681483 0.30817667 0.40638807 0.4198722 -1.2177341 0.45019722 0.07809871 -0.911928 0.015485107 -0.42120084 -0.45868012 0.9193718 -0.019243887 0.021974882 0.509874 -0.07809159 0.3909565 0.17580543 -0.38406938 -0.12177688 0.7266546 -0.024490274 -0.7878845 -0.77107847 0.35899347 0.22393252 1.1994164 0.047640946
rice_polishing_rate:65 -0.047338635 -0.2268266 -0.7294731 -0.48173806 -0.013597096 0.7334429 0.6995636 0.21615665 -0.5176215 -0.990273 -0.16479295 0.76052475 0.38951358 1.4423515 0.2839898 -0.08506065 0.56431806 -0.25350922 -0.4739661 -0.067346536 -0.21319795 0.7226484 -0.031105692 -0.46586314 0.012798668 -0.3173423 -0.88418704 -0.31051472 -0.9084608 0.3780996 0.006419831 -0.09322851 -0.33303028 -0.61334944 -0.49790433 0.5167965 0.1595686 -0.62518495 -1.0119468 -0.6869052 -0.27958637 -0.30998027 0.6241719 1.261408 0.2330408 0.6351842 -0.10156406 0.25700167 -0.905667 0.79772985 -0.25433466 -0.6285471 -0.35012427 -0.44531363 -0.065284275 0.06057736 -0.4812062 -0.96946526 0.7264923 -0.4212899 0.19613318 0.8316341 0.3310822 -0.8477346 -0.26258507 -0.2897168 0.00990344 0.6189913 0.44412684 -0.4630109 -0.13616455 -0.7399865 -0.15987965 0.5381644 -0.62917465 0.20739232 0.9799263 0.7109249 0.28043094 0.9269959 -0.90999794 -0.15133604 0.65181255 1.1241622 -0.18976393 0.3693929 -0.46743464 0.586418 0.53337157 -0.74663395 -0.27547 0.45720205 0.041620135 0.13690153 0.116429254 -0.87683874 0.22602223 0.18382823 -0.42335457 0.19677286
titratable_acidity:1.30 0.1269873 0.07567994 0.2117351 0.23210417 0.45706004 0.31462225 -0.20354581 0.012344599 0.20520991 -1.299094 -0.20689446 0.49555007 0.16853283 -0.22820312 -0.145295 0.04406388 0.660925 0.34123927 0.14167917 -0.36424184 -0.5356338 0.08188204 -0.6222553 0.6187626 0.56527674 0.63552994 -0.6367344 -0.56350994 -0.19981502 -0.17921945 0.17749603 0.041143596 0.21210645 0.13674347 -0.54228294 0.53378296 -0.23536366 0.3521779 0.05162267 -0.53117365 0.2159155 -0.73216164 0.4657118 -0.12927702 -0.6827323 -0.2236353 -0.15602824 -0.027108654 -0.16640873 0.47518966 -0.3053733 -0.3496752 -0.24930598 0.61883307 0.19174932 1.0955422 -0.20653144 0.18851388 0.76896673 1.3709526 -0.20867772 -0.39550048 0.4569138 -0.0077830907 -0.021961981 -0.34677997 0.62827003 0.4043957 0.70673573 -0.35314667 -0.303732 -0.101816855 0.3234367 0.6692403 -0.50048757 0.08674465 0.90293396 0.4722867 0.27828118 0.22487211 0.031674188 -0.7199323 -0.511472 0.69193023 -0.38839248 -0.30019048 1.0613965 -0.23513032 -0.84071064 0.050459232 0.012378368 0.007980421 0.74278915 0.44034138 0.85497886 0.018385578 0.16363095 0.841931 -0.059905447 -1.1598749
titratable_acidity:1.40 0.39258954 -0.14238632 -0.2110132 0.34001634 -0.0512686 0.009477433 0.38622227 0.37580606 -0.14405744 -0.39427125 0.4148067 0.3224404 0.023092387 0.32863376 -0.7788076 -0.01687132 0.5540646 1.0092484 -0.13370974 -0.034692477 -0.04657905 -0.36919293 -1.2578026 0.009581059 0.37165722 -0.2902362 -0.87047464 0.34931758 -0.10543479 -0.2995524 -0.36787143 -0.124296196 -0.67319113 -0.49114972 0.35575446 0.14325121 0.18005611 -0.23898366 -0.67271227 -0.70853287 0.61857474 -0.41131774 -0.20541076 -0.06328387 -0.4281013 0.18912807 0.059133478 0.025252933 -0.37039182 0.25487915 -0.15936215 -0.27593732 0.34213448 0.396056 0.75739765 0.4537392 0.029366137 0.0050706333 0.20324875 0.80339223 -0.003064495 -0.38141808 1.1771544 0.13223231 -0.2471758 0.2104193 0.22774485 0.36294878 0.7199155 -0.9610788 0.18910068 -0.5949304 0.4349857 0.21158557 -0.117795214 0.59099436 1.151936 -0.0102805495 0.0077539627 0.35919896 0.30439964 -1.0221608 -0.8484531 0.6280152 -0.47234428 0.48921373 0.8140724 -0.50694543 0.07004525 0.11749939 -0.4286456 0.29755804 0.8627547 0.5136853 -0.015388876 0.2486134 1.1262221 0.66187054 0.17633602 -1.217881
sake_meter_value:2.00 0.031460743 -1.3739034 0.4412327 0.0613186 -0.21369128 -0.8243964 -0.4555851 0.16650671 -0.49612552 -0.28563994 1.0616862 -0.09165962 0.5394104 -0.52024835 -0.92922163 0.038871553 0.91783583 0.45778114 0.74621195 -0.012814166 -0.47441116 0.3962063 -0.67422605 -0.17344974 -0.754564 0.12245703 -0.9425582 0.11722711 -0.4915623 -0.3178518 0.71734047 1.0550103 0.08859417 -0.1849907 0.07751081 0.73714226 0.52988887 0.054743208 -1.1323414 -0.8723876 0.028887093 -0.37781385 0.5207908 -0.098994374 0.028586473 -0.37899306 -0.2632771 0.30801693 0.013570409 0.24670647 0.39072743 0.098288365 -0.6329918 0.22547346 0.109435685 1.3090813 -0.43021825 -0.022885025 0.42163044 0.514902 -0.27547973 0.35503274 -0.3060731 -0.5107714 -0.66445136 -0.2770828 -0.7165078 0.7082687 -0.14940335 -0.4339647 0.045231648 0.033094075 -0.49442625 -0.6772601 0.30950168 0.39978278 -0.12156853 0.49014515 -0.028230797 -0.86877435 0.7885673 0.8396083 0.5954136 -0.14748698 -0.2805408 0.31527275 -0.20154558 -0.7871458 -0.52023935 -0.20072494 -0.36804333 0.0037191552 0.42633906 -0.035031028 0.26088428 -0.7688097 0.1067467 0.18594684 -0.30568066 -0.97018343
prefecture:京都府 0.55617154 -0.53293556 0.7231906 -0.76489216 1.5999984 0.023489501 1.0683634 0.37115127 -0.7583138 -0.38329083 -0.4898082 0.7569103 -0.27681157 -0.98237866 -0.28533047 -0.54249406 1.0629617 -0.21420193 -0.0009910879 -0.14671427 -0.4136353 0.4458771 -0.4662223 0.12834075 -0.06490754 0.7409202 -0.7467336 0.8833267 0.9381245 -0.42513317 0.27789015 -0.001327272 0.067358576 -0.12205587 -0.71089554 1.1158959 -0.009294998 0.04613902 -0.3820295 0.00096058234 0.122781746 -0.7664026 0.22241674 0.4419194 0.42837834 0.18724333 0.09002227 0.48126027 -0.120828405 0.12871256 0.08439083 0.20968655 0.0054355906 0.5585618 0.44432384 -0.80395216 -0.4327996 -0.4385642 0.55155885 -0.07714832 1.2791234 -0.67104685 -0.44223577 0.4561089 -0.47054496 -0.032891024 0.89204496 -0.7760243 0.9767635 -0.08563727 0.7270724 -0.7592089 -0.34644446 0.27866647 0.14879449 -1.0914553 -0.4548799 0.002957425 -0.501115 0.088445075 0.7026677 0.20241968 -0.22112902 0.3083508 0.066765316 0.4944299 0.11605417 0.06973808 -0.5592251 -0.2008847 -0.65259236 0.5168016 0.6134529 -0.105039604 0.11872206 -0.82882845 0.17317244 -0.42875373 -0.31527987 -1.0664679
sake_meter_value:4.00 0.15686041 -0.46291664 0.055197906 0.19229192 -0.019150998 -0.11596451 0.090770565 0.68664026 -0.3540753 -0.9748095 0.98476774 0.385277 0.40018737 -0.13875611 -0.28479993 0.029535938 0.85893095 0.34749427 1.3917725 -0.29680943 -0.38269827 0.22022066 -0.35547376 -0.59755343 0.25741693 0.06547061 -0.33843198 0.02674117 -0.37802726 -0.37408626 0.8192833 0.48651326 -0.003018991 -0.13729802 0.63272846 -0.7229273 -0.19168231 -0.8228901 -0.43692276 -0.38329977 1.2228463 -0.23846342 -0.018639063 0.51899195 -0.083970495 -0.36604455 -0.05819582 0.5776941 0.25483254 0.8158974 -0.08400002 -0.5880152 -0.3208456 0.9108223 0.47961074 0.9733762 0.49303743 -0.8113415 0.8665364 0.431023 0.29689467 -0.004773808 0.0074945753 0.16662993 0.11242724 -0.2693774 -0.7395919 0.013770521 0.7959513 -0.33318603 0.2160622 0.10397788 -0.8970065 -0.657371 -0.2560456 0.48914126 -0.25022605 0.86746544 0.6702991 0.36270383 0.7892428 0.09802353 0.3250717 -0.049207363 -0.21132241 -0.6194472 0.040553626 -1.3511411 0.69782126 -0.033696275 -0.4350362 0.19790147 -0.4112298 0.09312175 0.27591357 -0.77641237 0.47971377 -0.0758244 -0.80684656 -0.7784504
yeast:きょうかい901号 0.35109723 -0.23568673 -0.46032792 0.027275974 -0.522052 -0.541935 0.4057532 0.33190936 -0.0157557 -0.41186127 -0.5459729 -0.16736208 -0.443236 1.0902436 -0.4949471 -0.8665956 0.5850096 -0.1007376 0.41197202 -0.34174278 -1.049161 0.71317685 -0.44070715 -0.1897106 -0.15166666 -0.5630884 -0.9322522 0.25888166 -0.01739008 0.04513661 -0.80594355 -0.34990555 -0.5818283 -0.6430082 0.075619824 1.3128542 -0.3998301 0.387075 -0.048901428 0.11325825 0.6100477 -0.81829304 -0.596645 0.26744848 -0.08314072 -0.58461875 0.48428813 -0.060085267 -0.9154875 -0.11369636 -0.97268933 -1.1853322 -0.025891233 -0.043595232 0.41168594 -0.1306864 -0.09325627 -0.11418642 0.39976412 -0.089816086 0.5579803 -0.46179277 -0.19882338 -0.45308143 -0.50565404 0.46216106 -0.8080113 0.17214032 -0.19786151 -0.25584197 -0.45229766 -0.076124154 -0.36476257 -0.22176337 -0.16019297 0.16769698 0.3407632 0.58197606 0.102996714 0.38706043 0.4583631 -0.2836235 -0.60597825 0.12759122 -0.54066163 -0.7756317 -0.48730713 -1.314396 -0.5891846 -0.46450284 -0.11470054 0.15876059 0.22736277 0.25773674 -0.14098743 -0.8841393 0.8711184 0.1735307 -0.11166734 -0.6897386
amino_acid_content:1.00 -0.18560249 0.7298999 -0.024412524 -0.14756607 -0.2782682 0.7841704 -0.5810007 0.095117606 0.6622995 0.31444213 -0.03171268 -0.15432034 -0.2540613 -0.25733966 0.4396819 0.07612243 0.88357383 0.20466411 -0.37745273 -0.14270546 0.7544443 0.9905757 -0.1924251 -1.2945901 0.036796074 -0.6872434 -1.3721641 1.2244992 -0.3190509 0.24121027 -0.5513161 -0.69912887 0.17536539 -1.6379818 -0.19384857 0.28531402 -0.041395787 -1.0424439 1.1723391 0.3747932 0.25371906 -0.12192779 0.19675799 -0.15396912 0.010566218 -0.75911355 1.0480266 -1.4935195 0.6146087 -0.6793319 0.41963246 0.23886748 0.47266194 1.0858344 0.955251 -0.14837256 0.09758423 1.0513664 0.45236424 0.9387725 0.062377565 -0.45315272 -0.37559748 0.44643012 0.59768593 -0.007767376 0.41958985 -0.29488802 -0.22789536 -0.037510794 -0.18772759 -0.05174616 -1.1298828 -0.21515666 0.048462797 -0.034077574 0.33364516 0.93780506 0.52025115 -0.0032759227 0.10526112 -1.1856185 1.539392 1.6187085 0.08916906 0.35021466 0.23465225 -0.29016304 -0.10733692 0.2970751 -0.25868282 0.031084768 0.07794224 0.6615936 1.0870926 -0.10254327 0.19920106 -0.8028405 1.2242931 -0.22857504
rice:美山錦 0.052932665 -0.2151871 0.11910379 0.18425481 1.1006447 -0.9462544 0.15299131 0.83564574 -1.1706569 -0.14743906 -0.14122768 -0.5083773 1.2807213 0.47341865 0.62272227 0.13724908 0.18503508 1.0760401 -0.032418996 -0.77072245 -1.1578268 -0.056904078 -0.4789224 -0.014511424 0.8078899 -0.7356346 -0.80599195 -0.2926628 0.771312 0.4721166 -0.5788453 0.8198939 0.6973287 -0.878628 0.29624048 -0.3870718 0.08971892 0.39683 -0.82846206 -0.3032045 0.14571273 0.2744722 -0.55736536 0.83638173 -0.6230242 0.15498136 0.6580076 -0.4329308 0.32360002 0.22073664 -0.0017365792 -0.48733044 -0.13674642 0.007993093 0.14606495 0.39489913 0.512163 -0.133353 -0.74020547 -0.15839946 -0.639712 -0.35742325 -0.9198358 0.5650596 -0.11304955 0.12766083 0.8308644 0.6145329 0.083700396 -0.78504586 0.18508609 -0.67460436 -0.45672703 -0.56871337 -0.88452023 -0.9770554 0.13058855 -0.30704954 0.15653224 -0.39921167 -0.40141836 -0.7654899 0.17257382 0.29493618 -0.3735865 0.2837 0.18756445 -0.8165095 0.16921431 -0.062183406 0.012200328 -0.44350895 0.18549214 1.1092126 0.64010644 -0.9539063 0.50405127 0.19345604 0.4728717 -0.5863395
titratable_acidity:1.70 -0.39462632 -0.089411676 -0.5867936 0.9442599 -0.3538221 0.8586511 -0.6730475 0.34850368 -1.038276 -0.90697765 0.7596004 0.24022016 -0.0435343 0.5019823 -0.66051894 -0.6055697 0.051323205 0.72736686 -0.35246396 0.12089383 -0.15832032 0.08201118 -1.1334045 0.31775412 0.17324413 0.01838899 -0.5472092 -0.16453171 0.09462386 0.009979786 -0.14052454 -0.5068575 -0.29925343 -0.23790033 0.22167046 0.87281334 -1.0914505 0.024201278 -0.24509288 -0.19150677 -0.13553956 -0.652505 0.37265083 0.8133662 0.06738557 0.06256046 0.059545293 0.36335045 -0.2531113 1.2317168 0.27279082 0.07649938 -0.5874033 -0.049987372 0.43587327 0.4328298 0.06677218 -0.03847234 0.26189947 0.44522873 0.24579114 -0.30022973 -0.06692182 -0.32089734 0.33897507 0.25223744 0.12411846 0.36247227 0.19019112 -1.2120911 -0.25961906 -0.767416 0.39690307 0.3810998 -0.74925053 -0.015788695 1.1726121 0.06233616 0.870606 0.120302275 0.27845013 -1.112564 -0.46559176 -0.64947575 -0.9503863 -0.4174372 0.45105982 -0.2034228 -0.07401612 -0.12351384 0.15394725 0.26855782 0.22558647 0.44241905 1.2092484 -0.4626872 0.9533007 0.40067506 -0.12572615 -1.0938717
alcohol_rate:15.45 -0.22097594 -0.59167576 -0.64931977 0.76064616 0.25475165 0.27557662 0.92296064 0.16068631 -0.30951446 -0.4307004 -0.6481216 -0.279908 -1.5490571 -0.6598499 -0.010338602 0.15369982 -0.69655275 -0.033710074 -0.060240917 -0.53397876 0.13891616 0.46333703 -0.6257547 0.03437391 -0.09736651 -0.43553427 -0.3578434 0.9832232 0.004989948 1.0117611 0.52048916 0.07051022 0.0202587 -0.9416828 0.008062355 1.1431236 0.3704652 -0.4986513 0.35080355 0.8181305 0.71654093 0.8238499 1.1951389 -0.45290124 0.27066487 0.20311001 1.1883807 -0.61829954 -0.8677732 -0.11249399 -0.3195067 1.7614915 -0.31498867 0.83689547 0.83788943 0.77895 0.74238664 0.61061 0.8431484 0.3188677 0.5907305 -0.14574265 1.200807 0.44777152 0.10489698 0.24750102 -0.12435016 -0.15322295 -0.5978316 -0.039030988 0.39454845 0.10413145 -0.32707593 0.29171795 -0.21506396 0.94500977 -0.71805793 0.70196366 -0.8170538 -0.98892534 -0.4787799 -0.8358176 0.25430083 -0.118696354 -0.95792663 -0.2689206 0.13318564 -0.6588044 0.66504836 0.8315281 -1.1966667 -0.35081282 -0.19083178 0.9432577 0.3368225 -0.9818552 0.3151963 -0.35265818 0.35347915 -0.6654512
sake_meter_value:1.00 -0.3591941 -0.29172096 -0.2619123 0.35691383 -0.28581858 -0.047894493 -0.120255776 0.09142543 -0.3631348 0.08848809 0.5218743 1.0150827 1.4998184 0.08505077 -0.84897834 -0.22111855 1.3647285 0.35340583 0.28201216 -0.8479124 -0.28067583 0.26506314 -1.0463742 -0.44324753 -0.53742206 0.093032114 -0.91050124 0.818344 0.27620938 0.26229736 1.4756194 0.6484766 -0.90407807 -0.095354415 -0.033789832 0.410075 0.0070880842 0.40174684 -0.42802647 -0.5283304 0.05266987 0.007693174 -0.09104002 0.82466704 -0.3259102 0.539034 -0.117013946 0.6905423 0.16754343 -0.16954114 -0.8510692 0.5612046 -0.91836506 0.86948246 0.47428575 0.65869164 0.16758187 -1.0896096 0.39073625 0.11775588 0.35572 0.36297822 0.01895259 -0.1486274 -0.52546513 -0.37795952 -0.46510288 -0.2781091 0.09197928 -1.4733305 0.2187972 -0.07098642 0.04397766 -0.1760708 0.708647 -0.57166034 0.26332924 0.50017524 -0.038821757 0.6746141 0.7390369 -0.1185593 0.5972915 0.83124113 -0.6133517 0.28478917 0.12970413 -0.8653723 0.19733004 -0.46109796 0.10789541 -0.5712088 -0.06865879 -0.19609639 1.0056423 -0.85238224 0.1843125 0.056045342 -0.18619162 -0.25543115
sake_meter_value:5.00 0.5646947 0.232299 0.2208643 0.22006658 -0.0482208 -0.51478106 1.2136202 0.11287064 -0.44937348 -0.4971179 0.96065825 1.4561355 1.0214655 0.20923826 -0.513834 0.71443033 2.1775033 0.8708605 0.43747273 0.08463362 -0.33265448 0.050315246 -0.68996274 -0.4514298 -0.42497012 0.021445882 -0.08882508 -0.35767472 -0.6334422 -0.28806517 0.5952483 0.6308389 0.50469273 -0.23728706 0.8664353 -0.14627035 0.4945306 0.0129381325 -0.8282093 -0.64340985 0.28175125 0.12482642 0.8167685 -0.25000003 -0.15085754 -0.16050498 0.35973743 0.27272695 0.5357924 -0.3862087 -0.6955123 -0.10488652 -0.17590287 0.5664545 0.25453606 0.14977767 0.5905649 -0.6526522 0.36357054 0.6888001 0.6236427 -0.1474488 -0.21970879 -0.038191747 0.0539864 -0.044629805 0.2178023 0.40502834 0.6924604 -0.26994407 -0.1800277 -0.55023396 0.0872804 0.04986303 -0.7717918 0.4172994 -0.5250214 0.21365748 -0.3565035 -0.42809522 0.9155953 0.23226124 -0.2285101 -0.35098997 -0.31016505 -0.26145774 0.046454437 -0.006824148 -0.28097633 0.21927446 0.070702754 0.20879622 -0.48299536 0.17717597 1.2199627 -0.94673544 0.9035698 1.0465989 -1.1351591 -0.24089116
sake_class:大吟醸 0.48001918 0.5133084 0.22067688 0.46938008 0.41438657 -0.68138576 -0.20128694 0.5594133 -1.276449 -0.7519395 0.8089991 0.032116093 0.75025696 -0.20880935 -0.19732895 -0.2624433 0.44388837 -0.5692318 -0.5192924 0.413778 -0.7175784 1.343536 -0.20138331 -0.060822003 -0.29525435 -0.5920418 -0.9492922 -0.68497413 -0.33960435 -0.7901045 0.079109356 0.09496126 -0.15378621 -0.19764817 0.4249371 0.49277177 -0.46569237 -0.033543475 -0.38535565 -0.23759003 0.42526683 -0.44433403 0.4585046 -0.57840717 -0.09432078 -1.5776719 -0.38261157 -0.24069189 -0.07591107 0.2464705 0.16139026 0.7529591 0.7899168 -0.019881638 0.5005791 0.3582803 -0.017417457 -0.07536566 1.0849208 -0.10628176 0.38801003 -0.86636424 0.6201771 -0.7004599 0.48578176 -1.0573546 0.18065974 0.043329287 0.7657946 -0.5600887 0.26338965 -0.11072086 0.06929632 -0.07296932 0.570633 0.06803883 0.564781 0.6408493 -0.6437842 0.058646582 -0.31223953 0.19645287 -0.58820266 0.30943918 -0.20187697 0.9945681 -0.21366039 -0.8963764 0.20476675 1.0309879 0.43227428 0.40771377 0.2381211 0.91997176 0.70114493 -0.61425346 0.101944886 -0.30805847 -0.07214284 -0.047868036
amino_acid_content:1.20 -0.5262484 0.15705435 0.27358124 0.18928362 0.096836284 -0.96326506 0.5641275 -0.37133664 0.3839595 -0.9390035 -0.3785644 -0.65631926 -0.25824583 -0.48843166 0.13153115 -0.3816463 -0.36464113 -0.7135822 -0.44807008 -0.7592111 -0.5603696 0.11298923 -0.607325 -0.58695894 -0.050693896 -0.9299718 -1.3216199 1.3514818 -1.5792173 -0.62327266 -0.24815989 0.48338985 0.8269186 -1.0367075 0.0405023 0.06524267 0.34223464 -0.120522745 1.0059857 -0.0024739602 -0.45753095 -0.6178016 0.24029051 0.23818205 0.47754323 0.45427403 1.1770808 -0.051874656 0.22363819 -0.49724045 -0.2451638 1.3348459 0.8181037 0.92839116 1.2622696 -0.40726987 0.020657912 1.6112187 0.64681864 1.0506366 0.3153568 -0.13590437 -1.0725713 0.14642748 0.47717887 0.21496572 0.4978332 -0.16895749 0.24033307 0.36663842 0.08356803 -0.49288625 -1.0421088 -0.6852747 -0.6898887 -0.33921182 0.34906518 0.45361495 0.0396505 0.64383364 -0.90913236 -1.1367406 1.0262868 0.91883075 0.1678165 -0.42534012 0.3898012 0.25669226 0.55865777 0.90224963 -0.66327024 1.2848706 -0.52548045 0.58358467 1.1850089 -0.7094013 -0.032746475 -0.58416706 0.8928555 0.39963114
titratable_acidity:1.80 -0.7998695 0.13014026 -0.45230874 -0.108376816 -0.49765077 0.40084317 -0.7216911 0.5666676 -0.29776168 -0.97964555 -0.5138434 0.67033833 -0.4018603 0.368434 0.16690888 0.5652731 0.8266342 1.3733889 -0.024399605 0.28401825 -0.8628689 -0.36283344 -0.92643404 0.7673528 0.9985788 -0.34881967 -1.1537448 0.17691286 -0.29437488 0.259604 -0.67977554 0.5425725 -0.2053682 0.16040191 0.31370702 0.94949615 0.35048506 0.18618429 -0.4633798 -0.7996875 0.40325812 -0.1361709 -0.17383958 0.25719634 -0.52171737 0.5011175 0.24862717 0.14877568 -0.104072236 0.8817612 -0.41477072 -0.29868847 -0.2789241 0.059908226 0.6688112 -0.05219696 0.091935515 -0.24866737 -0.08081771 0.77637273 0.08016955 0.44714266 -0.013545193 -0.12632188 -0.26574787 -0.06662111 0.4432935 -0.27139473 0.6408823 -1.419179 -0.115553334 -0.2713809 0.42700893 0.90504867 -0.5591328 0.5520154 1.4913394 0.3449354 0.24198896 -0.4377853 0.8447253 -1.0741673 -0.55616343 0.23638706 -0.3211683 -0.074842915 0.82847196 -1.0515554 -0.19429706 0.04283236 0.11748127 0.46214208 0.8127623 0.22063589 0.97752464 0.12123702 0.37005863 0.26413813 -0.119845524 -0.74465436
amino_acid_content:1.10 0.4789252 -0.087504 0.3163804 -0.7448183 0.07493583 -0.47537488 0.051984247 -0.7305585 0.015294186 -0.2268687 0.2536103 -0.5141877 -0.7576432 -1.399337 0.19320409 -0.48593965 0.70533884 -0.6234679 -0.20576878 -0.24004236 0.8010127 0.8299856 -0.7964804 -0.82600015 0.117128365 -1.1773889 -0.61790174 1.141529 -0.51993555 -0.7199341 0.027546952 -0.19868593 0.8513255 -1.9330181 -0.43560186 0.5675091 -0.5916747 -0.6746558 0.29405388 0.66651386 -0.4932789 -0.45588037 -0.07602337 0.6961164 0.30835593 -0.85825604 0.15404266 -1.5959703 -0.9247974 -0.09942856 1.2543771 1.144344 0.08040057 1.3579398 0.1288235 -0.3625795 0.2583845 0.18107268 0.6135083 -0.2136172 0.5891939 0.24248707 -1.1364413 0.10863719 1.2808943 -0.049379457 0.12336959 0.44200638 -0.4744938 0.37072408 -0.27746373 0.6016026 -0.6360542 -0.57902503 -0.93145317 -0.09292454 -0.46625096 -0.22584999 0.24771366 -0.16861299 -1.250503 -0.29484093 0.84902644 1.681795 -0.13680974 0.17348596 0.11009541 -0.8587499 0.08344811 0.030753277 0.8463536 0.8649166 -0.27579483 0.25320163 0.93083394 -0.34726053 0.5562195 -1.0535138 0.37726897 0.44356257
titratable_acidity:1.20 0.4606617 -0.28148824 -0.48104528 -0.4144337 0.7653526 0.056899738 0.7472158 0.14694308 -0.6137312 -1.1195985 0.12411485 -0.15618116 0.20546198 0.26375526 -0.7555701 0.3696417 0.015780171 0.7518498 0.22607279 0.3378148 -0.6702205 0.9805067 -0.670867 0.034447417 0.04965902 0.36960962 -1.2704984 -0.72776157 0.060717326 -0.9237834 0.19089341 0.04008569 -0.33750418 -0.30977452 -0.5101064 0.25241503 -0.29565826 -0.25568464 0.09463438 -0.6536915 0.33420476 -0.87056327 0.8077962 0.15089968 -0.78465074 -0.6474175 0.49970385 0.18876165 0.71880776 0.91098225 -0.006303745 -0.56709915 -0.1003474 -0.15114911 -0.40191868 0.6915309 -0.3301443 0.37308642 0.44711265 0.27951136 0.19394524 -0.1368692 1.0813552 0.20653498 0.39267427 -0.25169516 0.37953454 0.41987866 0.63777345 -0.4125324 0.005988041 -0.8075231 0.5685059 0.11220919 0.21698079 0.01180808 1.2149163 0.10319894 -0.43290177 0.37628692 0.2160169 -0.5651521 -0.62258935 0.5241028 -0.4584002 0.17434685 1.0601326 -0.9593764 -0.24018258 0.22053164 0.24280912 0.3419111 0.84081805 0.16779013 0.14612415 0.0077349497 0.483468 0.3877326 0.26535136 -1.3456146
yeast:きょうかい1801号 0.67707676 -0.5360599 0.87822795 0.5276153 0.29964092 -0.44351062 -0.039197534 0.432812 -0.4200024 -0.70304734 0.19586821 0.248816 -0.07454738 0.50982076 -0.13031174 -0.9528606 0.6790535 0.48541132 -0.3780534 -0.3491032 -0.47739393 0.27589488 -1.4142234 0.40456662 0.16903505 -0.8859934 -0.7469626 -0.3013671 -0.7928884 -0.32025886 0.6807985 0.07594074 -0.5097479 -1.0767338 -0.39400953 0.81065327 -0.7448351 0.20831971 -0.43317488 -0.070969306 0.11509718 -0.5588634 -0.08877292 0.84575737 0.28460437 -0.7279578 0.43562073 0.27840808 0.25495493 0.5031858 -0.22562557 -0.25883943 -0.062513456 0.66553015 0.8333369 0.48067957 0.358246 -0.26373085 0.21657303 0.39291704 0.3456874 -0.659128 -0.29953554 -0.14349246 0.23276591 0.09370061 -0.3294883 0.14517651 0.11088142 0.2533018 0.43800682 0.12032959 0.6287421 0.23444103 0.15179747 0.48655298 0.073056936 0.08848387 0.32894328 0.10500853 0.93519473 -0.050290957 0.10255983 0.36214373 -0.8473899 0.5774406 -0.0050118216 -0.73063916 -0.40407455 -0.26464474 -0.42620495 0.19220953 0.39394215 0.84949243 0.88549924 -0.049533125 0.79641134 1.3673469 0.0917308 -0.3652217
city:京都市伏見区 0.67624474 -0.19741982 0.14518853 -1.1219424 0.4324092 -0.8048857 1.2327186 0.9047884 -0.24747474 -0.1266882 -0.92641217 0.38212025 0.08392775 -1.3434738 -0.81897235 -0.41007245 0.70700794 -0.42058444 0.40902454 0.07319083 0.113962345 0.4914056 -0.13563445 0.10806062 0.16041934 0.36007327 -0.96042484 0.86966044 0.5561931 0.07341862 -0.40006623 -0.12236041 0.11498204 -0.61590016 -0.4953842 0.7566641 -0.14077556 -0.13727114 0.30098528 -0.8537712 0.5870384 -0.12873545 0.32646152 0.4510299 -0.17778057 -0.13742949 0.17312928 0.12042994 -0.4986159 -0.083950475 0.30063635 0.08770631 0.3504757 0.89426166 -0.21492009 -0.56706023 -0.053345982 -0.22236545 0.7205472 0.027888102 1.0676897 -0.66164815 0.062652655 0.65139526 -0.7206555 -0.62956244 0.7203179 -1.1365033 0.16041815 0.001275456 0.43820208 -0.5395339 -0.5533609 0.034523938 0.39813888 -1.4478235 0.5089372 -0.2583805 -0.16903274 -0.3033451 0.43092373 0.9972635 -0.43575847 0.32539818 -0.18585885 0.63847613 0.16561756 -0.30045205 -0.17374979 -0.3437369 -0.04049668 0.12496807 1.0956236 -0.932108 -0.47207144 -0.34448108 -0.05384064 -0.27117118 -0.16693546 -1.0350616
rice_polishing_rate:70 0.4981003 0.54227793 -0.0426133 0.065778226 0.028954877 0.056408104 0.2115404 0.31683254 -0.20625648 -0.62690246 0.0758254 0.64181346 -0.1132651 0.7803584 0.23013404 -0.8932746 1.4830899 0.6981497 0.8841568 -1.0910319 -0.17648944 0.15356703 0.37517747 0.45804465 0.33152422 -1.1517922 -0.22497614 -0.43721107 -0.68037015 -0.25097895 -0.42019212 0.15226452 -0.7368234 -0.2099674 -0.7815528 0.93305457 -0.10883484 0.0073219244 -0.8481684 -0.4224055 -0.27598527 0.2229853 0.5607933 0.8123167 -0.116155334 0.5017478 1.4054949 -0.5005449 -1.4013215 -0.09636112 -0.60103595 -0.62146443 -0.91527444 -0.43133286 0.11799073 0.18400076 -0.71201813 -0.9681485 1.0355475 -0.10772647 -0.08715807 0.5276569 -1.4638138 -0.3580536 0.5368173 0.6850356 0.3494621 0.21412416 1.3495854 -0.708346 0.31568173 -0.5867504 -0.04752616 -0.10696825 -1.0742774 0.30705094 0.7478022 0.10150046 0.17071016 0.49645278 -0.33643746 0.6545442 0.6329332 0.0729336 -0.36393383 0.69390947 0.9066045 -0.32917133 -0.5610297 -0.33163536 0.89461005 0.5237744 0.7836173 -0.7522673 -0.23598383 -0.25962403 0.010249825 0.07257843 -0.15599485 -0.0041853236
prefecture:山形県 0.41225192 -0.36885363 0.59488773 -0.44131345 0.77198684 0.08248701 0.8579034 0.7950444 -0.3132571 -0.40973526 -0.15785272 1.1361336 0.35461208 -0.27996927 0.80125237 -0.2598757 0.07887196 0.49002156 -0.26399395 -0.070116855 0.3268899 -0.075466715 0.47925785 -0.15974471 -0.215091 0.26387239 -1.0490388 1.1376961 -0.5600634 1.2668803 0.5392151 0.0600287 0.28040025 -0.86324173 -0.3211412 1.332687 -0.41036156 -0.4419277 0.09454006 -0.24187626 0.33367687 -0.4525967 -0.24177152 -0.0052028187 -0.5917502 -0.07948856 0.45459008 0.09370022 0.4335289 0.30318907 -0.12463214 -0.51121575 0.013959374 0.030588321 -0.38185397 0.21263504 0.48642334 0.24609719 -0.22244306 0.13437185 0.028628018 -0.54460394 -0.004212307 -0.18408883 -0.9667774 0.21591745 1.1531693 0.06402146 0.32278934 -0.6205274 0.40161014 -0.14845252 -0.49426404 -0.04334343 0.85955566 0.46564758 0.22952239 -0.28080058 0.193262 -0.08825747 -0.75121015 -0.31830654 0.011878083 -0.09954387 -1.1782484 0.39004618 -0.02305244 -0.01967896 -0.8951854 0.29527432 0.35785154 -0.39596438 0.30678773 0.30245972 0.43820268 -1.3973062 0.35366523 1.1172714 -0.047871377 -0.7245581
alcohol_rate:15.50 -0.17488457 -0.39350262 -0.3619996 1.8155174 0.53929454 0.10605949 0.7790823 -0.5711581 -0.67673284 -0.29866165 -0.6175082 -0.93084776 -0.69718623 -0.113068074 -0.717431 0.246039 -0.17541398 -0.73823225 0.009492242 0.1418028 -0.29326594 0.907276 -0.16634926 0.16387707 -0.1813166 -1.2359384 0.0041234726 0.66589284 0.62031 0.52616125 -0.4485181 0.7138227 -0.30722144 -0.55901504 -0.28437096 1.4801326 -0.6521811 0.613618 0.69986826 0.7062998 0.6647339 0.03504329 1.8553115 0.3639261 0.7481532 0.5464004 0.45186716 -0.31465557 -1.4376059 -0.38064203 -0.4328152 1.1519327 0.27580276 0.64753944 0.112073325 -0.28160235 0.118624255 -0.45628303 -0.6229439 -1.0170577 -0.20487085 0.23250191 0.10280673 -0.1555344 -0.85881835 -0.15481126 0.9975643 -0.688731 -0.24076758 -0.2188645 0.65820324 0.66243976 -0.060067836 -0.8409899 0.555907 -0.7314213 -0.4119461 1.4152617 -0.27884156 -0.42481574 -0.5732323 -0.36134553 -0.24540217 0.74495745 -0.37414157 -0.2564618 1.3218591 -0.1409521 0.7320162 0.61905813 0.0056923092 0.33297274 0.48901078 -0.56062835 -0.0016757147 -1.9095389 0.5402672 -0.23828696 1.4375899 -0.111757725
alcohol_rate:17.00 -0.57216585 -0.588386 -0.1680276 1.1573395 -0.5479108 0.26105407 0.19037078 -0.23423298 -0.8367251 0.69536823 -0.98841655 -0.3575009 -0.3986121 0.10802066 -0.3521437 1.2882767 0.8321052 -1.131334 0.81137997 -0.67247105 -0.96982265 1.2918578 0.45063466 0.62947 0.0028156366 -1.2196603 -1.910091 0.44305092 0.5412996 0.44367468 -0.32861862 -0.2405439 -0.334818 -0.10141362 -0.66579807 -0.20017251 -0.7943968 -0.26375017 0.0031580736 -0.012516271 -0.16853255 0.9588018 0.9483605 -0.17542884 -0.2017616 -1.1744853 0.9842152 -0.8343147 -0.65497935 0.30607727 -0.09497851 1.2059251 0.050384447 -0.18172857 -0.1953376 0.70526636 1.0454267 0.76632744 0.39174354 -0.20313357 0.25848392 -0.630615 -1.1303511 0.11963567 0.20730487 -1.4809303 0.3306849 0.21363789 -1.4676532 -0.19842547 -0.30278695 -0.15823439 -0.31370664 0.3626137 -0.49933708 0.12320836 -0.5362005 0.54124933 -0.08416559 -0.21474841 -0.2706385 0.23450814 0.111789055 0.95419675 -0.08684967 0.5693014 -0.12731306 -0.32163534 0.23066215 0.3054132 -0.5273405 0.26464576 0.33540472 -0.3068796 0.16438317 -1.0090904 0.3976349 -0.67999715 1.3587067 -0.3482208
sake_meter_value:0.00 0.102551855 -1.0091361 0.11077039 -0.22990888 -1.2308282 -0.48475346 0.25851 0.099490836 -0.11446784 -0.22827184 1.1922641 0.06797805 1.0223434 -0.5931242 -0.14904934 -0.18503013 1.2657493 0.6108603 0.5151266 0.38381144 -1.1191297 0.5940857 -0.60636127 -0.11156884 -0.5658266 -0.06261732 -0.067976825 0.27433744 -0.04747415 -0.42916662 0.9640331 -0.1679416 -0.39689568 -0.21126549 0.49305937 0.38101676 0.91704917 0.09379288 -0.79865855 -1.1271344 0.27380362 -0.1294872 0.2967559 0.04262459 -1.191997 -0.4235691 0.7285361 0.33238682 0.24831669 -0.47882736 -1.1973889 -0.923167 -0.31276596 1.1290302 0.79331976 -0.037526473 0.47477543 -0.8257895 0.77605295 0.2414563 0.32256517 -0.30108088 -0.048651475 0.11968675 -0.0004959802 0.4060814 0.40791976 0.22370562 -0.4566437 -0.5606354 -0.9951482 -0.4428723 -0.27569237 -0.53213215 0.18277955 -0.433927 0.7230215 -0.64254624 0.09326685 -0.38119987 0.7544239 -0.23564295 -0.049867965 1.0339578 -0.80046916 -0.09200687 -0.67720264 -0.30055082 0.08982253 -0.61233795 -0.04696246 -0.045807365 -0.13623671 1.0476458 0.52342635 -1.3043555 0.3408301 0.3039436 -0.3716247 0.02822243
amino_acid_content:1.30 0.9241695 -0.34387735 0.7317342 0.0466606 0.33721215 -0.8411972 0.23346047 0.31192216 0.043895353 1.4197817 -0.049278155 -0.10158863 -0.73888403 0.3379285 0.30161056 -0.74730134 -0.22408065 -0.14863531 0.13923395 -0.58983517 -0.78454787 0.80988806 0.6197221 -0.77342665 -0.75279856 -1.9500585 -1.0167015 0.29176956 -0.73281807 -0.72128516 0.4769168 -0.37119654 0.97821605 -1.22088 0.7309521 -0.2815527 0.1892694 0.08293456 0.8976424 0.88988674 -0.42425746 0.42708656 0.33329213 1.2195084 0.11876433 -0.046366706 0.8958358 -0.9082275 0.49219894 -0.27036518 0.35552302 1.5338589 0.025022889 1.3191919 0.11288104 -0.49704927 0.4934471 0.047387026 0.46416733 0.25714403 0.7338531 0.012041472 -0.8927861 -0.3774371 0.89319646 -0.06021009 1.2268143 -0.24016565 0.7945906 1.0002156 -0.05961338 -0.6187544 -0.7414085 -0.5808465 -0.4341426 -0.17403753 0.3760876 0.61482877 0.09300033 -0.07573906 0.54083556 -0.65248406 1.2045907 1.4053011 -0.02599729 -0.33655924 1.1857636 0.43781796 0.5213775 0.05141272 -0.21264137 1.1527686 0.5850207 0.7019533 0.92974234 -0.6626513 -0.22715695 -0.5873797 0.5527554 0.5464785
prefecture:長野県 0.15830414 -0.9001945 1.2057738 0.5578569 0.3465598 -0.42397708 0.12945779 0.43087527 -0.82499063 -0.2319791 0.19846675 0.28716886 0.13961735 0.61359465 -0.6238287 -0.3993327 -0.8598302 0.7199182 -0.20934655 0.30142087 -0.5137227 -0.13759646 -0.6292023 0.20593612 0.6975727 0.5876213 -0.50230527 -0.073602684 0.35874486 1.1420356 -0.38286355 0.82795393 0.08862963 -0.59371907 -0.15215969 0.60767835 -0.3963368 -0.03624423 0.29351908 -0.6369757 0.6265347 -0.80642194 0.041869976 0.7412408 0.34193882 -0.016232535 0.7744778 0.28980193 -0.25186646 0.54054403 0.59292525 0.5354884 0.0065595033 0.5929711 0.12166192 -0.60130584 0.8360411 -0.6201477 0.8847048 -0.47377852 0.43506917 -0.6165076 -1.2555718 0.09857769 0.0822336 0.062925175 0.66829383 0.8014465 0.40501502 -1.5970645 0.64567894 -1.0126035 -0.90328515 -0.24798003 -0.19003305 0.18658029 -0.40255395 -0.1062933 0.46452564 0.23012401 -0.31237483 -0.275554 -0.5835397 0.17833672 0.27009165 0.08419857 0.119829305 -0.58616793 0.4572672 -0.09281866 0.2064839 0.6894473 -0.13922727 -0.37770078 0.66442716 -0.99876684 0.43256515 0.4448178 0.4025081 -0.106796056
prefecture:宮城県 0.32322365 -0.6228813 0.07370101 -0.5201044 0.314564 0.44935673 1.143014 0.6811752 -0.6012236 0.11052511 -0.013692305 1.1191816 -0.80179507 0.04481324 -0.1926507 -0.059955783 -0.56626016 0.23444842 0.18590695 0.08106405 -1.2791214 -0.23425156 -0.49153408 -1.1865027 -0.14793406 -0.26767907 -0.81238395 1.1548514 0.08508398 0.4842298 0.16009134 -0.24638738 -0.5859412 -1.2649349 1.0076568 -0.1405545 -0.82099336 -0.2761675 0.030004015 -0.1127932 -0.5386916 -1.4406958 -0.3946618 0.77519095 0.115650184 -0.6178101 0.23195466 0.41714832 -0.25806752 0.5654883 0.021131111 -0.12966327 -0.059189577 0.28399482 -0.13622777 0.46559432 0.05304449 -0.34689215 0.52825034 -0.2837204 0.2503365 -0.075337276 -0.5979357 -0.15710606 -0.7872333 -0.4592226 0.4357302 -0.6659559 0.7098929 -0.28808594 0.6523375 -1.0166849 -0.4035434 0.8992959 0.3656408 -0.16710192 0.6948991 0.21663696 -0.47603506 0.5168234 -0.0031490845 -0.1145336 0.5228267 -0.7186133 -0.43534246 -0.5610333 -0.34199092 -0.564034 -0.8870505 0.36680353 0.1723425 0.68104845 0.17674993 0.6266307 0.50386584 -0.634402 -1.379466 0.28252473 -0.061904423 -1.3741474
yeast:詳細不明(蔵付き酵母) 0.5114854 -0.7357334 0.06330113 -0.15660706 0.04176174 0.18565375 0.52583 0.5190024 -0.11627735 -0.81624204 0.0020954919 0.84419036 -0.12226466 0.8423933 -0.34532532 0.1133934 0.36969277 0.0050871195 -0.43012276 0.4740494 -0.7138595 -0.40055966 -0.6635317 0.48502707 -0.32989785 0.7136062 -0.2204176 -0.6607086 0.64229953 0.01999794 0.05550686 1.0151632 0.23251756 -1.0659571 -0.08512818 1.8068767 0.04949142 0.33482614 -0.0063030706 -0.56976557 1.3045465 -0.028451394 -0.42008758 1.200834 0.4387962 -0.017024394 0.216633 0.107985735 -0.59643203 -0.14791307 0.766565 -0.1950065 0.9903029 -0.15307666 0.3238403 -0.026670096 -0.36448103 -0.16493668 0.08903904 -0.22032148 0.13770524 0.42604432 -0.19255862 -0.30238006 0.53086925 -0.043582592 -0.19435616 0.39620012 0.58954304 -0.3301435 0.105557725 0.36453867 -0.062412355 -0.54950327 0.22512792 -0.5000248 0.47630557 0.8471159 0.4550625 0.26504663 -0.05858914 -0.10543964 0.26616967 -0.47392377 -0.05308988 0.10184157 -0.329257 -0.58349174 0.063650385 0.29138792 0.075330585 1.4101858 0.24540639 0.682748 -0.05351026 -0.9724751 -0.29739973 0.18583305 -0.46766093 -1.2702672
rice_polishing_rate:40 0.55859107 0.1752745 0.082534924 0.2657314 0.37881082 -0.80644524 -0.36212635 -0.057119146 0.15944849 -0.14633939 0.7498377 0.33353016 -0.013010929 0.77795756 0.27208757 0.3145768 0.32604182 0.13735968 0.04426137 0.6765764 -1.3652126 1.0744166 0.050194312 -0.2510276 0.2041674 -0.77559847 -1.0838344 -0.9526506 -0.98047626 0.06543039 0.5266652 0.57033837 -1.1240156 -0.64350647 0.28048804 0.9541537 -0.06437302 -0.628535 -0.7085367 0.057996657 -0.39343396 -0.21003504 1.2012893 -0.09635182 0.70525634 -1.1942561 0.30554366 -0.26358426 -0.3536031 0.6538651 0.06610606 0.071887255 0.93483996 0.8563254 0.24944985 -0.09078392 -0.52499396 -0.19757901 0.6335773 -0.65142417 0.18490231 -0.50260967 -0.23766628 -0.24993931 -0.8429113 0.18250774 -0.051682066 0.5308235 1.2822293 -0.057477638 0.26747867 -0.4818696 0.08365752 -0.14965165 -0.22564611 -0.9431132 0.18768862 1.3600849 0.236807 0.17644964 -0.052389458 0.59409744 1.3482971 0.61864537 -0.6316066 0.17168833 0.1033217 0.3533674 0.76920885 0.79294884 0.38075027 -0.3561617 1.362206 0.9916266 -0.2647701 -0.0857474 0.09851363 -0.5214699 0.924629 -0.88460153
method_for_making_sake:生酛 -0.2804435 -0.3404964 0.17430684 0.06297421 -0.25177872 -1.1898342 1.6475332 -0.5941005 -0.58959097 -0.41581488 -1.1467261 1.1463078 0.40332842 -0.18837184 0.31690314 -0.35459512 1.0015987 1.1782023 -0.28573468 -1.0379465 0.2595369 0.03770537 0.39171657 0.51215637 -0.7914894 -1.1850158 -0.17350955 0.727476 -0.17875719 0.55769145 0.0037030745 0.8242464 0.0067073074 0.16850439 -0.38243073 0.36621422 -1.1623491 -0.9749647 0.92351454 -0.21867996 -0.22804801 0.0024001203 0.25682363 -0.04132529 0.39219752 0.3573262 0.43775254 -0.008394333 -0.007920858 0.35502708 0.45677665 0.16960073 0.3041524 0.49868557 0.4794336 -0.40320736 -0.79816866 -0.22510341 -1.0266626 -0.22426516 -0.0033065744 -0.20187028 0.22100577 -0.045139898 -0.46948642 -0.14266059 -1.2857893 -0.44381538 0.5010769 -1.506216 -1.3967012 0.3901315 -1.0227109 0.20545337 0.17472549 0.19366254 0.71587235 -0.6410312 1.2367197 -0.055006254 -0.024713224 -0.021209976 0.048316617 0.6635811 -1.3121154 0.42481112 0.2238315 0.18317124 -0.40833074 0.5957892 0.15270525 1.0988789 -0.2157502 1.0434574 0.9553346 -1.0771325 0.56149215 -0.091389224 0.4911663 -0.49125305
method_for_making_sake:新酒 0.8668448 -0.45818457 -0.30240756 -0.35989717 0.32023346 0.073563375 0.21009545 -0.14820467 0.1765504 0.021181071 0.17470142 0.004979448 -0.36002126 0.6410758 -0.054272745 -0.4238457 1.3023249 -0.0043016234 -0.11915177 -0.7227193 -0.871421 -0.46584234 -0.5499749 0.20178795 -0.8609801 -1.2427202 -1.7867122 0.93610203 -0.2806135 0.99976563 0.52233267 0.36408162 1.5887469 -0.01849202 -0.0071188672 0.5792494 -0.57009083 -0.17910206 -0.89805263 0.30970508 -0.24348874 -0.03344737 -0.5611236 0.6711214 -0.74676174 -0.9088977 0.73192704 -0.15995204 -0.3767034 0.026330749 -0.15809067 0.12016038 -0.05958798 0.608808 0.4610333 -0.16312678 0.62722594 1.6676037 -0.032119494 -0.24773821 0.875852 1.2193375 -0.69405866 -0.9258563 0.71632206 -0.5417571 -0.5990898 1.2056206 0.5019146 -0.24282236 -0.012791669 -0.37655523 1.3800915 0.41015962 -0.035225287 -0.43866602 -0.2187323 -0.009022041 0.29312596 0.5953658 0.022673376 0.11118126 -0.65833694 1.5198792 -0.080346905 -0.10596404 0.07264199 0.24336354 -0.010251032 -0.5580639 0.856402 0.75309974 -1.0029446 0.09931332 0.12950994 0.61700344 0.755745 -1.4360368 0.20785019 -0.7730011
method_for_making_sake:ひやおろし -0.4653597 0.792235 -0.72977406 -0.23186813 -0.53282833 -0.30294663 0.9574097 1.1009922 0.0334276 -0.15131003 0.1788364 0.04689876 0.06360741 0.66030914 0.25145194 0.59285086 0.48501205 -0.1683765 -0.11327338 0.68254143 0.26210052 -0.5872045 -0.5461868 -0.85675615 -0.03850159 -0.8166098 -1.5141379 0.0038185534 0.19304433 0.78770965 -0.14921555 -0.038339164 -0.26368454 0.02268188 -0.44442254 1.3257642 -0.74447364 -0.04490334 -0.6660797 0.8796861 0.7487514 -0.17225595 -0.055057175 0.38901585 -1.3937005 -0.31271368 0.23905832 -1.2474539 -0.592486 -0.18631381 0.22102617 0.77097833 0.23790146 0.5701188 0.20683649 -0.6971133 0.67949647 0.11676542 0.60414684 -0.8141968 -0.44020712 -0.22322527 -0.0007275305 0.1541996 1.0573715 0.44464087 -0.32768708 0.98803425 -0.73374546 -1.0137243 0.4465615 -0.24205014 0.74613404 0.3051175 -0.62468284 0.2980093 0.6381449 -0.19399795 0.4556824 0.14419311 0.92574793 -0.596973 1.2209939 0.47525144 -0.1038065 -1.1775373 0.87881553 0.35802177 -0.09334328 0.36968434 0.15467611 0.72811615 -0.3218259 0.96116 0.19992144 -0.1528354 -0.4686534 -0.79959977 -0.137882 -0.4747247
amino_acid_content:0.90 0.12733921 -0.14546733 -0.021407932 -0.4991044 -0.11253238 -1.3433644 -0.41247153 0.66367465 -0.6738057 -0.7193331 0.017437806 0.06829907 -0.00960979 -0.33714598 0.16808301 0.34865627 0.22982512 0.06818109 -0.07362411 -0.55745935 1.1139832 0.52083933 0.35205096 -0.3971983 0.18603215 -1.7169316 -0.51366276 1.7249132 -0.68915576 0.17410491 0.5555787 0.13836928 0.78754497 -1.2055624 -0.59627086 0.5612632 0.20274976 -1.9073524 0.5041174 0.5229794 -0.78499144 0.3011556 0.9373687 -0.0013688774 0.1253416 0.2552472 0.28351787 -0.5026483 0.27501357 -0.57715845 0.16517146 0.21879141 0.73509926 1.2356743 0.68031836 0.27633262 0.6358867 1.3147533 1.1318381 0.026257105 1.0086921 -0.7947643 -1.1677476 -0.90695584 1.4628702 0.49384683 1.3216758 0.69068325 0.1554703 -0.5374842 -1.0076538 -0.6397367 -1.0941601 -0.6816228 0.22022416 -0.04427424 0.3492588 -0.44660375 0.6558779 -0.022155391 0.38395107 -0.2516949 1.5659244 1.2910444 0.7366183 0.36530802 0.12334353 -0.17514251 -0.676578 0.7019438 -0.80976903 1.2326599 0.059732053 -0.63982165 0.053870738 -0.43601444 0.34559795 -0.53432083 -0.0073842783 -0.1582518
prefecture:秋田県 -0.17384481 0.09404211 -0.17423378 -0.76589555 1.3203155 0.38481674 0.3317314 -0.16375189 0.12452463 -0.29326198 -0.3012413 0.42757037 -0.49307913 -0.6846257 -1.1245081 -1.020607 1.3191193 0.7048528 -0.2969333 0.7856069 -0.5775734 -0.24176142 0.30985638 -0.5230674 0.34524873 0.35138503 -1.0021119 -0.34468582 0.6416679 1.1788592 -0.3841448 0.16939415 0.079059 -0.7604893 0.48824483 0.70576525 -0.7734489 -0.30903634 0.27871385 -0.19538279 -0.21192563 -0.37843457 -1.072405 0.46757248 -0.37549317 0.1322408 0.21259606 0.852492 -0.04383384 0.29698995 0.6940795 0.26899955 0.70905983 -0.28011677 0.82940763 -0.031258643 0.86718404 -0.18046252 0.6574092 0.013767193 1.0276641 0.37962517 -0.7656309 0.33741665 -0.19798213 0.121648 1.2294347 0.37637442 -0.16317578 -0.70538634 -0.12788813 -0.63873553 -0.7627705 -0.21978514 0.5562045 -0.23757313 -0.11267359 0.17826164 -0.27193362 0.6690225 -0.805205 -0.20055269 0.8775827 -0.13657731 -0.79728574 0.5800527 -0.02489464 -0.16369203 -0.1484461 -0.39501604 0.1947035 0.22215618 -0.4524093 -0.09971673 1.0450276 -0.19242471 0.24712971 0.64854497 -0.99429435 -0.6339307
dgree_of_sweetness/dryness: 0.42387837 -0.24145378 -0.8134698 -0.09218653 0.3439776 -0.11578054 1.122136 -0.030779753 0.6025276 -0.44194874 0.21200506 -0.16810688 0.18599562 -0.26557228 0.3785225 -0.9210019 0.4245152 0.53926975 -0.4171017 0.18638267 -0.9257451 0.18201837 0.5972554 -0.22486474 -0.0022830972 0.11567318 -0.20992476 0.25924987 1.0134145 -1.0790578 0.092131615 0.52371037 -0.4798622 0.48680764 0.34190816 0.95742947 -0.019526778 -0.41210914 -0.40476057 0.06964538 0.9593504 -0.867565 0.26591697 0.7933758 -0.0014051363 -0.08668019 -0.041490853 1.078509 -0.12040574 0.38952965 -0.3734931 -0.26546618 0.5449721 1.3255383 -0.44189778 -0.13206883 0.82544607 0.85873926 0.76777875 -0.12755004 -0.16877551 0.17394362 0.3716586 -0.47375134 1.3407501 -0.02519498 0.35019884 -0.7376207 -0.5617295 -0.4168079 -0.94681585 0.21363026 0.105850786 0.044859376 -0.90557766 -1.070133 -0.39955175 -0.20967993 0.40420568 -0.93704605 0.49667746 0.030451773 -0.55865353 0.5084733 -0.62282056 0.6966268 0.7526154 -0.04820007 0.8882894 -0.6869213 0.8413194 0.52291745 0.20967081 -1.2378188 0.032660704 -0.8232634 -0.8602803 0.5445556 0.36517462 -1.3138261
prefecture:新潟県 0.70775855 0.4322764 0.18134008 -0.36603802 0.7004507 0.9067832 0.014873941 0.9582073 0.018234879 0.41929126 0.29424068 0.7265107 -0.350401 0.11596535 -0.528185 0.2211596 0.056010637 -0.23294388 -0.21359627 0.1659541 -0.16687985 0.25288695 -0.42179167 -0.34465197 0.09840076 -0.44618833 -1.2515378 -0.7124637 0.42269132 0.5724355 0.31828377 -0.048360374 0.11378282 -1.6012094 0.6016239 0.23374198 -0.67280376 -0.23667124 -0.52488506 -0.022422366 -0.14925101 -0.7389142 0.7896912 0.07450595 0.4269255 0.7962507 0.15567629 0.819166 0.02113813 0.2953571 0.5034065 -0.2716189 -0.2586374 0.6520358 0.5771788 0.059073206 0.2574363 -0.18990016 1.0440426 -0.20413595 0.58666766 0.5749368 -0.20954771 1.0168337 0.04325848 0.32892203 0.43131763 -0.8623197 -0.24974735 -0.31845093 0.23566535 -0.09420297 0.22218134 -1.1427815 -0.105314575 -0.39630702 0.65694994 0.20602694 0.7878154 1.0714396 0.76622605 0.5046608 -0.73419935 0.27274808 -0.20363559 -0.16163208 -0.24002331 -0.7255791 -0.9374013 -0.7869848 -0.0010835037 -0.057940967 -0.22929184 0.07491643 0.35443008 -1.4537469 0.46203807 1.4140704 0.9493912 -0.36376846
method_for_making_sake:扁平精米 0.83957905 0.009227239 1.0110638 0.55392396 -0.2859718 -0.60173887 0.7179314 -0.00318032 -0.37489957 -1.1968025 -0.39371252 0.33406097 -0.8594504 -0.43448022 0.17607811 -0.11381154 0.24358204 0.1265551 -0.81630427 0.07979597 0.02566216 -0.5782264 0.15353017 -1.2688409 -0.4055194 -0.9730418 -0.6448951 0.5516194 0.42053404 0.9551528 0.6205552 0.077273205 0.3041015 0.085847475 -0.051107123 0.70068926 0.12921456 0.44967902 -0.2117898 -0.9854444 -0.54095197 0.4583778 -0.13514078 0.9786872 -0.6859724 0.15359686 1.143026 0.5699592 -0.77064115 -0.77187073 -0.20624185 -0.19506407 1.2349081 0.9649057 -0.2747812 0.52149254 -0.7578197 -0.60523635 1.5022998 0.84963614 0.4109201 -0.44237927 -0.4034145 -0.2076673 -0.22734466 -0.5189897 -0.2694049 0.50840753 -1.0135925 -0.29125044 -0.33761638 -0.9749283 -0.14017935 0.42978504 -0.5611501 -0.15134612 -0.47867346 -0.31970745 -0.16425431 0.6463689 0.17590164 -0.17085123 -0.1287567 0.36588633 -0.63410056 -0.30675027 -0.7126129 -1.025968 -0.36708614 -0.3985273 0.23121078 0.6429794 0.8136976 1.5606593 0.14974348 0.40066817 -0.54633987 0.14622849 0.39077497 -0.8816537
prefecture:高知県 -0.18548836 -0.14628932 0.4745015 -0.14088593 1.5583296 0.08611054 0.16781837 0.59259534 -0.13378699 -0.1266206 0.5108482 0.47462192 -0.24920078 0.71263 -0.23535563 0.08727157 0.41283247 0.0757705 0.8127518 0.7716451 -0.3993181 -0.012209487 -0.12899859 -0.05708433 0.4283579 0.65951115 -0.44940323 1.0862417 0.46593434 1.2248249 0.89573 0.07029046 0.09145551 -1.5119547 0.15016279 -0.015207169 0.21590227 -0.37831324 0.5947269 -0.16213728 1.1766672 -0.37500098 1.0265115 -0.20384185 0.4270798 -0.17523225 0.4867496 0.37766907 -0.49804857 -0.71424264 -0.59079885 -0.60567373 0.45529434 0.2837561 -0.063315496 -0.8625665 -0.15059355 -0.19746348 0.15666358 0.6932932 0.18052454 -1.0130932 -0.48510858 0.56770927 -0.18364789 -0.30673864 0.23464522 -0.30966258 1.1950556 0.01177064 -1.2275172 -0.11445159 0.040543336 0.7021185 -0.6374788 0.30308515 0.8290352 0.3206887 0.28468296 0.34469348 -0.5720543 -0.11635028 -0.44572166 0.44077364 -1.0471365 -0.10631598 -0.3246272 -1.1291599 0.11432149 -0.124176696 0.54448855 1.1017374 -0.5901381 -0.20317031 -0.41114065 -0.94530797 0.5461607 0.43488654 -0.39513773 -0.53185177
titratable_acidity: 0.6115167 0.33074573 -0.96229285 -0.07612478 0.4683096 -0.31462514 0.7663763 -0.029848933 0.48074695 -1.1727278 0.48149192 0.12575287 0.44872218 -0.84654385 -0.3647513 -0.72586626 0.95296186 0.77830863 -0.7094662 0.062054045 -1.6939799 0.26283836 -0.47935003 0.19974643 0.38537976 0.03028086 -0.8071957 0.16841707 0.6253867 -0.90289885 0.6593996 0.7386023 -0.09441996 0.11660823 0.119080685 1.0730529 -0.08809795 -0.51897985 -0.3619386 -0.3118452 0.98080343 -1.4969078 0.5343416 0.89031816 0.05823738 0.35199046 0.1125548 1.1187714 -0.57900834 0.70542824 0.14271562 -0.9254845 0.55939454 1.0885881 -0.41286552 -0.18912807 0.75371367 0.73755467 0.5217552 0.16474262 0.0422614 0.16257559 0.9680247 -0.53134036 0.5041164 0.3033915 0.41907024 -0.51993495 -0.20310436 -1.0179273 -0.6300028 -0.4453721 0.78849065 0.648233 -1.0260149 -0.5092743 0.41500604 0.2961966 -0.0007556971 -0.32711327 0.57571507 -0.09442712 -0.72146374 0.08364308 -0.76669633 -0.19236384 0.6897412 -0.5306642 0.1878554 -0.78281397 0.7456355 0.6982683 1.0059685 -0.67117023 0.1451233 -0.5438583 -0.12590437 0.99199826 0.23985508 -1.7409636
rice_polishing_rate:35 1.184766 0.7404065 0.31456786 -0.60837466 -0.27792785 -0.15934893 0.05434971 0.14557943 0.1922783 -0.801866 0.8383771 0.3638869 0.32168803 -0.09395665 -0.24606353 0.21649228 0.16952863 -0.38249788 -0.6418213 0.0035424626 -0.41998002 1.6701916 -0.23806022 -0.7912539 0.018012395 -0.7931083 -1.5538183 -0.6462213 0.20350078 -0.7095686 0.69294685 0.9522682 -0.2066807 -0.81084377 0.45909384 0.55431336 -0.4127315 -0.3034913 -0.14207818 -0.35005066 0.0482038 -0.71254104 0.7922528 0.86016184 0.75996 -1.535573 -0.32658648 -0.8437688 -0.4873064 -0.43757224 -0.85139173 0.30730996 -0.31266394 -0.27402443 -0.2456636 0.02939173 -0.6141042 -0.76349336 -0.3146739 -0.59229517 0.48747447 -0.46427932 0.045714535 0.49921665 1.174078 -0.0061426517 0.551161 0.43503788 1.0983475 -0.35562593 0.19881871 -0.49729726 0.119560234 0.6206144 0.23227917 0.22391629 -0.08776314 -0.026649596 0.8474904 -1.1317649 -1.0650142 -0.98780197 0.36245757 0.86377066 -0.56532305 0.366932 -0.12749778 -0.12989187 0.77418774 -0.16498691 0.30242288 0.1269731 1.0815507 0.4101395 -0.20678 -0.56383944 -0.01919377 0.4130809 0.5802735 0.030694533
amino_acid_content:1.50 1.2297256 -1.7047303 -0.2940337 -0.014898452 -0.018241996 -0.032021873 -0.32500902 0.9059728 0.35441062 0.107492626 -0.5921257 0.69811434 -1.2160281 0.20382914 -0.7141176 0.15057129 0.6541499 -1.7306502 -0.93705404 0.6818871 0.21936223 0.70709157 0.040278684 -0.7378202 -0.24308172 -1.405387 0.054378826 0.42829323 -0.7657752 -1.7353647 -0.45170125 -0.10387702 0.37412852 -1.9123482 -0.57560426 0.14407471 0.27575424 -0.39906147 0.6557476 0.26595676 -0.4801527 0.68375266 0.60773224 0.1600856 0.4642053 -0.13820519 0.98697877 -0.4725819 -0.11087115 -0.7107774 0.3184734 1.0820277 -0.5198411 0.62160605 -0.13795185 -0.25564393 0.37836984 0.84395224 0.5983006 -0.4684712 0.12531807 0.6606343 -1.6715974 -0.37838474 0.8618761 0.6594632 0.527358 0.46136728 -0.56180096 0.18467191 -0.028112572 -0.7162473 -0.77246183 -0.4533578 -1.3076189 -0.36092973 0.1970176 -0.33010042 0.1281008 -0.054575656 -0.32322654 -0.8133581 1.173522 1.3841543 0.5450191 -0.32953122 0.27641612 0.7834737 -0.32924575 -0.48339427 -0.6209408 1.2289612 -0.46835533 0.22816792 1.2138267 -1.4366279 0.45796898 0.036583073 0.0016453972 -0.714731
sake_class:本醸造 -0.23163074 0.36948246 -0.04324973 1.1267433 0.8149613 0.23188709 1.5468853 0.90122944 -0.63722754 -0.62533474 -0.0581094 0.047674112 0.22898321 0.7981771 -1.2249311 0.59179443 1.0916896 -0.616276 0.96334326 -0.33185023 -1.2205247 0.66588527 -0.15787709 0.036843363 -0.456082 -1.0363435 -1.3318152 -0.28616452 -0.34172097 0.28638276 -0.603262 0.58883685 0.643591 -0.7342737 0.40993363 0.75029814 1.0545322 0.033476386 -0.13762705 -0.30370316 0.0061958614 -1.2224259 0.44585237 0.5141982 0.35470954 -0.86089814 -0.08627463 -0.2858558 -0.9802605 0.8574719 0.20637716 -0.20036446 -0.9853618 -0.088475905 -0.2374007 1.0252646 -0.4625628 -0.34674454 0.4322442 -0.6311869 0.1533118 0.6712522 -0.067927055 -0.9815686 0.49070835 -0.61784744 0.92898434 -0.3769149 0.078072295 0.1701264 -0.03514194 -0.89610755 0.7916324 0.2655756 -0.8540141 0.787981 -0.3353737 -0.507537 0.083471835 0.52643114 -1.2215447 -0.2739588 -0.2179737 0.98662007 -0.5205723 0.3648411 -0.38826528 -1.1714252 -0.14427951 -0.08999926 0.01760802 0.40158263 0.47657755 1.4322118 0.15141721 -0.0744793 -0.18836787 0.5929256 0.41643962 0.524025
amino_acid_content:1.40 0.6823366 0.23311196 0.32970965 0.42900622 -0.30906177 -1.1314032 -0.03719952 0.6073882 -0.40438995 -0.25131768 -0.97021717 0.38602123 -1.6074247 -0.37588292 0.6894125 -0.38692608 0.729521 -0.66584045 -0.25037065 0.019786347 0.32686013 0.11564906 0.6015441 -0.67511827 -0.6454296 -1.9513812 -1.3985626 0.64920753 -1.3096664 -0.8573664 -0.46687424 -0.5737394 1.4104533 -0.20571218 -1.0192316 0.6905093 -0.23368563 -1.2658619 -0.10046485 -0.31135014 -0.21109273 -0.19476643 0.2623959 0.9669401 0.81618464 -0.12420278 0.63329965 -1.1115135 0.0303715 -0.886514 -0.8012215 0.8066853 0.3314738 1.6479715 0.5507341 0.07374518 0.55808896 0.3907321 -0.24801962 0.1232307 0.50587565 0.703794 -0.9871217 -0.21224616 0.16241163 -0.4830495 0.84226847 0.6122784 -0.31607464 0.40009296 -0.9480589 -1.1457912 -1.414716 -0.77090234 -0.6523708 -0.9451535 -0.14280434 0.6412758 0.2897914 0.5616211 -0.18865927 -0.4619975 0.21791507 0.31981966 0.77227634 -0.45712557 0.65962905 0.7551779 0.10482349 0.69220674 0.11075047 0.27392364 0.021632548 -0.18092807 1.3129125 -0.50325626 -0.54834956 -0.023951652 0.70540035 0.03372404
prefecture:静岡県 0.5639995 -0.92539984 0.5548611 -1.0779723 0.1992398 -0.5499795 1.3320537 0.54615885 -0.40407792 0.37323847 -0.099411145 0.91744757 0.25600755 -0.34148112 -0.08280901 -0.7228723 0.24945872 -0.20035492 -0.07639873 0.40423027 -0.79015094 1.109917 0.84248805 -0.78068525 0.020022849 0.31891325 -0.29530537 -0.25426856 -0.2285882 0.8170142 0.16823158 0.742146 0.480962 0.29897162 0.49222812 -0.28086042 -0.25208923 -0.037659846 0.90853995 -0.6540498 0.92853856 -1.4766092 -0.015345468 1.0063423 0.63115036 0.16742852 -0.091453776 0.82805735 -0.5824427 -0.3621732 -0.16184744 -0.30808592 0.018906526 0.12636352 0.96109754 0.23025918 0.44267142 0.06653854 0.2219769 0.44771865 -0.22451928 0.04429623 -0.63103795 0.6368828 0.70576656 0.27438378 0.9333725 0.38525382 0.038159143 -0.51572394 0.6418211 -0.07550512 0.23986104 0.27379295 -0.33426526 0.36999652 0.39821103 0.4769293 -0.36769116 0.113514714 -0.5054595 0.44691074 -0.3617141 -0.38089556 -0.44357052 0.32108063 0.07418673 -0.6908778 -0.21383311 0.66286725 0.20447494 -0.21487027 0.37354288 -0.07564217 0.42069474 -0.790423 -0.3527695 0.7887255 0.6499167 -2.030748
sake_meter_value: 0.49098366 -0.36489266 -0.89702773 -0.32963765 0.15844485 -0.4377948 0.4833795 0.18865779 0.59117794 -0.7315388 0.84871167 0.36235407 0.10870506 -0.4627154 -0.6000878 -0.63356847 1.0742993 0.18107958 -0.1894791 0.04176311 -1.0114008 0.22279796 -0.4303359 -0.42091912 -0.18246508 0.5801375 -0.70124996 0.23344494 0.7192839 -1.1443362 0.96910053 0.85752994 -0.14853594 0.044495057 0.53481025 1.1665616 0.3102692 -0.5723029 -0.6046754 -0.14851004 0.85757256 -0.42332742 0.79152083 0.58103853 -0.18801512 -0.1653491 -0.42731422 1.0217247 0.28736898 0.69640493 -0.2134941 -0.7597774 -0.2750663 1.3664861 -0.87284935 -0.019695042 0.5678748 0.49092734 1.1379396 0.34491533 0.044286504 0.3242873 0.31550002 -0.3985694 0.4784808 0.023732308 0.05131979 -0.40988624 -0.40398598 -0.99382615 -0.2964639 -0.59515375 0.056011293 0.1366813 -0.40134 -0.24290384 -0.5113027 0.41164267 0.43286777 -0.6784515 0.57497066 0.3183505 -0.5245267 -0.40342066 -0.6429268 -0.21868217 0.5986496 -0.7717295 0.80469865 -0.6811264 0.52221894 0.38400653 0.30169728 -0.41068882 0.93499845 -0.8007299 -0.62913734 0.44421598 -0.18066359 -1.3739196
yeast:きょうかい701号 0.4130096 -1.2437545 -0.27287418 0.18241401 0.86500883 -0.021134088 -0.29263955 0.3128291 -0.5944915 -1.1178851 0.21488489 0.30539966 0.19468156 0.5214108 0.15502591 -0.7122956 1.359142 0.18171288 0.16393134 -0.80568415 -0.9374 0.27211058 0.4210518 0.46730888 -0.26262426 -0.41428742 -0.8210022 0.016772462 0.4398355 0.18976974 0.11418531 -0.28344417 -0.5935381 -0.8885309 -0.8732422 1.4603992 0.32286134 -0.03539862 -0.31628335 0.17008244 -0.15011734 -0.6222645 -0.536147 0.4416641 -0.20055829 0.2959923 0.67209417 -0.21837507 -0.406863 0.5330584 0.27079892 -0.66687894 0.53636354 0.39502522 0.36203015 -0.071393006 -0.52192765 -0.4613399 0.2456409 -0.34263623 -0.0623009 0.17449072 -0.3919699 -0.87641454 -0.13185453 0.30684733 -0.098805904 0.67639846 0.9528767 0.24688151 0.15572158 -0.25483763 -0.55724 0.15124346 -0.23999928 0.20180945 0.65150034 0.15810695 -0.010899171 -0.7509951 -0.16528709 -0.3777764 0.16661623 1.1343273 -1.3282468 -0.03091096 0.7322496 -1.1583761 0.19408084 -0.08190924 -0.15540943 0.3120351 -0.34235224 0.18982239 0.8606073 -0.71683073 0.45746866 -0.031114295 -0.77444696 -0.5812389
prefecture:福島県 -0.0882785 -0.63210195 0.6082961 -0.61878085 -0.23538746 -0.33769673 0.55213004 0.24304599 0.3083532 -0.8168085 -0.15305233 0.38214582 0.49405065 0.026752729 -0.345841 0.2432766 -0.070483275 0.4286349 -0.40322858 -0.58070904 -0.6192793 0.099031806 0.910472 -0.016410476 0.46083412 -0.73694384 -1.1254524 -0.30531827 0.09357231 0.9921689 0.5109797 0.40600732 -0.14429857 -0.5566784 0.45096695 0.6160937 -0.70667183 -0.08967955 0.100831 -0.9342109 -0.45084745 -1.1344423 -0.46089146 -0.42015302 0.3465991 -0.4717879 -0.037875745 0.041108437 0.07159205 -0.44061556 -0.034515172 -0.34829172 -0.1493205 0.13245873 -0.8366472 -0.22382635 0.21257056 -0.12636894 0.99769884 0.29041463 0.43011186 -0.45797306 -0.34365094 0.9355695 -0.22021814 0.61654115 0.49602005 -0.27096027 0.5909301 -0.7569615 -0.78800184 0.05033037 0.9450853 -0.17142312 0.0015466374 -0.7348714 -0.38458455 0.15224583 0.32821435 1.082454 -0.04708055 -0.34258747 0.54045916 0.23360941 -0.05460114 1.0755419 -0.45669153 -0.7400826 -0.66717243 -0.019946823 -0.21880269 1.0871547 0.61071897 0.5587502 0.49701017 -0.5581704 -0.08614532 0.61199903 -1.0706426 -1.5281078
prefecture:石川県 -0.036425926 -0.59460646 0.82344204 -0.36964506 0.54555714 -0.48966593 0.6741434 0.5361267 0.6612205 -0.5445602 -0.16419612 1.0974997 -1.0098537 -0.1743553 0.849972 0.25669202 0.89230794 -0.6211455 -0.0071520894 -0.31632838 -0.796607 0.015344661 0.037525065 -0.3070625 0.29713863 0.3168812 0.27231142 -0.32453376 -0.32453305 1.1653695 -0.6088547 -0.35251173 0.59957194 -1.2865456 0.020754369 0.94267684 -0.53642523 0.21862878 -0.16280231 -0.6518314 0.7274046 -0.23807822 0.24147964 0.38047293 1.1314007 -0.7503547 0.45050022 0.78827864 -0.22347839 -0.002858244 0.70217556 -0.25246984 0.15256062 0.19852881 0.33029273 -0.17681316 0.528197 0.21321405 0.31594998 0.44468135 0.3369506 -0.0936894 -0.52789587 -0.40941706 -0.44865555 -0.36431417 0.48620173 0.46430734 0.64858705 -1.6452571 0.62369704 -0.2791617 -0.05324902 -0.10110664 0.8845029 0.018060451 0.66887844 -0.0042585693 0.91875565 0.31652418 -0.054182213 -0.8087172 0.09324367 -0.5122142 0.5683209 0.013435713 -0.49459478 -1.221329 -0.33746746 -0.39749137 -0.43338254 0.425025 0.088177785 0.14661542 -0.18537503 -0.47679302 -0.63925797 0.016014518 -0.17752278 -1.0212537
dgree_of_sweetness/dryness:-0.54 -0.30399156 -0.65918 -0.123550944 0.465757 -0.2724659 0.2687528 1.5143665 -0.8283674 -0.032993045 -1.0703638 1.0578221 0.5895969 -0.26097575 0.37650028 -0.40681118 0.086078204 -0.8231781 0.9034405 0.99575305 0.76089424 0.29445 -0.8372105 -0.2146505 0.59542286 -0.1326915 0.082913764 -1.3140373 0.49879828 0.27978647 -0.4204149 -0.63190085 -0.6902633 0.67221427 0.37292627 -0.05720398 0.6780456 -0.41602913 0.089115605 0.26569813 -0.29382953 0.07120987 -0.24798988 1.0490639 1.714876 0.4352803 0.16686876 1.4834132 0.2905637 0.46906304 -0.08623523 -0.6362044 0.60357547 0.34062603 -0.48535472 -0.30763832 0.22266583 0.46582282 0.18039264 0.3802883 -0.5408679 0.44629037 -0.71395844 1.1316808 0.44473273 -1.0880172 -0.064996496 -0.916923 0.020454224 0.7019546 -0.16219199 -0.21573067 0.628416 0.055325188 -1.2560834 -1.0340339 -0.1409751 -0.35835704 0.058264 0.53755873 -1.1310889 0.9682086 -0.36794713 -0.09888431 1.0122639 1.0920564 0.44172007 0.5235495 -1.1465211 -0.30763316 0.22151268 1.0715896 0.14876287 0.5165581 0.38962132 0.13812606 -1.3210708 0.4772811 0.04727957 0.49891585 -0.34632123
prefecture:福岡県 0.92224175 -0.1805994 0.124836154 -0.43494993 1.025154 -0.7687185 -0.3397533 0.45050547 -0.91763073 -0.1876075 -0.6350099 1.4447829 -0.2466037 -0.19353937 -0.48183176 0.06701004 0.6563258 0.46586668 0.45475817 0.036702618 -0.043829054 0.81398547 0.8750789 0.8921871 0.37264907 0.19993287 -0.38474488 -0.24115661 0.42583108 1.0570606 0.4831842 -0.21048887 -0.0024810017 -0.8396263 1.1307118 0.28892475 -0.3118406 0.40299904 -0.5261263 -0.12314113 0.1309537 -0.5675643 0.40327153 1.2523303 0.31595695 0.34336063 0.26439223 -0.20201334 -0.1379412 -0.5415903 0.33205605 -0.6529319 -0.13427326 0.38512793 -0.09484974 -0.008512436 1.169768 -0.68480945 0.22114113 -0.039690893 -0.10090571 -0.17754441 -1.0050851 0.4150669 0.45425558 -0.53995794 0.26127443 -0.37552094 0.70749545 -0.7278014 -0.030650169 -1.0869777 0.114837386 0.2510927 1.0957011 0.29396743 0.8332799 -0.33149207 0.1636559 -0.08506289 1.1316589 -0.8946112 0.41612822 0.08624551 0.12144001 1.0211604 0.21414833 -0.25120798 0.005406548 -0.70061976 0.6710877 -0.026220927 -0.045604374 -0.45536363 0.84072554 -0.6107001 -0.15775892 0.93820775 -0.5309408 -0.96625745
yeast:詳細不明(熊本酵母) 0.07777968 -1.0455581 0.8351042 -0.15392081 0.84562606 0.16739155 0.04541024 0.60975915 -0.45898235 -0.08272983 -0.106560275 0.23469228 0.25412878 1.2175287 -0.64898944 0.44318092 0.37070352 0.5954542 0.7236072 0.5899343 -0.3068566 -0.0032993818 -0.85461664 0.29872614 0.096216604 0.7088351 -0.22897448 -0.34320945 -0.04170621 0.7518183 0.27376503 0.1756148 0.18039952 -1.421504 0.20911707 0.5413558 0.3215652 0.38024542 -0.22753964 -1.1268674 0.20218715 -1.4820793 0.3800123 0.22179775 0.07571923 -0.5519705 0.23150356 -0.13896175 -0.008644619 -0.77749944 0.08631303 -0.25537726 0.84847224 0.507073 0.5016397 -0.21722305 0.101180084 -1.1591778 0.9607715 0.62513644 0.31577906 -0.6965004 -0.04803553 -0.2957565 0.7903679 0.8096506 -0.27826643 0.46799794 0.778931 -0.5267506 -1.189145 -0.35595083 -0.09950098 -0.14368431 0.036991943 1.1156565 0.8943891 0.78879374 0.2520932 -0.53779584 -0.18452074 -0.32008758 -0.2874905 0.5553886 -1.331307 0.43103868 0.027219081 -1.2931007 -0.10757499 -0.10395024 0.58619183 1.0047947 0.21884604 0.51459056 -0.032983683 -0.61927354 -0.17456365 0.874162 -0.79772145 -0.31232333
sake_class:吟醸 -0.21372111 0.23847158 -0.14068137 0.679311 0.029287826 0.5127514 0.9075038 0.8236953 -0.95443404 -1.484206 -0.9071167 0.23561585 0.22597037 0.3813235 -0.16224337 -0.06473008 0.76241094 0.003789944 0.35173246 -0.17008814 -0.17741105 1.2169685 -0.38227913 -1.4175992 -0.40217078 -0.47288454 -0.5939341 -0.3566178 0.24312347 -0.07841665 0.29154146 -0.62339747 0.16162468 -0.5548251 0.03447363 0.13328959 -0.28370556 -0.024077928 -1.2284114 -0.9729602 0.96841514 -0.859049 0.9126341 -0.25737625 0.4685512 -1.3651146 0.74315983 0.73074174 0.40821666 -0.5742744 1.0848544 0.04069789 0.28572106 0.502595 0.4745112 0.7343067 -0.02653866 0.37730917 0.40329072 0.19256972 -0.18184179 0.36478713 0.82564545 0.107209586 0.5719103 -1.173149 0.5372311 -0.060762726 0.34493503 -0.011553404 0.016851494 -0.02506568 0.80823666 0.06264623 0.10663197 0.25964975 -0.6044876 0.12580638 0.5670148 0.19118065 -0.9183917 0.34018266 -0.8501356 1.061416 0.46301746 1.118656 -0.13617823 -1.4382355 -0.5592497 0.18991004 0.8301564 0.85184413 -0.45400193 1.4086823 0.7159858 -0.26303145 0.5164677 0.5320286 -0.4596398 -0.13980076
method_for_making_sake:山廃酛 0.89230454 -0.1826971 -0.1461586 0.4067085 0.7618972 -0.335926 0.76456016 0.0172288 -0.8795725 -0.5172333 -1.0554116 0.7056004 -0.95624125 0.39085993 0.0569825 0.13700604 0.4045881 -0.010265253 0.87170947 0.083712526 -1.5505826 0.102107584 0.25933832 0.9643173 -0.7419058 0.5879099 -0.52586436 -0.030418685 -0.36414608 0.3369065 -0.78694695 -0.32636046 -0.021794008 -1.1015509 0.6888788 -0.49172288 0.6938216 -0.8859536 -0.54347473 -0.19335358 0.8397764 0.23464747 -0.38222095 0.9863464 0.6587269 -0.15907063 0.9543044 0.33081514 -0.029119655 -0.09986892 0.29779044 0.9497149 -0.40927115 0.029725144 0.2873071 -0.51824874 0.26264346 0.34833765 0.15542167 -0.13510963 -0.014211379 -0.22921786 0.10380798 -0.5214503 0.43154272 -0.7485327 -0.339247 -0.21473198 -0.65615755 -1.4534115 -0.44121724 -0.83159214 0.6941038 -0.7896732 -0.5850661 -0.31154004 0.43247342 0.36658198 1.2385734 0.006012087 0.268554 0.59557134 0.78936964 -0.13393712 -1.1068406 0.23757727 -0.34948337 0.737051 -0.67522866 -0.77240926 0.6857008 0.27724963 0.8227697 0.5207349 0.84540915 -0.44064337 -0.32912585 -0.96731234 -0.7101495 -0.52415544
yeast:詳細不明(山形酵母) 0.75452954 -0.95587957 0.29492053 -0.5987461 0.7551125 -0.10847959 0.20573992 1.1566224 -0.50914615 -0.9826144 0.043762676 0.83889896 0.63585955 0.13031659 0.55504423 -0.33425736 0.5515808 0.8912971 0.09892518 0.07300351 -0.33364314 -0.38875613 -0.23032907 0.10290264 0.3962014 -0.40749198 -0.70778525 0.047290534 -0.47504395 1.4686087 0.98689145 0.15265165 0.1119689 -0.735543 -0.2611477 1.792593 -0.89384717 -0.20751911 0.6021038 -0.49053943 -0.22328293 -0.23488282 -0.65367043 0.44005263 -0.1472835 -0.13188554 0.85945547 -0.13316882 0.10950112 -0.1787026 0.11562599 -0.50558954 0.7008229 0.174294 0.08561474 0.5569025 -0.017320821 -0.6143524 -0.07756988 0.15124604 0.41154847 -0.37326464 -0.15627629 -0.40642518 -0.64968634 0.5096108 0.4394127 0.17146796 0.48753622 -0.68846196 -0.13018005 0.033452474 -0.40188557 -0.0041260864 0.8091936 0.12001118 0.46400046 -0.5239483 0.49204752 0.105641894 -0.18318707 -0.3531394 -0.16601585 0.12519139 -1.3961501 0.18693325 -0.047147304 -0.44564706 -0.6679136 0.387826 0.76210666 -0.28372803 0.31746677 0.5615754 0.9445779 -1.709921 0.8874983 1.2728122 -0.3425609 -1.3423557
titratable_acidity:1.10 0.10033148 0.44981965 -0.21317562 0.08783114 -0.35174078 -0.38695964 -0.10712689 -0.10251158 -0.41681448 -1.3558646 0.55171674 -0.27563232 -0.21027832 -0.06776881 -0.3740361 0.09787914 0.372232 0.7007864 -0.7581667 0.007742233 -0.33254305 1.1543806 -0.5726661 0.7718373 0.41940528 0.18773913 -0.6837958 -0.083465636 0.17563069 -0.15876207 0.2932218 0.7526267 0.5684266 -0.80432785 -0.13128419 -0.0036011066 0.154922 -0.1529936 0.64439005 -1.4688807 0.5688427 0.07317746 0.58590955 0.29558337 -0.5704535 -0.6459803 -0.14057828 0.12766404 -1.2201703 -0.23012896 0.73035306 -0.29411644 -0.19666147 -0.011055843 -0.24656051 -0.24792323 -0.5136602 0.27629834 0.7890183 0.07056139 0.41661546 -0.54521906 0.78976744 -0.11258623 1.2023444 -0.32950762 -0.29385126 0.31243184 1.2649941 -1.153271 -0.106052384 0.15796614 0.8650931 0.36444336 -0.50422037 0.50703925 0.523167 0.32481983 -0.6061703 0.23232302 -0.6463462 -0.5197956 -0.3059416 0.51727235 -0.713326 0.16181189 1.0299982 -0.11547727 -0.23632382 0.22583018 0.1420879 -0.09897933 1.4485569 0.9186293 1.1397685 -0.7788678 0.46781394 0.6652653 -0.2718167 -1.9046738
city:鶴岡市 -0.0150654325 -0.00092765625 1.0464876 -0.52477586 0.36336833 -0.07244759 0.1674787 0.9371585 -0.8134565 -0.1460447 0.05559072 0.49213526 0.32346135 -0.19551659 0.3050827 -0.06733296 0.3365368 0.69786566 -0.560452 -0.039126657 0.6903608 -0.67724335 -0.10232624 0.5435284 0.20566759 -0.63520443 -0.5462752 0.67262685 0.024328409 0.9765296 0.9578208 -0.15165107 0.24617454 -0.6010899 0.35819986 1.2503346 0.31137404 -0.6733848 0.45836484 -0.06602914 0.51755536 0.167596 0.21377286 0.8944517 -0.10319116 -0.06092569 0.79480374 0.6888002 -0.13359411 -0.3503483 0.07662079 -0.09648653 -0.6045603 1.4654617 0.2829661 0.80038637 0.18733487 0.30879205 0.43536514 -0.287425 -0.3448302 -0.3762549 0.38998455 0.3690429 -0.846219 -0.15412168 1.8249851 -0.65740323 0.100210786 -0.20991243 0.45533568 -0.2950654 0.30380195 -0.13403304 0.23040797 0.30255792 0.3021349 -0.032184478 -0.6913184 -0.32550555 -0.802688 -1.3058797 -0.42164725 -0.094632156 -1.2151209 0.62562436 -0.5172571 -0.66669255 -1.3436481 -0.19724905 -0.00450619 -0.30357894 0.0862831 0.25105193 -0.34450564 -1.2745868 0.5644062 -0.30907917 -0.2979758 -0.6948975
prefecture:滋賀県 0.25983807 0.36140397 0.90397394 -0.0054164673 -0.035436533 -0.105542324 0.27728415 0.93864036 -1.0085998 -0.0875199 -0.46943566 0.74085706 -0.9194014 -0.6708636 -0.3645822 -0.16502334 0.6049555 0.35472944 0.48840135 0.3611031 -0.1438741 0.33466667 -0.02779471 0.08073629 0.7770444 0.42889327 -0.6040748 0.41461584 0.10884107 1.1981233 0.44104365 0.13729592 -0.6115408 -1.7163898 0.8090669 1.2672075 -0.4718365 -0.46317598 -0.4878259 -0.6133167 0.4133632 -0.5195112 -0.13134055 -0.065105215 0.81679726 0.29689518 0.2529932 0.3922796 0.5052906 0.28003794 0.27877003 -0.053297937 0.035351492 -1.164493 0.0032972079 -0.8872195 0.36640158 0.99870414 0.5335055 0.27076706 0.62870157 0.16762286 -1.4999846 0.22603263 -0.19570382 -0.5123317 0.6536192 -0.0307416 0.80339396 -1.1250168 -0.110963844 -0.17582472 0.18365036 -0.5191436 -0.16385789 0.2783387 -0.03456638 -0.5063563 -0.15559949 -0.34661403 -0.09356456 -0.0035494217 -0.610213 0.5084724 -0.18592444 -0.18703626 0.74253833 0.39606926 -0.31697258 -0.048810318 -0.21569602 -0.14345391 0.2062694 0.9960722 -0.23832087 -0.94170636 -0.38713834 0.25260675 0.24513666 -1.1355797
alcohol_rate:16.45 0.26311785 -0.26996392 -0.26717365 0.29096842 1.2568566 0.23450053 0.796573 0.45750296 -0.5257222 -0.24389176 -0.5713785 0.07561682 -0.8127672 0.261603 -0.45575035 0.6436553 -0.0008803098 -0.5998915 -0.8696706 -0.41731963 0.6318099 1.2606461 -0.13129622 0.29672885 -0.34309116 -0.66744184 -0.9502796 0.9717983 0.33905193 0.7609619 1.0276908 0.33446893 0.04444241 -0.7829224 -0.037549604 0.5085672 0.1850848 -0.54332364 0.35733023 0.38609824 -0.13659725 0.51621026 2.3007526 -0.4196368 0.05329475 -0.42653316 0.51500225 -0.39591983 -0.704902 -0.14744548 -1.0576639 1.5862306 0.06958768 0.61219656 0.34838182 0.08450007 0.7039046 0.5266213 0.43356508 0.60021424 0.7041995 -0.22480895 1.1134818 0.80971104 0.30681494 -0.53475684 -0.09319354 0.5318095 -0.45228884 0.5076155 0.48309064 0.16388744 0.5622578 -0.08300661 0.021725018 1.0973283 -0.6900854 1.2951163 -0.43765128 -0.67420775 0.40740022 -0.24911599 0.6223325 0.113334455 -0.4848625 -0.3691411 0.15638657 -0.7275883 0.1251557 0.56967163 -0.5075765 0.43278265 0.3659835 0.87509626 -0.3218339 -0.52226603 0.39201513 -0.8184581 -0.14539635 -0.19626187
dgree_of_sweetness/dryness:-0.43 0.07895946 -1.1743891 -0.79041046 -0.14878066 0.34045365 0.14252709 0.68399143 -0.38550007 0.33582926 -0.97008485 0.8484537 0.15545078 -0.14247681 0.43650016 0.8160721 0.0053126425 0.5225079 0.11249571 -0.26066726 -0.5954286 -0.2343612 0.5361043 0.98494184 1.0218666 1.0214521 -0.46091014 -0.6609979 -0.14764914 0.9387216 -0.8406984 -0.5510935 -0.56522554 0.098826475 -0.35363615 1.35642 0.9059876 -0.5035036 -0.23331723 -0.5368044 -0.14894313 0.20596835 0.3620387 2.1252265 0.87352437 0.48075593 -0.30506772 -0.12947875 0.31911445 0.47121784 0.88126314 -0.7614636 0.04665373 0.43391496 0.36858764 -0.42862117 -0.62522405 1.0128949 -0.28820387 0.5228481 1.1642567 0.01961152 -0.2983755 0.6987966 -0.022193763 0.15264857 0.5165817 -1.1629536 -0.02756324 -1.040618 -0.25326985 -0.14848757 1.4951711 -0.022683963 -1.3123101 -0.0044115684 -0.0016105281 0.11311365 -0.35247326 1.0038462 -0.051328093 0.8856158 0.5397152 0.3145635 0.72204703 0.42125654 0.0465565 0.85524404 -0.38610086 0.42830744 0.1053322 0.59806293 0.02748982 0.5908276 -0.45805916 1.0098342 -0.8047437 -0.50375134 0.5999301 -0.12635699 -0.9907583
yeast:きょうかい7号 0.35484022 -0.34425658 -0.63678676 -0.26879203 0.8615886 -0.056357108 0.2454689 0.41404095 -0.650974 -0.19439021 -0.4059828 0.5556009 0.009519486 1.2187021 -1.0538919 -0.30452764 0.34241718 0.53405 -0.24534178 -0.369322 -0.09644247 0.70809215 0.23924655 0.21194804 -0.38952425 -0.74505746 -0.40336883 0.36599743 -0.19007663 0.5785959 0.37562248 0.07919484 0.3861174 -0.7862835 0.5937229 1.1844314 1.0329534 0.08153815 -0.30300146 0.12511992 0.0013333728 -0.62583387 -0.4582648 0.45476288 0.15869263 0.3281379 0.64872825 -0.8607342 0.39616215 0.2874994 -0.1701307 -0.23053075 0.5779855 0.17128754 -1.0214666 -0.30874202 -0.48033905 -0.5403249 0.5518539 -0.17955738 -0.05646274 0.1233724 -0.52681893 -0.81804204 -0.20304392 0.49645215 -0.3184142 0.7693881 0.26391762 -0.3349354 -1.0400698 0.28328052 0.71570647 -0.47479892 -0.781882 0.58422613 0.5406152 0.3123878 0.5519904 0.23355775 0.94415784 0.3038304 0.04383038 0.61419684 -0.64852756 -0.41383907 -0.33934122 -0.55264515 -0.3334087 0.28807452 -0.13619317 0.6021765 0.16562855 0.62905616 1.0191287 -1.0791167 0.6600761 0.4613669 -0.038031943 -1.5168648
dgree_of_sweetness/dryness:-0.20 -0.2110305 0.10939025 0.9599533 1.0961475 0.46672118 0.15517569 0.5570898 -1.2343211 0.55606496 -1.6909008 -0.07099537 -0.05567403 -0.33883786 -0.7478626 0.29846358 0.109899364 0.38300917 -0.19497587 0.7245803 -0.43191323 -0.857478 -0.832907 -0.3462807 -0.12826063 1.0063069 0.26451886 -0.44367525 0.54484135 0.48485026 -0.4213227 -0.340512 -0.37609574 0.82799506 -0.28134206 -0.4217052 0.6813737 -0.3272497 0.2366632 0.019379847 0.19302732 0.051851895 0.21988402 1.2450972 0.53748083 -0.4485158 -1.4790752 -0.4999567 1.2084506 0.10624489 -0.9780436 -0.41350195 0.58189577 0.8224156 -0.05689683 -0.0014453834 0.6892916 0.26484424 0.40303978 1.3311038 1.1342562 -0.2140543 -0.19297145 0.09847421 -1.254406 -0.11626447 -0.458488 0.15266255 0.15961543 0.1978172 0.40032396 -0.77608114 1.6990381 0.16423821 -0.39313027 0.015782658 0.2868361 0.26788595 0.3457379 -0.24204133 -1.1314421 0.9696713 -0.066598564 0.28648874 0.9233596 -1.2731744 -0.12366694 0.5412068 -0.7708857 -0.24955697 -0.8264042 0.15294272 -0.042733237 -0.07543835 -0.5005958 1.6177866 -0.41280693 -0.6760514 -0.13612 0.63784766 -1.2846025
sake_meter_value:6.00 -0.22557192 -0.40824193 -0.033166766 0.51322556 0.44935519 -0.5138205 0.13206881 -0.14640282 0.13896199 -0.89505976 0.5115522 0.7097316 0.9054284 0.14558692 -0.37476534 0.13319291 2.5196838 -0.39872384 1.4323587 -0.22620204 0.34870255 0.36551383 -1.2498679 -0.78835565 -0.3475086 0.9720416 -0.10990627 -0.12520798 -0.831882 -0.35386664 1.0082748 0.78114504 -0.23182878 -1.1255063 -0.40284428 1.1783364 -0.07595169 -0.22380316 -0.6439029 -0.6353232 0.64375806 -0.01621082 1.103607 0.39384365 -0.12305631 0.39644113 -0.36413577 1.2451347 0.15333287 0.22622405 -0.7151567 -0.83482844 0.553095 -0.32343164 0.73484427 0.26188487 0.15117738 -0.3816902 0.2116817 0.4788643 0.3866988 0.2700997 -0.35462302 0.514647 -0.051099364 -0.3707829 -0.25792608 1.3928443 0.045021262 -0.6688703 -0.26530474 -0.32526648 1.0935506 -0.38684043 -0.027777819 0.4512003 -0.7467351 0.014704173 0.46429518 0.22815323 0.75145423 -0.48679394 0.13619897 -0.16554125 -1.3914325 0.27295372 0.2745923 0.0023771594 0.17346998 0.09341035 0.24362183 0.18029737 -0.5165116 0.19341217 0.3999979 -1.0003439 0.33089432 -0.50842816 -0.85598916 -1.0718662
prefecture:北海道 0.6316947 -0.36859566 0.23929462 0.24260724 0.8354842 -0.2897268 -0.10804645 0.40120772 -0.78390574 -0.3904678 0.6662906 0.65152293 0.24159642 -0.32558915 -0.30595657 -0.48381627 0.11716664 0.23147973 -0.44235852 -0.4144436 -0.06991916 -0.11168024 0.2764806 -0.15283433 0.51410604 -0.26030272 -0.9557799 0.42544025 0.28756368 0.7872281 0.055952433 0.18988766 0.0952897 -0.3069517 0.6488081 1.0845923 -0.31392908 -0.39104044 -0.03713453 -0.7193261 0.61576766 -0.8832282 0.20185943 0.17383486 -0.35860488 0.24458659 0.2559147 0.7641418 -0.85589 -0.18285903 0.4989624 -1.2126062 -0.2028005 0.6351757 0.29504713 -0.023576029 -0.0861797 -1.0345775 0.4075518 -0.30226222 -0.727049 0.533138 -0.36498624 -0.34907436 -0.27382728 0.030486962 0.82366896 -0.051987886 0.2726405 0.56728554 0.7267574 0.4005326 -0.08238327 0.054495152 1.2284296 -0.94706917 0.937343 0.13098551 0.1854225 0.66573817 -0.03762317 -0.33082873 -0.17318812 0.28213027 -0.72224665 0.005407347 0.8688782 -0.9053024 -0.36786786 -1.0597844 0.08978057 1.0357109 -0.15629031 0.35265642 0.20555677 -1.1096005 -0.45674407 0.3588947 -0.030778404 -1.0471021
city:旭川市 0.47951946 -0.15877041 0.4838956 0.19636004 0.7662827 -0.66578555 -0.24586794 0.15772258 -0.71328634 -0.34500778 0.21704835 0.25077176 0.23833081 -0.93210614 -0.1713943 -0.5300488 0.12017686 -0.2622972 -0.092774205 -0.14401963 0.12539093 -0.27931 0.35809788 0.21054485 0.5905063 0.026371224 -1.0692236 0.798889 0.26004905 1.0748708 -0.20882648 0.24970941 0.29460454 -0.1355606 1.0474608 0.76304 -0.57783484 -0.79802024 0.13871181 -0.65132195 0.7352119 -0.77117324 0.3845572 -0.24506894 -0.4839805 0.3627025 0.054113917 0.62547827 -0.9275504 0.016011024 0.20812239 -0.73457193 -0.21919033 1.0432962 0.3226791 0.10048783 0.18292814 -0.53826255 0.5488585 0.003251088 -0.6938214 0.1908262 -0.22778496 -0.3184267 -0.2647858 -0.14716402 0.97914165 0.42698506 0.0045068413 0.8198594 0.8304079 0.5264941 -0.067609936 -0.42824182 1.2057328 -0.97546315 0.781987 0.019369928 0.0010505924 0.45416793 -0.15612048 -0.7578968 -0.028671077 0.1959555 -0.62179583 0.16626315 0.9958603 -0.6120759 -0.31880057 -0.99776125 0.3456573 1.1224111 -0.038970027 0.03337848 -0.09558026 -1.1053231 -0.3321855 0.29282257 0.051177863 -0.8654563
rice_polishing_rate:45 1.2414714 0.44170952 -0.048655197 -0.6048815 0.2990025 -0.15872669 0.087761424 0.1866696 -0.07597014 -1.103022 -0.7693328 1.1343837 1.001961 -0.069500834 -0.21848887 -0.7316531 -0.25753424 0.41434786 -0.30685386 0.46969682 -1.4042788 -0.023856806 -0.55615854 -0.86264724 1.736386 -0.39621693 -0.77972317 0.180853 -0.6000615 -0.5027248 0.5829811 1.3190203 -0.16517732 -0.49004498 0.28916195 1.4789252 -0.29241878 -0.83040285 -0.06384956 0.041225057 0.18909948 0.29767394 0.40885425 1.2145481 0.34609982 -0.6906739 -0.1891779 -0.73338807 -0.78746897 0.37975514 0.12554449 -0.66282374 0.7453504 0.586779 0.13312712 0.2876656 -0.07656482 -0.05236391 0.15006891 -0.045416974 0.24158432 0.5858161 0.25538048 0.28582212 0.18942198 0.205294 -0.009136642 0.70522267 -0.079717554 -0.08371925 -0.22307746 0.18425117 0.2956937 -0.47102705 0.8917802 0.51991886 -0.43653476 1.0242828 0.61609954 -0.006624059 -0.31973255 -0.33031863 0.9362075 0.494263 -0.84047925 0.21873264 -0.30128667 0.12867242 1.0299515 -0.06570377 0.68423516 0.7179992 0.5112679 0.21544449 0.46146145 0.22008501 0.12597156 -0.10100712 0.26668745 -0.32365957
dgree_of_sweetness/dryness:-0.38 0.86021715 -0.3014613 -0.26367342 -0.6897727 0.4394663 0.076326475 0.8212936 0.1388316 0.88027054 -0.91267097 1.2488947 0.42490238 0.524575 0.34874928 -0.758716 0.8962701 0.49104422 0.46526513 0.148077 -0.57662183 -0.21412706 -0.26818436 0.7000439 0.9773422 -0.47142288 0.11308711 -0.2186151 -0.3735526 -0.6495771 0.48529923 0.35105115 -0.5760667 0.010632591 -0.46134463 0.32531136 0.22194396 0.49643233 -0.41255632 -0.14601818 0.7965135 -0.67983174 0.7172896 1.3481246 0.4201086 -0.14963257 -0.7464752 0.11532448 0.84081 0.51696616 0.3774853 -0.5329272 0.28814873 0.1679405 0.5414283 1.2469162 0.30210435 -0.12304025 0.21492957 1.3889271 1.007344 -0.16563125 -0.4724926 -0.17970197 0.5783438 1.1338774 0.54229355 0.65640736 1.0634012 -1.4402846 -0.6947723 0.38065252 0.34708503 1.0136318 1.7992927 -0.5615168 -0.084718294 -0.13839604 0.1319564 0.80218124 -0.77919865 0.5277999 -0.17697284 0.29491675 0.47313485 -1.211155 0.34708545 -0.059055366 -0.7322438 0.702831 -0.3165793 0.59867895 0.645427 0.3027153 -0.14439552 1.4066161 -1.0008398 0.050561372 0.015816744 -0.6717916 0.32995823
method_for_making_sake:雫酒/斗瓶取り/斗瓶囲い/袋吊り/袋取り/槽搾り 0.84383756 -0.094963945 0.5707456 0.37070337 1.092191 -0.68786955 0.57357633 0.32587808 -0.29311687 0.25777802 0.7521634 0.4857887 0.5960966 0.7550329 0.09806249 0.4019617 0.093817405 -0.28966638 0.11850282 -0.6780383 0.27138177 -0.4405632 0.34215102 0.2731622 -0.118009105 -0.68451846 -0.35949036 -0.7323433 0.6844425 0.040749203 0.30904707 0.194231 0.020417439 -0.021188164 -0.07293905 0.34962955 -0.5317132 -0.8041835 -0.56737286 -0.12940769 0.61449796 -0.4547199 1.3195109 0.6225824 0.2025172 -0.77661 0.027388036 -0.90528315 0.24037474 -0.09719066 -0.18607883 0.7509469 -0.22322333 1.3646173 -0.2506116 -0.14460486 -0.6109408 1.0880637 0.66439694 -0.32969198 0.26073375 -1.2535019 0.04983548 -0.30480206 0.634639 -1.0551709 0.36936617 0.6096266 0.39826074 -0.85569376 -0.20453364 -0.008221965 0.045386534 0.23980632 -0.20778595 -0.25455973 0.5123883 0.86187273 -0.7095907 -0.31550205 -0.03854696 -0.034325276 0.82829034 0.89859533 -0.15582226 0.34827778 -0.03135172 -0.30635783 0.05265619 0.45545837 1.0826093 -0.07089144 0.7690951 1.690746 0.14830276 -1.1111759 0.023116827 0.15903373 0.12004509 0.16779622
yeast:きょうかい9号系 0.88077116 -0.07094989 0.23851264 -0.14476165 0.21825358 0.04551179 -0.20696005 1.1835515 -0.7106284 -1.0082079 0.3335079 1.0405345 0.533805 0.79452485 -0.23703666 0.037317067 1.0632583 0.50438017 0.29074913 -0.085673295 -0.52311176 0.038605336 0.68130434 0.29004794 0.17868692 -0.062333144 -0.6847724 -0.037290413 0.22985719 0.016453715 -0.022759154 -0.0012250312 -0.7935323 -0.4275441 -0.009726616 1.5665549 -0.5319912 0.2755543 0.17813338 -0.74239683 -0.2236036 -0.24563612 0.16509278 0.7965795 0.84312147 -0.19135301 0.42595115 -0.5987912 -0.94855 -0.73538494 -0.6142777 -0.0094437385 0.20113224 -0.493213 0.25102216 0.42323026 0.22612846 -0.20712613 -0.2632926 1.0055964 0.4834972 -0.002269233 -0.105055936 0.091212586 0.43199578 0.10933526 -0.6576548 0.40555483 0.1689469 -0.4263301 -0.62616724 -0.6787263 0.2453963 0.19358976 -0.35746858 0.19881432 0.3610374 -0.00025722737 -0.072432995 0.12956974 0.6004288 0.10538475 -0.8118228 -0.6756643 -0.3239255 -0.054420464 -0.48445243 -0.42139164 -0.34908158 0.061375435 -0.37891847 0.660642 0.6409096 0.681673 -0.10529749 -1.1207666 -0.602931 -0.28060147 -0.70507044 -0.98702896
