3441 100
amino_acid_content: -0.03598093 0.10816813 -0.002453029 -1.2016991 -0.07488951 -0.12772197 -0.071241096 -0.8406741 -0.17078607 0.71028316 -0.3673181 0.34492752 -0.56473213 -0.35240784 -0.17300707 0.059915386 0.3907848 0.22533733 0.49404484 0.87553966 0.17649347 0.74438614 0.39155453 0.24949722 -0.38095486 -0.03317339 -1.0396836 0.38341874 0.06992875 0.35255745 -0.1592283 0.12565662 -1.2708682 0.18115704 1.6632828 0.88093483 -0.43668452 0.25346267 -0.93851423 0.16224866 -0.014764285 1.270251 -0.8321888 0.5602603 -0.35351288 0.0034198316 -0.73966914 0.8661512 0.47008094 -0.30927986 0.06453051 0.11073915 -0.3665723 -0.36914197 0.22569837 -0.30973864 -0.50972015 -0.45942372 0.91552955 0.01138959 0.61452734 -0.73584396 0.77264696 -1.1175137 -0.057278574 -0.29329538 -0.07308443 -0.6189128 -0.17084424 0.44593942 0.75381666 0.1009206 0.2730199 -0.7206299 0.23101589 -0.014868126 -1.0282818 0.76554596 -0.22048384 0.16247171 0.0093911225 -0.5791213 0.27033037 0.34637296 -0.39520463 -0.47364423 0.52188003 0.22281651 -0.8234312 -0.7934809 -0.25495657 -0.46563667 -0.12370724 0.062137272 0.23482066 -0.39133978 0.12127191 0.534012 -0.7611346 0.1694937
rice:山田錦 0.41487283 0.20450382 0.5332204 -0.35389468 -0.39279723 -0.4186781 0.414667 0.47425878 0.13907285 0.20213956 -0.510385 1.1120025 0.30613202 -0.23116502 -0.13998495 0.32046133 0.43549532 0.35829943 0.30587748 0.15145107 0.026933333 -1.0063871 0.8517165 0.15960802 0.20110849 0.28268734 0.2833225 -0.08923623 0.2524075 0.26904267 0.50590163 -0.2805061 -0.045419883 0.3393245 -0.5786091 0.6918034 0.17064162 -0.10531276 -0.20735507 0.49263638 -0.29324284 0.7277402 -0.34981093 -0.14945246 0.55799836 -0.06644653 -0.7732828 0.071566895 -0.07986612 -0.53524286 -0.36623335 -0.49681237 -0.3823211 1.0266628 -0.32003033 -0.45649412 0.38351336 0.062696986 0.39722794 -0.42148575 -0.22216201 -0.35778713 0.013284664 0.04331845 -0.1046681 0.76265824 0.3987568 0.54023564 0.4211406 -0.188443 -0.4333904 0.0039226315 -0.21604635 -0.4054156 -0.4117291 -0.5543255 -0.8390037 0.11493996 -0.91310334 -0.02919174 -0.05243874 0.41129526 0.4231949 -0.28522035 -0.19040832 0.4045812 -0.52052045 -0.56223613 0.24967733 -0.5062072 0.018068425 -0.16684353 -0.48594573 0.28156173 -0.11366018 -0.8907179 -0.6612943 -0.76727533 -0.08832446 0.2392496
rice_polishing_rate:60 -0.061399344 0.2419676 -0.3205924 0.47527495 -0.15919349 0.30531713 0.306528 0.7484504 -0.24574794 0.080002226 -0.08208947 0.6103922 -0.080222234 0.22109072 0.7764874 0.6875987 -0.86481005 -0.12448412 0.4426586 0.034059905 0.24760504 0.04280085 0.44470164 0.26884946 -0.806984 0.13529532 0.47078162 0.73284125 -0.14766817 0.20551848 0.11356721 0.2939585 -0.08920354 0.0015933561 -0.28373888 0.16293894 0.09510833 0.26998135 0.11723594 0.53693515 0.1940576 0.17723997 -0.37783018 1.0380466 -0.498992 0.25364718 -0.7685419 0.03723874 0.06080847 0.6044386 -0.3694395 0.51293373 0.5294929 1.0972375 0.06500454 0.42435437 -0.70062476 -0.19442524 0.011881483 -0.67558855 -0.090678565 -0.6014995 0.42096612 0.24650484 0.2911741 1.2558154 0.42377093 0.20057444 0.38367128 -0.28390718 -0.08583881 0.88398516 -0.3276026 0.009155995 0.24446936 -0.8212085 -0.2322712 -0.059367392 -0.0002536849 0.0043468694 -0.50813013 0.41273153 -0.0044242064 0.46655014 -0.123702876 0.13058707 0.08494162 0.32959703 -0.058893036 -0.3698938 -0.4801655 0.20493455 -0.636916 -0.015685242 0.35444322 -0.07248512 0.47327772 -0.17228799 0.011091264 -0.18444642
alcohol_rate: 0.35553667 -0.51311415 0.028142296 -0.90075356 0.26039296 -0.09106523 0.12687036 -0.8451167 0.15740132 1.191076 0.19065776 -0.13072674 0.13556746 -0.24065019 0.26042494 -0.494038 0.14643271 0.73513883 0.24930926 1.0750917 0.65130913 0.38993838 0.06979427 0.310062 0.04822387 -0.2955052 -0.37456584 0.7654217 -0.2483136 0.64087266 0.21889386 -0.16896796 -0.70799255 -0.035490807 1.6123606 0.20630288 -0.063624315 0.9568225 -0.17481278 0.48794565 -0.47181365 0.55005884 -0.19693239 0.50915205 0.07271059 -0.49149522 -0.6829982 0.5181095 0.19659723 0.01809443 0.6100063 0.2669284 -0.00811303 0.32451585 0.49177152 -1.1105618 -0.5649043 -0.69619876 1.126731 0.5103255 0.19222943 -1.1883308 0.091823034 -0.6445402 -0.4688738 -0.95382047 0.5094645 -0.039324883 0.8074544 0.24646784 0.22235987 -0.33721828 0.3780009 -0.7413223 -0.24861196 -0.5009744 -0.6128532 0.8508754 -0.49457303 -0.12210134 -0.2311244 -1.3394203 -0.38754427 0.05922206 -0.35788906 0.34092584 0.00062471675 0.12727423 -1.5720183 -1.5906235 -1.2222652 -0.9063405 -0.51996803 0.022180552 0.19321962 -0.23346385 -0.05317381 0.5689237 -0.62132245 -0.3693626
sake_class:純米吟醸 0.004427634 0.33518854 -0.14098446 0.063680425 0.12733485 0.44542783 0.41936547 0.47342885 -0.24895047 0.39958507 -0.88616335 0.28320217 0.048270278 -0.16249658 0.5838848 0.569746 0.43314525 -0.41934857 0.8544416 0.5605731 0.3665991 -0.0034143978 0.3425639 0.61965644 -0.23394777 -0.28104067 0.3564376 0.33126172 1.0568386 -0.12836067 0.41207495 -0.5923605 -0.34619284 -0.6990513 0.04223833 0.13226092 0.5889514 -0.42876196 0.26572844 0.22927167 0.8232481 -0.14366408 -0.22640431 -0.20871103 -0.20603722 0.64710706 -0.22064213 0.08886432 0.033977885 -0.006041913 -0.15129626 -0.1292181 -0.016109828 -0.006491172 0.4730823 -0.4324907 0.2500702 0.4799435 -0.08730668 -0.87675864 -0.16371804 0.29732186 0.16627833 0.744897 0.37579355 1.1334517 0.7965637 -0.2126515 0.30164438 -1.3954209 0.75408256 -0.6396322 -0.61538136 -0.11623449 -0.16480121 -0.39133415 -0.60366225 -0.35240495 -0.049555384 -0.017274596 -0.20854868 -0.27000383 0.21966961 -0.21018283 0.085737154 0.92603934 -0.26801795 0.026803251 0.056042273 -0.63108355 0.3799953 -0.17666975 -0.9443021 0.032598365 0.06772769 -0.29754573 0.05294133 -0.5428214 -0.6255011 -0.41820934
sake_class:純米 0.60221386 0.009595617 -1.0792971 0.24314672 -0.3584748 0.17911768 -0.14202698 1.0439237 -0.15113258 0.26594302 0.098452225 0.53774446 -0.108308725 -0.044160962 -0.10193998 -0.25017285 0.24030164 -0.12442646 0.23468883 -0.1336343 -0.06355754 0.14888534 0.71935105 -0.5935751 -0.42088774 0.08367666 0.26905394 -0.076585926 0.37088475 0.48763502 0.42016295 -0.5299464 0.009110053 -0.72995245 -0.19688478 0.95210123 0.789511 -0.12505503 0.33837035 0.2945028 0.29156616 0.23812914 -0.56248975 -0.041779984 -0.45122755 -0.5218659 -0.5479854 0.85908306 -0.28406733 -0.102283955 0.23480177 -0.09983416 0.7402434 1.2294656 -0.14494343 -0.019442217 -0.20134048 0.2702155 -0.7182939 -0.8191524 0.22786555 0.16236238 0.7407191 0.264132 0.24234715 0.039279494 0.83068454 -0.09777903 0.02980227 -0.9002989 -0.16503568 0.5444118 -0.17837161 0.0020075361 0.11162564 -0.21224275 -0.12003342 0.9662556 -0.28975013 0.6496365 -0.16843894 0.14517543 -0.20679948 -0.48669666 0.087098025 0.30145463 -0.46042308 0.07692692 0.14970656 -0.3029864 0.13604198 0.7198791 -0.08608629 0.13124368 0.64925164 -0.15901914 0.60924864 0.35393208 -0.25984257 -0.05539347
alcohol_rate:15.00 0.12650998 -0.15297166 -1.1669451 -0.2660048 0.42226633 -1.5338072 0.15719073 0.4621131 0.7425541 0.2022214 0.21453063 0.19680423 -1.1446493 -0.3817199 -0.3546918 0.5071503 -0.58807474 0.158515 0.06007038 -0.07414127 0.693105 -0.3819309 0.09385483 -0.57490665 -0.20796558 0.5093656 -0.417888 -0.5896936 -0.47331443 -0.07098676 -0.3516134 -1.014474 -0.38778225 1.6684606 1.0255593 0.7153285 -0.36268806 0.497679 -0.32261714 0.005950308 0.18104815 0.3084783 -1.7315645 -0.13950223 -0.74683994 0.29716718 -0.1180401 0.17247455 -0.9351423 0.58260316 -0.54266256 -0.42024028 -0.9210147 -0.8645604 0.53729606 0.5712986 -0.34831676 -0.38947818 0.64551944 -1.2350343 0.29412085 0.2688849 -0.42632884 1.0239203 -0.23774126 0.38911995 0.26561123 -0.7850975 -0.90660083 1.1296877 1.2553351 -0.6895735 -0.06750988 -0.8319082 -0.0400169 -0.3696921 -0.3056365 0.29242173 0.44919464 0.38261983 0.19056022 0.67832303 -0.06267894 -0.09824259 -0.5673013 0.36173928 -0.4109447 0.16588059 -0.34991217 -0.26895764 -0.28695676 -0.22949798 0.5950049 0.05498724 0.14770038 1.1135291 0.08368168 -0.5740681 0.068739384 -0.14838769
sake_meter_value:3.00 0.13632269 0.56130284 -0.7879163 0.03125202 -0.5883654 0.40110663 0.76874274 -0.014686425 -0.5721409 -0.9010687 -0.7958649 0.22231641 0.9475 -0.23194249 -0.06316957 0.12538497 0.3551535 -0.010069836 -0.04023551 0.07734066 -0.0343357 -0.33687913 0.042606782 -0.41579595 0.04654976 0.32078418 -0.3018204 0.40502945 0.5162039 0.09245246 -0.22942893 -0.024052404 -0.2740092 0.11408159 -0.19012798 0.45300332 0.6437573 0.09835143 0.21145143 0.07869296 -0.7711934 -0.42956024 0.23181617 0.6211766 -0.47797966 0.3553488 -0.119189546 -0.10903349 -0.31524476 0.026951836 -0.26018128 -0.49409544 0.45083776 0.8826171 0.52358943 0.18742119 -0.12278574 0.13669643 0.565421 -0.8736482 -0.47438687 0.10310847 0.25933194 -0.30205113 -0.20960513 1.3850546 0.64478076 -0.14571401 -0.09156157 -1.2691759 -0.18078506 0.3229635 0.019331468 0.42642492 -0.21485396 -0.84992194 0.044858605 1.0932295 -0.07327262 -0.006303167 -1.3951907 -0.23457696 -0.35837433 -0.48977926 -0.27976683 0.399955 0.09860451 0.93693155 0.03391263 -0.2502013 0.32068652 -0.34555167 0.655854 0.9851937 0.08785907 -0.055166002 -0.06396068 -0.046886727 -0.46033517 -0.047766455
method_for_making_sake:原酒 -0.24527387 -0.3150145 0.3739062 0.7664706 -0.13095593 -0.20553795 0.07974088 -0.79641974 0.017901344 0.063435405 0.20871863 0.21410148 0.74441254 -0.08495197 0.8185518 -1.5803567 0.32613882 -0.16920765 0.95147455 0.6590199 0.6679016 0.2433878 1.3366729 -1.053373 -0.21162216 0.869218 0.52621186 0.33818504 0.64740694 0.46046057 0.30388793 -0.17278215 0.019400489 -0.7663567 -0.103318915 -0.34177327 -0.46126574 -0.22044294 -0.17551771 -0.8371492 -0.419593 0.5410475 -1.1278172 -0.5822232 0.83933467 0.39863166 -0.25493446 -0.32996437 0.25906327 -0.15749203 0.34150344 -0.66482806 0.4327692 0.510005 -0.13374141 1.5782981 -0.12470882 0.13280998 0.34046325 0.106170885 0.26299614 -0.31287766 0.6656518 -0.30709735 0.6142423 0.4322468 0.26465428 -0.29002956 0.0016110265 0.39888018 0.6400285 0.40117267 0.3228325 -0.6431725 -0.0042125834 -0.6962929 -0.4191985 1.0160505 -0.18686458 -0.098052576 -0.5657844 -0.014757951 0.15752926 -0.11562533 -0.28221625 1.4303012 0.2641038 0.012616542 0.11793609 -0.20600723 0.3440432 -0.834811 0.068353966 0.30610698 0.15179558 -0.80596954 0.35162297 -0.1473805 -0.67490554 -1.5102738
yeast:自社酵母(詳細不明) 0.57903945 0.13247296 0.17746261 -0.3296968 -0.11553408 0.7616029 0.02255142 0.3026651 -0.0036379062 -0.26284418 -0.20957507 0.3380677 0.23346446 -0.47929433 -0.057891753 0.26998833 -0.20157364 0.2670302 -0.3166841 -0.20714927 0.5110171 -0.1451701 -0.031642597 0.27433258 -1.3302475 0.748597 0.14790352 0.19839752 0.6522901 0.71586734 0.8004532 -0.24192278 -0.1650602 -0.6607324 0.15478946 0.8435593 0.24535215 -0.34585038 -0.27670404 0.26183203 -0.032054916 -0.29800582 0.122705065 0.0037826654 0.00986927 0.5260542 -0.62157285 -0.5722249 -0.09862887 -0.23982456 -0.15319586 -0.28999677 0.26966038 1.4915136 0.2102706 0.38607934 -0.70720714 -0.31074554 -0.079616785 -0.14173898 -0.24512753 -0.7964233 -0.19537233 0.84041864 0.34955788 1.4895016 0.50960875 0.4881224 -0.0020635154 0.3144459 -0.32332253 -0.24008131 -0.30534196 0.3799283 -0.19362544 0.12426844 0.14106077 0.11876539 0.14157286 0.49381107 -0.30468565 0.05815527 -0.5869248 0.23679262 -0.35570335 0.39862162 -1.1874913 -0.021809725 0.65988123 -0.6118667 -0.52651566 -0.4912656 -0.38678345 0.019779367 0.50888544 -0.34166637 0.09317516 -0.27109933 -0.6510759 -0.51890755
sake_class:純米大吟醸 0.51500154 0.7130795 -1.3483442 -0.12969974 -0.40900484 0.062779315 0.24746756 0.4645104 0.37998435 1.2608786 0.2555617 -0.3991201 0.27909687 -0.5467352 0.09237274 0.42680943 0.21109468 -0.41853994 0.31044367 -0.0022187096 -0.20012808 -0.5298662 0.09081657 -0.29961592 -0.32875234 -0.34891218 0.22317097 0.43686604 0.29998505 0.14426884 0.42218453 -0.5337995 0.13249777 -0.64410794 -0.6422654 0.7090575 -0.0035150135 -0.4045427 0.4356557 0.94413865 -0.13302481 -0.33484533 -0.16811228 -1.0252749 -0.54157776 -0.41589397 -0.098655544 0.7360726 0.46728036 -0.37428552 -0.8465129 -0.38736227 -0.3408666 0.35628656 -0.19767767 0.20967294 -0.05952485 -0.39229807 0.2791021 -1.0984937 -0.26750734 -0.24952504 0.12230212 0.7014776 0.29705924 1.1502525 0.5978121 0.3430556 0.22717893 -0.6386008 0.17360343 -0.72474974 0.16419186 -0.5780457 -0.8483449 -0.45611602 -1.0085309 0.24334574 -0.5533288 0.19847013 -0.091248535 -0.4297514 -0.10130268 -0.08362123 -0.36382067 0.09990666 -0.68211204 0.0035342074 -0.035482302 -0.47830385 0.5090171 -0.72438216 -0.08879526 0.2800572 -0.10253546 -0.7017584 -0.45991406 -0.12696226 0.10394284 -0.022323199
rice:五百万石 -0.7775657 1.1398925 -0.14057843 -0.2503176 0.71354103 -0.42136806 -0.13164584 0.05056284 -0.23428963 -0.41184253 0.41448987 -0.12132929 0.8369498 0.25724953 -0.41223243 -0.3267449 1.0653276 0.041559752 1.2562338 0.116326384 -0.3249169 -0.44685966 0.66821563 0.5725867 -0.15235499 0.84608465 0.48984042 0.7439316 -0.08417147 0.23634462 0.6184585 -0.47274685 -0.7343852 -0.1856492 -0.09698588 -0.21111736 0.49585834 0.6611045 0.32846206 0.5275354 0.26975355 -0.31968743 -1.0822092 -0.41414168 0.33925384 0.06979481 -0.03355325 0.86265934 0.31642616 -0.068644606 0.06303799 0.2392466 -0.17744243 1.0302783 0.86727846 -0.45268545 -0.14325264 0.68129 -0.42358175 -0.5780306 -0.6254145 0.1240665 -0.03222954 0.18181066 0.7652178 0.93816274 -0.25300723 0.035579696 -0.15143856 -0.5200707 -0.07576668 -0.19073312 -0.002323435 0.18982813 0.6359558 -0.80034244 -0.97617257 0.7096175 0.045464914 1.4513978 -0.73940384 0.27066323 0.6152171 -0.17235239 1.1089668 1.0836205 -0.36180678 -0.38700747 -0.48443758 0.54161555 -1.1633389 -0.545022 0.9156936 -0.33490047 0.8735821 0.17296065 0.45961973 0.2996905 -0.52714205 -0.59839815
titratable_acidity:1.60 -0.49814424 0.73653096 -0.4693525 -0.2758145 0.2258848 -0.029791126 1.0817661 0.53218806 0.026198223 0.14347157 -0.8198125 0.9943739 0.27995744 -0.127225 -0.11722725 -0.0077893506 0.60886186 -0.24468395 0.14936994 -0.20415649 -0.42961907 0.07458822 -0.07898264 0.12044334 0.33523083 0.065193675 0.46128246 0.6562628 0.7056727 0.4278876 -0.30800083 0.1164301 0.4496669 -0.20664318 0.0018225863 0.29983217 0.99353135 -0.34193718 0.3909979 0.01208947 0.507946 0.3100846 0.2672051 0.13004485 -0.22995222 0.33341858 -0.88984764 -0.25778282 0.59034824 0.12599793 -0.64435756 0.41132486 0.14476171 1.305554 0.16975002 0.6738602 0.2995134 0.20548764 -0.021700067 -0.5565551 0.51545715 -0.7601527 -0.29319984 0.87251014 0.5780958 0.36031896 0.5646779 0.24144667 0.893247 -0.5687475 -0.06931852 -0.14614521 0.0043452294 0.528054 -0.06274378 -0.3788758 0.05418568 0.31750393 0.1721985 0.37386262 -0.5014323 0.013495556 -0.43085223 -0.24553019 0.37688994 0.40374002 -0.48327574 0.19539085 -0.21464266 0.18875149 -0.0912975 0.31285223 -0.5367342 0.0072261305 -0.42007574 -0.5243992 0.48622677 -0.5328719 -0.35017815 -0.74597985
titratable_acidity:1.50 -0.3888908 1.0160878 -0.16027144 -0.10465603 -0.050831173 0.5055188 0.7691583 0.6847046 0.0045227837 0.56205 -0.29218465 0.38399267 0.35888556 -0.656366 0.0005622777 0.7155312 0.29012698 0.18368338 0.27819014 -0.30198005 0.42497772 -0.017938197 -0.6757485 -0.25625956 0.18073711 0.16576041 0.27729857 0.52707076 0.9804094 0.07055565 0.24849431 -0.4616549 -0.55746806 -0.14677966 0.2904761 0.052660454 0.4666853 -0.84766847 0.3822213 0.357753 0.32800958 -0.34104994 -0.6275378 0.40787262 -0.39129397 0.1411737 -0.4221588 -0.011192164 0.12862277 -0.017247654 -0.64417696 0.22243896 -0.27585465 0.93237853 -0.23306276 0.59363055 0.555461 1.0397297 -0.08257427 -0.34848934 0.49815476 -0.64003325 0.14397062 1.1325086 0.27502966 0.7289548 0.42959175 0.19509073 0.24847136 -0.5315223 -0.1626639 0.18982816 -0.7508577 -0.103093706 -0.03089587 0.032320593 0.036625538 0.29756033 -0.635351 -0.09935345 -0.74233055 0.32421485 -0.1509247 -0.11460137 -0.035916086 0.9012301 -0.3306049 0.46472216 0.26386908 0.8743458 -0.02621376 -0.6783644 -0.21202786 0.0057736645 0.53291667 -0.7726054 0.2556305 0.13481715 0.023305262 -0.4574669
sake_class:特別純米 -0.18347663 0.3953824 -0.2699541 0.6673213 0.2835856 1.2488072 -0.16954741 0.29437548 0.16675103 0.07954795 0.37664157 0.3020312 -0.036033466 0.66573507 0.37077817 0.18787645 0.33029935 -0.58723146 0.21056116 0.09271698 0.63755506 0.42063004 -0.24191627 -0.58552974 -0.42888275 -0.72108 0.10660991 0.62250805 1.083818 1.0612215 -0.0639564 0.1912608 0.021430608 -0.6867222 -0.14380059 0.8309005 -0.08646992 -0.15845856 -0.31378618 0.069753386 0.13475826 -0.9613727 0.13465859 0.3589403 -0.60250145 -0.17944591 -0.591836 0.5255938 0.35431534 -0.24296395 0.11042446 -0.17050093 -0.05772183 0.292738 0.6943005 0.47985828 -0.20766504 0.6375138 -0.87955546 -0.9594868 0.34765023 -0.9864506 0.3000019 0.57090324 0.8108638 -0.29535383 0.36439583 0.57433796 0.31051534 -1.0453943 0.7035583 0.11402359 -0.19258924 -0.34916303 0.41578257 -0.7733102 -1.2884462 0.14639089 0.10068083 0.3477441 -0.25557154 0.29700613 0.23181865 0.5042946 -0.4173568 0.48102278 -0.6513119 0.46982947 0.46235278 -1.0224313 0.19892079 1.0159329 -0.0036093127 0.25294736 0.7153702 0.015137805 0.016594274 -0.08074952 -0.94088286 -0.40674967
method_for_making_sake:生酒 -0.15756427 0.017606264 0.17480466 -0.27248418 0.74412817 -0.10552104 0.7506304 -0.493238 0.49205855 -0.3959993 -1.2077496 0.9669786 0.2581877 -0.16347079 0.6028949 -0.5093126 -0.7386711 -0.49343875 0.24449275 0.21295306 -0.18349098 -0.48115858 0.92434067 -0.8468395 -0.06963667 0.08949787 1.0008409 0.6099321 0.37960774 0.2717497 -0.21958661 0.13266547 -0.323686 -0.40009388 0.78538257 -0.31967786 0.0708455 0.3748829 -0.6472305 -0.49076995 -0.6715775 1.0708255 -1.3615278 -0.47225982 0.5499175 0.3339953 -0.22072622 0.21452293 0.7906454 -0.8221827 1.3182539 0.4180493 0.30358547 0.3491387 0.18914971 0.35250375 -0.7751693 0.4962242 -0.17891058 -0.33746555 0.7137434 -0.63244283 0.24706283 0.28712186 0.2217956 -0.06339822 0.43238935 -0.70819366 -0.4848238 -0.11806595 0.532082 -0.4552493 -0.3034254 0.22406071 0.15409057 -0.5537502 -1.4805641 -0.82376456 0.4669405 0.40115768 -0.850038 0.04729983 -1.2338545 -0.0028561454 0.07392258 0.30227965 -0.6859038 -0.30940473 -0.1715881 -0.7795841 -0.68908554 -0.6593251 -0.44113198 0.37226748 0.075002976 -0.18100363 -0.10423826 0.76427275 -0.5183668 -0.48842466
rice_polishing_rate:55 -0.29110476 0.61253476 -0.3961814 -0.83469546 0.20807573 0.40801376 0.2908642 0.3804593 -0.12328178 -0.077288605 -0.33977193 0.9093347 0.7880258 -0.5820691 0.42294127 0.66623294 0.5760267 -0.6654971 0.89389265 0.17102627 -1.2291666 0.20893101 0.5144491 0.6031051 -0.68968767 0.26443827 -0.40960845 0.4465379 0.54928577 0.5741226 0.7760306 0.063194476 0.15808116 -0.30096275 0.33538958 -0.13229024 0.29416525 -0.23468272 1.0063637 0.8274218 -0.13733183 -0.09296143 -0.762561 0.031411644 -0.08502134 0.99575526 -1.1960624 0.012721883 0.13079125 -0.11307134 -0.12836434 0.06274519 -0.18682085 -0.16782352 -0.1975676 0.6601012 -0.295388 0.29989907 0.5388855 -1.0916834 0.39558795 1.1341901 -0.69290054 0.8019083 0.15728967 0.17264348 1.0110822 -0.34098834 0.7164124 -0.19816965 0.035672057 -0.68369156 -0.3296817 -0.052251026 -0.97945666 -0.976941 -0.9552493 -0.5284667 0.0098858215 0.3774619 -0.64543515 -0.64042765 0.15348941 0.9724 -0.5033264 0.9040867 -0.026844194 0.01942174 -0.08547895 -0.70013714 -0.1594745 0.016566468 -0.028457772 -0.16735953 0.36799264 0.7037436 0.11421605 -1.1456738 -0.065858014 -0.3914989
rice_polishing_rate:50 0.19739823 -0.58038497 -0.9184574 0.36203632 0.026661966 -0.28424734 0.61146474 0.6472367 0.39975867 0.38619772 0.24649705 0.44038764 0.5596055 -0.7372501 0.38665128 0.22176068 0.0030497073 -0.9210612 1.5277557 0.6444135 0.0009069339 -0.61522955 -0.3488786 0.7649343 -0.20430511 -0.10550327 0.0016800091 0.23492084 1.3100822 0.19049616 0.65211105 -0.6011316 -0.7037562 -0.12764242 0.95841306 -0.035720892 0.33530143 0.1892975 0.59775 1.3919171 0.28968787 -0.022225471 0.662591 -0.74124175 0.41456968 0.22353275 -0.2284886 -0.4008191 0.1381287 -0.289221 -0.39816654 0.18991454 -0.5103107 0.83135086 -0.3510056 0.33735234 0.8476728 0.027480545 0.32654405 -0.8794813 -0.09503812 -0.5557056 0.38310423 0.039693173 0.22420382 1.4089562 0.88193333 -0.11566596 0.028630491 -0.6985327 0.41525412 0.6363502 -0.20107904 0.015431744 -0.5972405 -0.13381809 -0.92653525 -0.46380535 -1.0371934 0.407986 -0.4135584 0.21015906 -0.39018065 0.10509316 -0.02842236 0.317458 -0.49074596 0.24785927 -0.27388972 -0.63633746 -0.49598488 0.29339468 0.17881344 -0.4888526 0.88665783 0.97342354 -0.4352306 0.1905066 0.18144399 -0.05245747
alcohol_rate:16.00 -0.2281185 -0.7709603 -0.3770019 -0.6204226 0.9443157 -1.1780429 -0.018339679 -0.06674845 0.5200239 0.44534373 -0.6718558 0.16098419 -0.22802222 -1.0284858 -0.9273885 0.21310234 -0.7577244 -0.43628296 -0.1870014 0.054228347 0.9497199 0.09580143 0.4676199 -0.026549228 0.1808836 1.2618071 0.37463632 -0.47545463 0.34584463 0.1990723 0.00904653 0.30622885 0.38378796 0.43778536 1.1367532 0.5437327 -0.43067724 0.22114655 -0.39078352 -0.051133703 0.4475619 0.5973344 -0.3321007 -0.39870268 -0.3518933 0.6644089 -0.13823403 -0.38317582 -1.6174223 1.018413 0.0373755 -0.08869418 -0.664708 -0.41252366 1.011121 -0.00077461783 0.06615329 0.048187517 0.64187586 -0.71419007 0.6386883 -0.356343 0.4430697 1.0172472 -0.7980264 0.47448334 0.47028705 -1.2067428 -0.8862165 0.9785061 1.4822232 -1.0269904 -0.6636484 -0.37554458 -0.1718573 -0.53571814 0.06648425 -0.028106004 -0.0075153345 -0.18238112 0.42672014 0.25172755 -0.68406177 -1.1355802 -0.5021323 0.8706008 -0.32956153 0.2587949 0.46212998 -0.80777764 -0.3714474 -0.66144663 0.6876965 -0.0026312512 -0.6196498 -0.14571539 -0.5629166 -0.4580917 0.18207608 -0.12896276
rice_polishing_rate:65 0.6021522 -0.6568384 -0.2527914 0.19800106 -0.18206345 -0.27307987 -0.19403094 0.76104707 0.7916684 -0.31959036 0.8829332 1.5494947 0.16549145 -0.37683746 0.46302792 0.19470479 0.08202252 -0.11851296 0.944276 0.20847629 -0.57475126 0.21039946 1.1324989 0.36729988 0.71267956 0.90213925 -0.34755078 -0.3162964 0.03357152 0.24170433 0.5996333 -0.3493797 0.29560533 -0.2591376 0.056321476 1.119658 0.18181252 0.8102503 0.40039438 0.9600836 -0.56197846 -0.48811027 -1.0171574 -0.48989525 -0.5617857 -0.5036989 -1.016963 -0.31453502 -0.38859165 -0.3111452 0.43844104 0.5528094 0.82441074 1.0796366 0.8867933 0.64395326 -0.15742831 -0.60439855 -1.3255641 -0.28050768 0.1425773 0.49633455 -0.0910094 0.8139843 1.1913668 -0.5349598 0.4474243 0.6688185 0.17979321 -0.52090925 -0.5492588 0.6017269 0.15872699 0.26772252 0.43146485 -0.38605797 -0.060275275 0.7276838 -0.6018795 -0.10783331 -0.27258638 -0.00998286 -0.5104694 0.25089315 -0.51265734 1.3267202 -0.5073907 0.5822025 0.2086447 -0.13154508 0.3033585 0.18009816 -0.23990698 -0.29080817 0.11165597 0.14629823 0.37741247 -0.18773235 -0.5322663 -0.025516631
titratable_acidity:1.30 -0.028900018 0.84600013 -0.26331103 -0.012435549 -0.49703115 0.37375736 0.7010685 0.64349973 -0.20175692 0.08840186 -0.166019 0.23081075 -0.23741019 -0.45446855 0.2749138 0.4561731 -0.017183073 0.14384605 0.558454 0.18635494 0.25484276 0.29917675 -0.9166977 -0.35225818 0.29654902 0.6238531 0.21544008 0.3338058 0.25935125 0.26139346 0.08525317 0.031513985 -1.1047515 -0.4604528 -0.47068012 0.026876139 1.3098025 -0.32284233 0.35101286 0.07636456 -0.1512447 0.3378633 -0.78865397 -0.22112915 0.051645465 0.59638745 -0.30160066 -0.048749182 -0.43965638 -0.13186948 -0.30031577 0.74424523 -0.9588332 1.1338459 -0.035151675 0.7085646 0.48068556 0.7076309 0.23617616 -0.49452087 0.4455356 -0.44048634 -0.42747977 1.550561 0.2542493 0.8997601 0.37977612 0.0004065125 0.16636838 -0.24271454 -0.54003185 0.2809788 -0.3367645 0.4344895 0.59872 0.02728959 -0.2700067 0.6705835 0.11828979 0.37408814 -0.29052496 -0.20482172 -0.13612378 -0.2075187 0.18932329 0.53706795 -0.9365183 0.4659049 0.08237909 0.13770379 0.09994126 0.5194975 0.08723819 0.03163886 -0.49052852 -0.32165328 -0.36914566 0.26264945 -0.21669732 -0.8412233
titratable_acidity:1.40 -1.0759504 0.42134374 -0.45689827 -0.2775076 0.05095187 0.41726097 0.76913947 0.7369412 -0.75899434 0.5282531 -0.07266654 1.0664884 -0.020330826 -0.58916306 0.03244521 0.2411547 0.33559728 0.3652869 0.53943086 -0.20314623 0.29600084 0.057940047 -0.34833902 -0.24026962 0.2329112 0.70405674 0.35030645 0.38389352 0.09662889 0.8415187 -0.20808187 0.25288016 -0.24224125 0.11186838 -0.45207393 0.35514453 0.808536 -0.43703505 -0.059134737 0.033352703 0.40564486 0.22184883 0.12708452 0.33984625 0.4287937 -0.14908049 -0.62769926 -0.35390815 0.19693255 -0.4114607 -0.31254587 0.60286 0.4429702 1.5478321 0.47256404 0.5353132 0.81182873 0.32302076 0.5751395 -0.96162677 0.16582951 -0.100701526 -0.07385955 1.1515343 0.18602206 0.63530785 1.170281 0.17466089 0.11691981 -0.43093228 -0.09816528 -0.23899232 -0.07634426 0.7987504 -0.71462923 0.053141683 -0.8587893 0.16177067 -0.0197723 0.04171804 -0.7259774 0.37755272 0.2988457 0.21401568 0.79370755 0.44538698 -0.5908426 0.17202155 -0.15182751 0.46631607 -0.21804714 0.093479246 -0.29969326 -0.024057096 -0.27014852 -0.6370061 -0.28932104 -0.10857886 -0.31425664 0.40645656
sake_meter_value:2.00 0.4654358 0.37500095 -0.754606 0.38009968 0.4341933 0.86626774 0.8900307 -0.27339926 0.14449719 -0.6961312 -0.5884468 0.08947708 0.19692911 -0.26711828 0.4243864 0.20625934 0.64031893 -0.13012537 -0.041857734 0.5899534 -0.15939161 -0.08485322 0.08528575 -0.07556277 0.5120085 -0.01645643 -0.09244395 0.5324205 0.6927808 0.007793557 0.5025153 -0.43542078 -0.18206544 0.27969453 -0.62904805 0.732894 0.6779721 -0.17596726 0.8127881 0.5685986 -0.6063394 0.45631462 0.26450765 1.0512409 0.17630765 0.55394423 0.18457942 -0.07086679 -0.098512776 -0.5416435 -0.22279084 -0.30744585 -0.07338903 0.11012175 0.60063225 0.7164034 -0.099802576 -0.0113988025 0.16160981 0.31524548 -1.772423 -0.2303215 0.7959734 0.30634922 -0.38819137 1.4034555 0.026967734 -0.3612489 -0.6686418 -0.3538161 -0.6001778 -0.50476867 -0.69128317 0.13357219 -0.299704 -0.99809426 -0.28370857 0.80837315 -0.75885063 0.19352926 -0.9784065 -0.035190597 0.07203599 0.16821507 -0.38766798 0.74181765 -0.25715354 0.5193373 -0.15583114 0.14718774 0.17958663 0.378447 -0.81129706 0.7613514 -0.17762887 -0.17199916 0.50960773 -0.14951003 -0.37949944 -0.21553242
prefecture:京都府 0.61866355 0.3737978 -0.7329126 -0.18721005 -0.14115046 0.7595444 0.13159773 0.23800111 -0.11534926 0.76427144 0.71552885 0.7744505 1.4584509 -0.42102867 0.22061276 0.682406 -0.059535798 -0.94541323 -0.4143042 0.3136799 0.32028377 -0.098421685 -0.42510748 -0.13241738 -0.43370837 0.7040093 0.2692565 -0.22385406 0.411272 -0.5408377 0.7945433 -0.41167837 -0.52979046 0.18996747 -0.90942895 0.4848585 0.3172258 0.07183599 -0.7884699 0.15945637 0.6721357 0.39158747 0.30679628 -0.6114983 0.06135895 1.4960998 -1.0258603 0.5851149 -0.22367369 0.46213666 -0.28531146 -0.91105515 -0.40365335 0.5054915 0.7920536 0.3364747 0.11718913 -0.0946434 -0.31856266 0.4469388 -0.19488458 -0.27131906 0.52494955 0.09368344 0.65487826 0.95486766 -0.39456815 -1.066776 0.49471554 0.63825434 0.110761285 0.2502611 0.13152063 0.7915873 0.76249146 0.2046497 -1.2867897 0.22239181 1.033655 0.3338522 -0.7357067 0.012410138 0.24168171 -0.2743309 -0.42842224 1.0236188 -0.21926092 -0.25262576 -0.022089958 0.06190995 -0.09477791 -1.1525496 -0.07260052 -0.18887603 -0.24512355 -0.46768063 0.2393907 0.5888194 0.13679726 0.24564973
sake_meter_value:4.00 -0.13960254 0.24290395 -0.5370407 -0.053999867 0.28570327 0.45340538 0.7750546 0.43291074 -0.3951189 -0.25211787 0.30909002 0.5979148 0.21878724 -0.19085938 0.4789713 -0.14327471 0.17381802 -0.27628797 -0.06650929 0.4200582 0.39135277 -0.028134417 0.19830795 0.1581391 0.8365384 0.07318045 -0.48881903 1.0239426 0.6047871 -0.6962543 0.5580633 0.36807674 -0.035101034 0.23327422 -0.18977425 0.54273516 0.81817484 -0.3451675 -0.33389083 0.5288299 -2.0165699 0.12901863 0.19272423 0.12773329 0.37147707 -0.5365608 0.2145789 0.028504675 -0.2615177 -0.08217811 -0.68926924 -0.16143908 -0.44400385 0.88786197 0.70347464 -0.31817368 -1.3853153 0.79612607 0.19520526 -0.69861305 -1.1403576 -0.3601802 0.027194986 0.3809883 0.39263794 1.2246369 0.75425076 -0.37432444 0.013533312 -1.4913626 -0.08293348 -0.32312268 -0.3516683 0.7955139 0.35493308 -0.3219811 -0.34119013 0.61745083 -0.08582797 0.5157965 -0.8316817 -0.2559889 0.009863294 0.4944637 -0.41329515 -0.3565325 -0.07675905 0.39414042 -0.08438208 0.32499677 0.38006362 -0.36342406 -0.11555047 0.6690085 0.35270798 0.031591866 0.1723531 0.5310536 -0.21922018 -0.33193818
yeast:きょうかい901号 -0.42531455 -0.14176828 -0.6898446 0.2676665 -0.28480396 0.056347005 -0.08163254 0.567979 -0.6125757 -0.8074156 -0.047657594 0.7489558 -0.12751351 -0.5029995 0.061592843 0.14885044 -0.13608733 -0.76001245 0.16714689 -0.6329864 0.31544447 0.052884497 0.41086525 -0.2505654 -0.44447422 0.51410615 0.14339268 0.1924326 0.56295294 0.6000595 0.45816487 -0.9989489 -0.07617696 0.9398847 0.05660773 0.69451153 0.34963626 -0.5947872 -0.29483685 0.4328316 0.29553983 0.015526424 -0.6726197 0.4984499 -0.39617783 0.10042427 -0.7619973 -0.027175155 -0.3290523 -0.16517286 -0.012775571 -0.33497447 0.7693944 0.68001306 0.30232537 0.20057705 0.019442854 1.6491679 0.36982784 -0.9815812 -0.10025182 -0.7659264 0.1760996 0.39055777 0.44508094 1.1690636 0.9622898 0.66064954 0.41872796 -0.26047453 -0.21649835 -0.8732592 0.15418588 -0.2789557 0.04326497 -0.29796362 -0.023026878 -0.5864576 0.15637591 0.59724474 -0.5224779 0.16071898 -0.30853686 0.1853397 -0.7314153 0.84411496 0.21959037 0.6018505 0.49542552 -0.16972677 0.23683509 0.1798956 0.2403448 0.24518815 0.64751095 -0.6464686 0.7218798 -0.026449107 0.11303988 -0.2240743
amino_acid_content:1.00 -0.59252125 0.49437803 -0.6656608 0.48263878 -0.8648849 -0.29173127 0.6311676 0.3529162 0.6649418 0.42065933 0.9663071 -0.24232624 -0.97348744 -0.08480693 -0.79765826 0.05169418 0.5383497 -0.43338278 0.4506054 0.4706103 1.0605916 0.22294828 -0.15896252 0.03551378 0.5052337 0.7259176 0.26390898 -0.39895707 -0.5970617 0.89160025 -0.74770254 0.9617938 -0.6078044 0.6386418 1.2677805 0.9721102 -0.44571155 -0.5556629 -0.8569789 0.20713215 -0.82103056 0.54143155 -1.7479397 -0.3798039 0.92345417 0.3691151 -0.16010705 1.0472022 -0.3878958 -0.39686683 0.05801154 -0.85639787 0.23159732 0.6903925 0.1477318 -0.45369726 0.061989058 -0.14697172 0.48650172 -0.13257533 0.05496087 -0.051891863 1.0006936 -0.015600512 -0.84683615 -0.053411398 0.023894498 -0.4140313 -0.55145675 0.6050307 1.5351104 -0.60740733 0.89389306 0.21843942 0.9549175 -0.5581885 -0.5436063 0.5850366 -0.027671864 -0.7556491 -1.0314683 0.05292436 -0.9642548 0.48058838 1.0108539 0.4152265 -0.33397192 0.13140947 -0.9825156 -0.59646314 -0.5851195 -0.31368276 -0.21228921 0.5290825 -0.22718807 0.26633346 -0.035525665 0.1994652 1.4219288 -0.61244386
rice:美山錦 -0.36163712 0.7513986 -0.5449315 -0.46717116 0.01523102 0.89894205 -0.39397636 -0.51461685 0.19673365 0.08206194 0.31779 0.42483485 0.38726655 -0.055803828 -0.07476102 -0.74050605 -0.03211747 -1.1033862 -0.12048535 -0.019427298 0.36520192 0.3432525 0.11189713 0.53203136 -1.2595628 -0.15011787 0.4525333 0.68886924 0.47059014 0.27390516 -1.0048276 0.3152021 -1.0944557 0.34145847 0.24506687 0.8055802 0.043876875 0.23735346 -0.13533771 0.033812806 0.40270537 -0.10980508 -0.68225324 0.25829542 0.4435365 -0.8260524 -0.13535193 -0.75170815 -0.59390837 0.1921571 0.48787165 0.3656639 -1.4250551 0.53014237 0.6025612 0.8591442 0.14316185 1.228059 0.16636321 -0.6304927 -0.77926034 0.25692955 0.116053276 0.7643053 1.322837 -0.3042248 0.42478964 -0.84510636 0.30564648 -0.19874118 -0.20602192 0.24593943 0.45947927 0.75757337 -0.40679142 -0.28811514 -0.1961714 0.58631986 -1.4027169 0.17877418 -0.20167948 0.40664944 0.13097104 -0.10742271 -0.09794737 0.37133482 -0.080217615 -0.40827152 -0.32172322 -1.1285781 -0.53569764 0.39647135 -0.8336782 0.83907264 0.36788595 -1.011488 0.11906043 -0.13250966 0.53010833 0.26929262
titratable_acidity:1.70 -0.36016467 0.6324953 -0.21945067 -0.1290097 0.31155503 -0.1564944 0.20516492 0.49882457 -0.09718082 0.35946056 -0.12348097 1.3894888 0.37500778 -0.32720405 0.27945223 0.25910264 0.5023707 -0.34109235 0.5804006 0.01358173 -0.16480471 0.6305947 -1.1004707 -0.5749116 0.19978875 0.09738759 -0.026621014 0.67450047 1.2454104 1.154277 -0.8033088 -0.22735265 0.100309506 0.009895426 0.5806353 -0.3170493 1.1929524 -0.055932898 0.26323795 -0.0053954944 0.04371733 0.0061704735 -0.57706916 -0.21311854 -0.027677257 -0.3282321 -0.49836397 -0.2867943 -0.9557992 0.114848204 -0.5616626 0.594226 0.5909483 0.9713768 0.17980337 0.8882344 0.3611328 0.104694076 0.37223044 0.2973034 0.06461 0.04396639 -0.37030673 1.6954044 -0.055987764 0.2137043 0.61700344 0.37347677 0.51305616 -1.2293268 -0.058576234 0.9350133 -0.5234842 -0.21192789 -0.22382818 -0.29033247 -0.40166 0.40250763 0.4683086 1.0634266 -0.514514 0.6490731 0.04402726 0.1308221 -0.18753158 0.464554 -0.77939934 -0.09020729 0.2262731 -0.15085554 0.08337523 -0.24542011 -0.32562694 -0.45396346 0.5740892 -0.12495472 0.33624157 -0.781298 -0.13044666 -0.5026617
sake_meter_value:1.00 0.56898373 0.83636045 -0.1037336 0.31728968 0.3177071 0.21404636 0.930692 0.41129202 -0.6724014 -0.62171155 0.112193406 0.19636849 0.8265373 -0.10212056 0.84844416 0.19789357 0.29237363 -0.16694526 0.34153113 0.49437115 0.28982612 -0.061797664 -1.0423527 0.13545078 0.23925823 0.5412226 0.24746948 -0.0149974 0.71290535 0.297363 -0.62080455 0.4043367 -0.32350996 -0.6376574 -0.33604658 0.98465395 0.60672295 0.48638764 -0.20942643 0.45115408 -1.4003001 0.020205071 0.3995063 -0.10672226 -0.4175158 0.08067956 -0.66873366 -0.6346763 -0.33346593 -0.6197388 -0.34317127 -0.41643518 0.5404071 0.9248128 -0.0050730044 -0.0973809 -0.7586854 0.25460804 0.2255001 0.42490986 -0.9142056 -0.35346806 0.774874 0.5149516 0.76494837 0.6204636 0.79991645 -0.7396056 0.07020568 -0.21630289 -0.2330103 -0.6613392 0.45752856 0.20518108 -0.61895657 -0.3282309 -0.6544803 0.57538575 0.03337808 -0.1679007 -0.9247653 0.24439837 -0.64221483 -0.1184032 0.65828997 1.0377741 0.12154954 0.45103255 0.7417035 -0.9439601 0.8596887 -0.30054963 -0.8342245 0.6690125 0.15931495 0.6543486 0.6142758 -0.49595714 -0.7401907 0.52337915
alcohol_rate:15.45 0.2777434 0.005806875 -0.63138455 -1.3106194 1.0701035 0.3576774 -0.05213003 0.83932686 -0.05080784 0.013224266 0.40106076 -0.79828095 -0.7758784 0.024357159 -0.6580954 0.6510173 0.25095698 -0.022690332 -0.042397376 0.15091139 1.0134037 -0.7036359 0.012724649 -0.6222605 -0.1850408 0.61104584 0.22899936 -0.57889503 -0.6007263 -0.7548288 -0.1497253 0.031327154 -0.25126952 0.9923026 1.1237304 0.039056044 -0.11800246 -0.17045891 -1.7196258 -0.18964069 -0.89848804 0.69300234 0.36039448 -0.44256306 -0.5375825 -0.6022738 -0.6910097 -0.4586446 -1.1303197 0.7858692 -0.058044665 -0.4258254 0.44399548 -0.064764306 0.36879385 0.15257606 -0.24750605 0.12295671 0.42201918 -0.9939302 0.4595839 0.19565506 0.82920426 1.2475882 -1.1035972 0.60719585 0.27980682 0.76536894 1.3065923 0.40882105 1.2141781 -0.75361145 -0.13693383 -0.04941599 -0.14010997 0.13733456 -0.8011011 0.7687834 -0.91025144 -0.24147932 -0.017440025 0.26484716 -0.20543052 -0.16600129 -0.8419853 0.72959423 0.27980113 0.8640554 0.13101451 -0.20650165 -0.7524481 -0.31866428 -0.36476538 0.2672862 -0.16821705 0.755536 -0.07517632 -1.1815771 0.7709881 -1.118108
sake_meter_value:5.00 0.06030403 0.601054 -0.5918807 -0.66295785 -0.87246466 0.96950376 1.100259 0.3303424 -1.1289736 0.04184223 -0.9382552 0.23434736 0.4495924 -0.6760745 0.73232806 -0.7130692 0.11273181 -0.85753983 -0.17951676 0.46215385 0.122402534 -0.56294376 -0.20346229 0.8496231 0.761627 0.269287 0.29503524 0.9565089 0.8000209 -0.78388774 0.3530139 -0.06842712 -0.23105878 -0.14712472 0.012867451 0.4677428 1.3814892 0.09934615 -0.31627017 -0.09716798 -1.0558829 -0.1590908 0.49073926 0.011383844 0.037440952 -0.059592485 -0.29543668 0.40752974 -0.13631137 -0.8921706 0.5034588 0.12730876 0.43474337 1.1954232 -0.1319467 0.5328367 -0.55052125 -0.046579767 -0.34359604 -0.62006015 -1.116099 -0.5409176 -0.103198946 0.5201808 0.3969831 0.5499821 0.8053504 -1.3365402 -0.02326261 -0.4013139 0.06547958 0.5685752 -0.16051792 0.44167745 -0.08657018 -0.61026317 -0.8021885 0.9932657 -0.52417 -0.25075728 -0.7610572 0.7116283 -0.30239487 0.084755585 -0.7965428 0.13762777 0.091860525 -0.012665684 -0.18988535 -0.34764737 -0.012785383 0.013010302 0.29328048 -0.122385986 0.20108148 0.20312592 -1.0286138 -0.8331687 -0.23842455 -0.23510914
sake_class:大吟醸 0.32139093 -0.16205306 -0.51904225 0.2044402 -0.6210763 0.9061496 0.27370697 0.26104665 0.78361607 0.29083857 -0.42942885 0.20354114 -0.4523889 -0.26919112 -0.22054054 0.53388697 -0.3238683 -0.71002376 0.68316525 0.45095822 0.33575118 0.3257516 -0.1485067 -0.7324455 -1.2649851 -0.024939053 0.31514484 -0.43758133 0.13617128 0.8537443 0.42894536 -0.32784617 0.005948778 0.14368369 -0.4438947 0.3368363 1.0393894 0.5267425 -0.40675002 0.3957741 -0.5893262 -0.4452868 0.38289136 -0.3188436 -0.027412115 -0.2750292 -0.03958659 1.5039417 0.3014657 -0.9166685 -1.1166322 0.34157237 -0.4323378 0.72813475 0.7142151 0.32400033 -0.7671296 -0.7152007 0.24739803 0.057018653 0.095877625 -0.118425235 -0.20995006 0.6667259 -0.2846193 0.72467095 0.8240459 -0.15158013 0.034776833 -0.75646645 -0.09460509 -1.1301174 0.72100765 -0.1792664 -0.4472768 -0.7581845 -1.0771656 0.75673395 -0.42850807 0.4745177 -0.70008934 -0.3576547 0.6996049 0.63254654 -0.95410985 -0.015005872 -0.54410875 -0.026928287 0.24617171 -0.59668136 0.17171119 -0.1987315 -0.13873209 0.29534033 -1.0483291 -1.1991898 -0.8111876 -0.33420095 0.55337656 0.0070392177
amino_acid_content:1.20 -0.53718275 -0.45623904 -0.5913095 -0.46333307 0.38707054 0.22264385 0.3839436 0.46282512 0.5531943 0.04287207 -0.5249968 -0.67985755 -0.31726938 0.4345522 -0.6838958 -0.28887385 0.87253225 -0.98605615 0.7291568 -0.23117203 1.9086602 0.31089285 1.0956988 0.1152099 0.4516518 0.943207 -0.25962955 -0.037281767 -0.38694167 -0.14645976 -0.71259195 0.30564752 0.8263992 0.6368381 0.41744745 0.7046913 -0.93438643 -0.27547437 -1.4566102 0.10009923 0.12179792 0.74966055 -1.3526318 0.07416476 0.3138137 -0.0026183033 0.09584818 0.76862675 0.29327935 0.004247158 -1.0726906 -0.3588198 -0.5320605 1.0944198 0.52508944 -0.1478211 0.6559445 0.09870902 0.030669995 -1.0937006 -0.3004069 0.014602801 0.7373053 -0.06929561 0.18754046 0.07868384 -1.1423122 -0.17994232 -0.16266495 0.6903413 0.9849431 0.38282526 1.8815495 -0.6323534 0.70652574 -0.63881177 -0.80051446 0.6442405 -0.17794573 -0.35715255 -1.1923923 -0.06735575 -0.27650148 -0.8699265 0.3413886 0.27022657 -0.25811931 0.04414198 -1.0837367 -1.698557 0.32027096 0.45371577 0.29181117 -0.5176093 -0.7802621 -0.13236107 0.5698245 0.077837236 0.94731677 -1.0269301
titratable_acidity:1.80 -0.6657242 0.44428998 -0.43553355 0.75679135 -0.037902907 0.34496924 0.6576851 0.40202388 -0.30500668 0.7048258 0.14927791 1.4208452 0.031616457 -0.37604335 -0.48275796 0.36221668 0.7978774 0.06106807 -0.43305197 -0.33072808 0.17411143 0.80423135 -0.54456234 -0.52302897 0.7138927 0.66100097 0.5258399 0.64431757 0.34531742 1.1712419 -0.19066319 -0.1455352 -1.0449048 -0.42612514 0.14745419 0.0004689884 1.3886031 -0.7460758 0.3429475 0.09431173 0.6051895 0.5372903 -0.70907307 0.37345064 -0.29410172 0.12064367 -0.2797289 -0.4630888 0.02932239 -0.8436185 -0.22978744 1.058758 0.4037138 1.1707913 -0.66546994 1.4411738 0.15043166 1.075136 -0.19490214 -0.6559143 -0.43978593 -0.14200754 0.4403981 0.992499 0.55051625 0.14536664 0.42146522 0.29471067 0.5376258 -0.77975744 0.13017769 0.6135694 -0.007966322 0.62400216 -0.6725068 -0.0014876764 -0.5185696 0.555755 -0.4021921 0.5417993 -0.31366527 -0.09350702 -0.43213734 -0.2026679 0.28847006 0.6805359 -0.34251687 -0.6722598 -0.11727353 -0.5669991 0.35178447 -0.37715083 -0.25346142 0.22623128 -0.34441113 -0.06457607 0.1299888 0.009361564 -0.61017776 -0.39134544
amino_acid_content:1.10 -0.15917349 -0.59983855 -1.406686 -0.52330697 -0.17378436 0.21331958 -0.41955224 0.5138222 1.0427328 -0.08384151 0.048727747 -0.26339966 -0.2428498 -0.38503873 -0.5639263 0.051137306 1.2885016 -1.1153268 -0.4783547 0.094190195 1.0876157 1.0554903 0.94638187 -0.5254257 -0.22134967 0.27771735 0.33442968 -1.464101 0.61239207 -0.5181473 -0.5081193 1.0366483 0.28937155 1.3360143 1.3505268 0.46384615 -0.5915455 -0.11621334 -0.4716998 0.7452605 0.115536176 0.33941492 -1.8504559 -0.73875284 1.1986504 0.6867297 -0.0765086 1.1414958 0.20339799 -0.68251044 -0.48019323 -1.114603 -0.23191486 0.3059098 0.31819746 0.9985644 -0.3323767 -0.60295826 0.4209628 0.47148067 0.41946802 -0.31969228 0.7440059 -0.28293267 -0.33596995 -0.6046948 0.03889418 -0.21367143 -0.1695628 0.61745363 0.74787694 0.06727173 0.08795665 0.18795243 0.8619776 -0.6695061 -1.4822342 0.9451099 -0.14557096 -1.3478074 -1.3111067 -0.20589927 -0.66507083 0.84754956 -0.44498056 -0.103636846 -0.7053904 0.3299962 -0.29889485 -0.23584984 -0.24210142 0.19543442 -0.8554294 -0.195287 0.96366566 0.25558862 0.4178606 0.26297006 -0.16929413 -0.32162297
titratable_acidity:1.20 -0.26305172 0.69361585 -1.2800934 0.22097808 -0.40471238 0.8875038 0.70285517 0.39923584 0.31554186 0.3851763 -0.0032982791 1.3110343 -0.17884831 -0.69947857 -0.23910752 -0.08520702 -0.38459873 0.42872888 0.534808 0.06920183 0.05135081 0.60419077 -0.90986043 -0.49579132 0.1072062 0.32837674 0.12805837 0.4367184 -0.1962258 0.4654095 0.4483193 -0.013893591 -0.3051719 -0.13876857 -0.37926432 0.8425856 0.349527 -0.11147628 -0.18059908 0.40561712 0.3680518 0.15595031 -0.028806776 0.20721257 -0.10759199 0.40502638 -1.0186481 -0.0336258 0.029648686 -0.17708181 -0.7503659 1.1094229 -0.58016163 1.5492662 0.5432546 0.50886834 0.2088805 0.18896484 0.67175674 0.4613437 0.65180486 -0.49663678 -0.42694396 1.0197091 0.14104632 1.1809703 0.54971236 0.0140249375 -0.20714384 -0.35295764 -0.84036916 -0.16662419 0.10806252 0.6760298 0.5089007 -0.3999049 -0.7167623 0.24064818 -0.37389988 -0.1537393 -0.4984498 -0.044014275 0.3659879 -0.25102115 -0.07588603 -0.4412451 -0.8884272 0.09984232 0.04390997 0.7413864 -0.43495405 0.09320972 -0.38445047 0.23936044 -0.2580954 -1.0682663 -0.046026565 -0.2771884 -0.5017717 -0.43667185
yeast:きょうかい1801号 0.27762443 0.6847131 -0.6011241 -0.07739168 -0.21052545 0.76089483 0.7941827 1.4546041 0.021422714 -0.3776956 -0.2938629 -0.037805982 -0.16194291 -0.6134619 0.1326718 0.9447101 0.20271148 -0.29399645 0.4467263 -0.32808536 0.5865897 0.00085736305 0.07512775 -0.1387423 -0.055021197 -0.32820973 0.73192346 0.16821235 0.9085798 0.6796164 0.3846151 -0.07924726 0.09747754 0.6139404 -0.41078964 0.13723621 0.13591625 -0.017408626 0.4833366 0.37101632 0.18118753 0.385303 -0.13178854 -0.9898068 -0.0742346 -0.8225694 -0.13838927 -0.27864546 -0.14697497 0.55622333 -0.35441715 -0.80882704 0.10191226 0.9827562 0.41043046 0.73641014 0.13948408 0.11325866 0.9207485 -0.62765473 -0.8300358 -0.36465684 0.11969965 1.6237262 0.0051847184 0.8950085 0.80222505 0.017183388 0.21623604 0.27203193 -0.6492869 0.1927492 0.007782319 0.57890916 -0.09245933 -0.56209093 -0.9884953 -0.10469194 -0.15871716 0.37852564 -0.56428057 0.17331591 -0.29714224 0.091269895 -0.35057318 0.7171031 -0.084999524 0.13099146 0.32737434 -0.5683697 0.18436208 0.009114308 -0.6680697 0.29677856 0.5508173 -0.47215182 -0.45217156 -0.4105022 -0.2989104 -0.1207826
city:京都市伏見区 0.3261543 -0.03751438 -0.57293767 0.44527748 0.04446269 0.035426322 0.99308753 -0.12147294 -0.37468746 1.4931316 0.88574356 0.08534515 1.9866996 -0.71425843 0.3840426 0.48565188 -0.3495993 -0.87890065 -0.15450217 0.008328097 0.25870994 -0.038318664 -0.5526691 -0.19029929 0.46879387 -0.0460273 0.54032606 -0.4733834 0.20609495 -0.09297049 0.6010061 -0.0013810958 -0.38439786 1.0252095 -0.79869175 0.8082067 -0.13372748 0.23990473 -0.5719705 0.47376642 0.51972246 0.68881804 -0.15973835 0.36102715 0.057029586 1.5440283 -0.71552914 0.85612506 -0.05415674 0.041802883 -0.15135463 -0.15041316 -0.5685106 0.09709784 0.8595951 -0.12748203 0.14457694 0.12526977 -0.10196198 0.23390801 0.2872275 -0.55867326 0.54705036 -0.044927176 0.59688646 0.41349435 -0.18856803 -0.063139446 0.56235033 0.79427737 0.37818536 -0.8028821 0.3056654 0.513996 0.074179836 0.33732238 -0.6978676 0.19090493 0.5968924 -0.07020513 -0.6407847 0.07965404 0.72238034 -0.4033426 -1.0205253 1.4125823 0.09931754 0.33378372 -0.5265265 0.8089473 0.19550794 -0.3313201 0.18245284 0.1715605 0.037094638 -0.050029263 0.042900857 0.4805628 -0.2150263 0.27083758
prefecture:山形県 -0.36905915 0.4046244 -0.5710866 0.04449146 -0.19609168 0.82737267 0.11507745 0.0003596225 0.7019312 0.36342558 -0.22608502 0.35576397 0.88759464 0.50944954 0.6087776 -0.01954294 0.1713663 -0.77015364 0.69984484 0.35822648 -0.37185103 -0.35102776 -0.6177706 0.60659885 -0.5334631 0.469332 0.28726357 -0.019362539 -0.31272006 0.58614105 -0.21201368 -0.27590385 -0.43559 0.7163887 -0.31203425 0.93579495 0.72367674 -0.6151427 -0.6136203 0.5766918 -0.2019055 0.2004166 -0.32738632 -0.5616397 -0.7545763 0.92694765 -1.0547999 0.041299574 -0.09403628 0.44739258 0.27415103 0.113956034 0.037261494 0.3097614 0.31938148 0.7021399 0.30698052 0.1537695 0.11697616 -0.24266373 -1.2451344 -0.43985218 -0.46611917 0.6037266 -0.47145042 -0.8385816 0.3020883 0.5620734 0.58858263 0.81765676 0.45764473 -0.21310577 0.14583054 0.89516264 1.3937659 0.17830342 -0.89911526 0.37148243 -0.04909016 0.42050698 -0.09038161 0.116551034 -0.11674248 -0.6829337 -0.41112784 0.7789943 0.120197095 0.24543244 0.27445045 -0.441244 -0.6048285 0.45339257 -0.7088035 1.0338303 0.67438257 0.21614599 -0.80995864 0.21657765 -0.4859692 0.3292234
rice_polishing_rate:70 -0.26741993 -1.1335546 -0.65125966 0.5118614 -0.12977193 0.42945 -0.49618194 0.59794956 0.76275104 -0.0067834808 0.7610984 -0.021500645 -0.34582886 -0.8282273 0.47786483 -0.20395885 0.24079739 0.58379346 0.244509 -0.4164993 0.43572626 0.91968715 0.5153444 0.4268163 -0.12067684 -0.40638608 0.30257276 0.6239533 0.029491296 0.8069149 0.027073888 -0.09891994 -0.83284557 -0.737196 0.16609076 -0.1229505 1.7428339 0.89089453 0.4948844 0.9111096 -0.14691137 0.38680446 -0.9988007 -0.042040203 -0.22247505 1.0142145 -1.2444255 -0.10753243 -0.29733926 0.15401497 0.76442504 0.19640863 0.5053618 0.7016437 0.17229562 0.34175712 -0.101243675 0.21753404 -0.19165024 -0.7610147 -0.86476624 0.63727623 0.0016468579 -0.15169488 1.5870256 1.148599 0.9200076 -0.062426485 0.3229564 0.081062466 -0.06859077 0.20317897 -0.5651223 -0.25571123 0.26928142 0.028375996 -0.59944665 0.46319684 -0.5579235 -0.4413727 -0.7968194 0.93323135 -1.2911345 -0.17742732 -1.1576972 1.0352618 -0.41569284 -0.8762522 0.48890927 0.30422124 0.1342817 0.20520608 0.5952203 -0.32613972 0.29437584 0.0058623473 0.5796229 -0.087711714 -0.13511497 0.57935643
alcohol_rate:15.50 0.15340799 -0.7092414 -0.2224451 -0.55400413 1.2164472 -1.0007813 -1.1730177 0.6790907 0.45859727 0.3685036 0.42434192 -0.90063447 0.30913737 -0.7558686 -0.4207301 -0.02268527 0.33998674 -0.02758674 0.9598821 -1.2003192 1.09283 0.025692565 -0.4065787 -0.11192404 -0.49419263 0.49501118 -0.23933487 -1.0094604 0.31908637 -0.3407451 0.074620925 -0.26607904 -0.17723978 0.41440243 1.491054 0.2858338 0.64429224 1.676545 -1.4178941 0.4727269 0.3906704 0.7653964 0.25499827 -1.2006086 -0.9786932 0.33393088 -0.8332385 -0.16286388 -1.1990342 0.9993585 -1.2467916 -0.5763565 0.29641056 -1.1532736 0.5839422 0.3088832 -0.21020496 -0.15176408 1.0686194 -1.0902758 0.4763116 -0.07742768 0.7144006 0.04924914 1.0038948 0.22081532 -1.1207577 -0.5148001 0.5919493 0.4463066 0.24110027 -1.4092116 -0.1141798 -0.38633037 -0.416387 -0.39306086 0.0014251182 0.65078574 -0.74126744 -0.25923657 -0.87923133 -0.04685556 0.22226319 -0.32988372 -0.03984217 1.1837138 -0.23865856 0.7039976 -0.52263755 -0.6123448 -0.1413044 -0.44046322 0.29479015 -0.010270492 0.51562965 -0.6558367 0.013602434 0.06583306 -0.2594543 -0.62233454
alcohol_rate:17.00 0.32139704 -1.056519 -0.91232884 -0.53429 0.61824787 -1.3093958 -0.7309599 -0.2142049 0.44295925 0.30560395 0.44086516 0.2582471 -0.24742062 0.2246418 -0.3408627 -0.45319837 -1.1054538 -0.22158803 0.26397917 -0.13342223 0.8922003 -0.17304373 0.07450157 -1.2269666 -0.85325825 0.89900386 0.59540564 -0.05852706 0.54413533 0.9756469 -0.60748845 0.19478372 -0.6573551 0.7193123 1.6535245 0.4508906 -0.5522726 0.28397703 -0.67451453 0.16238922 0.305614 0.03476673 -1.1958175 -0.2656264 0.2915502 0.43218625 0.20097683 -1.0792437 -0.98304725 0.78406477 -0.12618345 -0.61298305 -0.47115177 -0.11166522 0.87881833 0.5308505 0.07115462 0.0121868905 0.42850256 -0.048236642 0.70753723 -0.17354886 0.21462445 0.7218367 0.006627634 0.4194848 0.46424353 -1.2266766 -0.39966047 1.054154 0.52729636 -0.7428774 0.26514706 -0.47439408 0.32100603 -0.37891695 0.2320866 1.2015449 -1.0636797 0.12836699 -0.20041516 -0.040276267 -0.010207643 0.64565504 -1.0313753 1.3838786 0.2310058 0.8534938 -0.55108213 0.23075272 -0.4814451 -0.63947386 1.2508758 -0.46699956 -0.1427666 0.4435594 -0.658748 -0.8826763 -0.07773231 -1.1638862
sake_meter_value:0.00 0.58866787 1.1112518 -0.08346859 0.21231888 -1.0170318 0.14940727 1.4862498 -0.21681286 -1.4424602 -1.26577 -0.75687414 0.27635837 0.034469906 -0.61322004 0.58927846 0.29200944 1.1285481 -0.44435206 0.15488774 -0.18018948 0.40281764 -0.31363535 0.3923459 -0.40645075 0.4458026 0.28742912 0.4848395 1.3459905 0.3732893 0.17575413 0.0034611311 -0.41179016 -0.18557926 -0.56646293 -0.14772175 0.88028544 -0.07335475 -0.03277678 -0.008735704 0.30418375 -0.6995756 -0.29253608 -0.03618061 0.38504693 0.10221763 0.16240814 -0.8171317 0.8453645 -0.6244086 -0.69224054 -0.5928446 -0.064735375 0.6075767 0.5083726 0.3805057 0.9801706 -0.38785854 0.85502446 -0.25337785 0.5229762 -0.5326569 -0.5658504 -0.33200103 0.35154253 -0.0026330207 0.5368813 1.0727458 -0.6346372 -0.2349311 0.5962207 0.5285809 -0.5902406 0.53991294 0.99159944 -0.099450976 -0.1149714 -0.08245602 0.67484015 -0.6407285 -0.1742401 -1.1397151 0.4196972 -0.5206816 0.5735771 -0.22499153 0.5750272 -0.17414826 0.050556913 0.52747 -0.7300306 -0.22961913 0.3544744 -0.100177675 0.8975579 0.91026634 0.21303947 0.3291904 -0.49761912 0.31783053 0.8782774
amino_acid_content:1.30 0.27961296 -0.6117682 -1.076234 1.180273 0.34503064 0.2681344 0.14836545 -0.41980368 0.9262313 -0.11786924 -0.24809583 -0.6162374 -0.4698329 -0.5600515 -0.67419153 -0.40615144 0.5811367 0.2113649 -0.9693474 0.17485714 1.6866221 -0.011920236 0.61353034 0.57213813 0.694297 0.3241465 -0.6586955 0.021263413 -0.11351664 0.37187368 -0.8882896 0.9142902 0.7980057 0.5530222 0.8073188 0.5707891 -1.1034809 0.5688323 -1.016905 0.647858 -0.27176443 0.28867522 -1.1081332 -0.9436307 0.453586 -0.36714053 -0.2747274 0.716976 0.21694453 0.5220429 -1.1771332 0.3558104 -0.46335837 -0.17088282 0.06495348 -0.85086703 -0.592272 0.44431543 -0.6513569 -0.339374 -0.18304276 -0.6677978 0.7610787 0.49023205 1.2547437 0.39040312 -0.06093951 -1.203066 0.30770737 0.3960212 1.7272602 0.256657 0.86403245 -0.50958765 0.41223964 -1.3889363 -1.5530986 0.86081505 0.3163564 -0.89953786 -0.69874036 0.14398721 -0.42588034 0.42102423 0.025762577 0.36189693 -1.3609958 -0.22013389 -0.8654315 -0.61894834 -0.4966816 -0.57377994 -0.5023678 -0.16703719 -0.7202992 0.3972581 -0.08284396 -0.18339154 0.91174513 -0.14638892
prefecture:宮城県 0.5216859 -0.37575144 -0.23555805 1.2303549 0.013341456 1.3843685 -0.17092206 -1.1711031 -0.27303752 0.79129726 0.3095978 1.3613354 0.06973398 0.4568287 -0.11536749 0.49313834 0.7303871 -0.6044087 -0.870473 0.23937398 -0.5411635 0.30522743 0.16133945 -0.21934739 -0.8733811 0.011341573 -0.3981931 0.1494514 -0.452203 -0.14570917 -0.13113199 -0.6143723 0.1042759 0.6032334 -0.11331436 0.9354797 0.18955246 -0.5694445 -0.33353412 -0.0550134 -0.66363263 0.19233896 -0.2249844 -0.22375086 -0.71965045 0.07284051 -1.1711981 -0.076026835 -0.23521067 0.73962 -0.51206803 -0.0692723 -0.1670368 1.625782 0.44164318 0.19725055 0.19608831 0.28148612 0.42379025 0.00077482586 -1.0098574 -0.28401572 -0.5625252 0.256969 0.90111405 0.15999682 0.7391508 0.73046935 -0.03981677 0.03465005 -0.39269 -0.27467123 0.016155284 -0.028366335 0.060830858 -0.082774006 -1.1094575 0.43079364 1.7149113 0.19460179 -0.06371263 0.014782633 0.09313439 -0.6466171 -0.5128819 1.1547878 -0.16152667 0.14398524 -0.8344244 -0.4371674 -0.6691701 -0.8820857 -0.195858 -0.33951515 0.40266228 0.40363145 -0.19792196 -0.13905975 -0.25380042 -0.6270646
yeast:詳細不明(蔵付き酵母) 1.1528057 -0.39136943 0.035721447 -0.40083674 -0.1980637 0.63571066 -0.095779285 0.44448864 0.14960895 0.69692975 -0.44968164 0.32502913 0.58724403 -0.76589406 -0.26758358 -0.16690692 0.09473657 0.115346715 -0.03583902 0.07325877 -0.11056522 -0.17511967 0.3870615 0.68715525 -0.42705226 1.4587039 -0.8001698 0.53995067 0.83760035 0.40852413 0.90291905 -0.5937485 0.46424004 0.48332536 0.9269747 0.34371626 0.52201134 0.025873236 -0.18848094 0.360588 -0.020239798 0.43003651 0.17255287 -0.64664745 -0.44146883 0.77508295 -0.32663187 0.88723004 0.18352453 -0.012088955 0.33392647 0.07780872 0.0005522989 1.2069209 0.62301034 0.047581673 0.3755046 0.22087286 0.27333987 -0.53852206 -0.52623075 -0.039355315 0.046300523 -0.14987175 0.25899005 1.1385123 0.119889736 -0.0090437215 0.72938645 -0.95150405 -0.38291684 -0.23265699 0.19647662 0.6120254 -0.70904106 0.31551412 -0.18311977 0.18955441 -0.42559543 1.7834835 -0.27056426 -0.10913794 -0.011596416 -0.30040976 -0.5279488 0.59574085 -0.75626296 -0.2122713 0.22765717 -0.075277805 0.03626065 -0.6760513 -0.74294376 0.62984353 0.41148135 -0.71183294 0.6577337 0.27426788 -1.0601413 -0.61006343
prefecture:長野県 0.23540346 -0.12757435 -1.0206558 -0.038099095 0.13296911 0.8209654 0.123029545 0.07357658 0.44108358 0.6576656 0.020733329 1.0148379 1.2664162 0.48900017 -0.040843323 -0.61531204 0.97536093 -0.44430423 0.08315299 0.09652448 0.5810526 -0.013201409 0.6028199 0.6266089 0.36125314 -0.0706993 0.6955157 -0.39106822 0.04450532 0.670518 -0.74802977 0.090244845 0.45176336 1.1272436 -0.17800932 -0.5717626 0.74888146 0.359734 -0.14380878 -1.0574931 -0.042322457 -0.20842874 -0.5949716 -0.28025457 -0.3858869 0.40705895 -0.5827037 0.47832334 -0.87731194 1.0200993 -0.25276434 0.19819427 -0.26814362 0.348762 1.1689152 0.38679877 0.32687545 0.7901463 0.5184891 -0.24958318 -0.37676892 -0.33616912 -0.031026416 0.1596245 0.6688377 -0.008592703 0.8157354 -0.8644293 0.57811284 -0.4261454 0.103845075 0.04330437 0.056005593 0.88213766 -0.76873595 -0.6499872 0.08535553 1.0475547 -0.54254895 1.3706477 -0.04375406 -0.72096556 0.051388726 0.0049905917 -0.14994937 0.4055478 -0.44498134 0.06702715 0.45660642 -0.9389063 -0.4480115 -0.65392476 -0.7697634 -0.1916621 0.81764716 -0.0431225 0.427321 0.09920014 0.35166672 0.10685733
rice_polishing_rate:40 0.85494816 0.20439997 -1.1010616 0.68156815 0.08385044 0.2758918 0.033216074 -0.14361507 0.72273713 0.2813833 -0.6423459 0.6159662 -0.3200068 -0.6317733 -0.5166363 0.24629483 -0.69182366 0.8503998 0.89276165 0.21752776 -0.51671267 -0.6536317 -0.0311578 0.57137895 -0.68050367 -0.6190299 0.2647935 0.34965867 -0.2839135 0.50540805 1.340168 -0.4664175 -0.70834786 0.34018466 0.84796244 0.61261076 -0.06479914 1.2243892 -0.026286656 -0.13883482 -0.7424914 0.3771885 -0.48768538 -0.42812312 -0.42965698 -0.10478948 -0.6965762 0.27535298 -0.042878997 -0.3299469 -1.1595066 0.32786646 -0.13115102 -0.11782437 0.65229183 0.33119214 0.5000218 -0.8495604 0.63254845 -0.4683709 -0.86036944 0.36416504 -0.2811916 0.9630672 0.44679046 1.1382182 1.3842219 0.08699376 -0.16667621 -0.2035581 0.49054417 -0.24516176 0.60096365 -0.56674564 -0.40527353 -0.20000866 -0.89618367 0.75994325 -0.77202415 -0.6475358 -0.39890924 0.43757954 -0.6559634 -0.08265393 -0.32776642 1.0119334 -0.41430742 0.3977626 -0.6258388 -0.5160828 0.30855575 -0.79192376 0.31279454 0.30361432 -0.4818414 -0.9119004 0.5361308 0.38006163 1.5811054 -0.18107185
method_for_making_sake:生酛 -1.3023375 0.15945698 0.39859626 0.53614295 -0.30043006 -0.9233529 0.71295357 0.74282986 0.53692824 -0.0053982013 0.7491697 0.33001372 0.8272715 0.25691646 0.22422707 -0.17123304 0.41176215 -0.4601601 0.149134 0.4854709 -0.027462041 0.054647025 -0.94734937 -0.0074851085 -0.5762166 0.39636627 -0.22277458 0.3580309 -0.10007718 -0.27520132 -0.57990247 -0.46552244 1.0184039 1.7624382 0.2025351 0.7915269 0.3550097 -0.2789572 0.47338963 -0.17114633 0.7491752 -0.4733569 -0.8798458 -0.9636168 0.6630319 0.019227799 -0.16753824 1.5992064 0.16323076 0.4206465 0.06366398 0.24248429 1.4128625 0.5785375 -0.7259557 0.21284492 -0.46543854 -0.22552232 0.8565304 -0.82329184 -0.93626326 -0.09606495 0.4362364 0.72357464 1.0837841 -0.1528737 1.0066608 -0.41580907 0.25062773 0.6361383 0.6918525 -0.21762934 -0.21767816 -0.24844168 1.2605426 -0.092793494 -0.33232254 1.1522678 -1.2580383 0.8735604 -0.7488668 0.587406 -0.6234193 -1.1565434 0.010623885 0.4238956 -0.25932986 -0.027726129 0.6201024 -0.72238564 -0.122741684 -0.5513715 0.19961771 1.1154337 -0.5494662 -0.2603073 0.815207 -0.0410378 -1.0257261 -0.07361622
method_for_making_sake:新酒 -0.44892848 -1.6180627 -1.14064 -0.27610788 0.7156323 0.083238706 -0.20913096 -0.020668635 -0.1440266 -1.0421512 -0.726341 1.050227 0.52916366 -0.04132383 -0.24551797 0.9183568 -0.34984073 0.005611177 -0.6022277 0.54608655 0.2310389 0.3919536 0.31537053 -0.1570311 -0.7534271 1.356772 -0.12572137 0.8036743 1.5347862 0.4663883 -0.36561704 0.18879439 -0.4004613 -1.092941 0.5820245 0.21231353 -0.6451954 0.16165091 -0.010469757 -0.053852182 -0.08995618 0.12139074 -1.971925 -0.31366912 1.0510503 -0.122868076 -0.43952227 0.49963447 1.8901457 0.564661 0.18208891 -0.49240053 1.0268239 0.38434184 0.7534823 0.117161505 0.20850527 0.7212687 0.27771014 0.010839402 0.2135302 -0.56066924 0.15397532 0.5797867 -0.03939088 -0.22597171 0.10202864 -0.7627414 -0.24707094 0.87978244 -0.12435065 -0.07647017 1.0703682 0.75144774 -0.7174344 -0.5525163 -1.0045612 0.39338893 -0.7876132 -0.5257692 -0.3288113 0.33255112 -0.7276992 -0.77163184 -0.6442969 0.22380124 0.10398495 0.63573796 0.5935858 -0.2926482 -0.036801323 0.25602344 -0.89702386 -0.7338223 -0.89418733 -0.058847442 -0.18762223 0.52602255 -0.80950624 -1.0441253
amino_acid_content:0.90 -0.07107938 -0.07036458 -1.6063045 0.042595606 0.52124286 -0.37160528 0.24914613 0.76952666 0.49355692 -0.48941767 0.30569455 -0.32399553 0.12493236 0.28525054 -0.29554343 -0.24850605 0.7630356 -0.15777186 0.21001565 0.60644174 0.87978446 0.07202285 0.69186336 0.5174008 0.77639127 0.115611166 0.6794423 0.8899408 -0.5238725 0.85421556 -1.4335171 0.63529915 0.4208445 1.6157185 0.22730763 0.34545255 0.059749 -0.43471336 -1.2584327 0.16561228 0.56811285 1.4667019 -0.9807671 -0.21202666 1.154392 0.58500797 0.50916946 1.2212075 0.3485486 -0.66798407 -0.79201293 -0.32275215 -0.76736456 -0.03841507 0.19962291 0.28257328 0.02004641 -0.15073878 -0.09677815 -0.8244956 0.008710514 -0.24325858 0.9137444 0.83781934 -1.2415171 -0.18874404 0.2518387 -0.34283173 -0.61308175 0.8693438 0.12363853 0.3421316 0.538001 0.6288527 1.6929462 -0.04836735 -1.102708 1.2608409 -0.03797909 -0.1967594 -1.069265 0.51762563 -1.3653892 0.76013786 -0.9966176 0.7497721 -0.71914226 -0.78749496 -0.6170934 -0.98995566 -0.03819129 -0.19331987 0.23397182 0.17444688 -1.0840966 0.16099778 -0.46718282 0.07993361 0.03593762 -0.40448007
method_for_making_sake:ひやおろし 0.88282275 0.9334526 -0.045673467 0.28816918 -0.42887467 0.2604419 -0.8194292 0.36368656 0.9850321 -0.3063648 -0.531465 0.38823307 0.4901403 -0.0051292568 -0.6886322 0.02734969 0.75761515 0.19232789 0.20798352 0.4006463 0.054165937 0.60107213 0.27370772 -0.32609555 0.33432585 1.739217 0.5944997 0.33430248 0.6378098 0.062012255 -0.87264466 1.2396426 -1.2202303 0.352785 0.13426052 0.015938256 -0.685925 -0.24874821 -0.7011575 -0.024780411 -0.85603434 -0.34136146 -1.9289211 -0.2185191 0.55451393 -0.16755018 -1.0484785 0.13791427 0.7339039 -0.28546888 -0.19064744 0.9094633 0.8892626 0.36027464 0.6367359 0.10847498 -0.19137248 -0.23442025 0.42662764 -0.86347234 0.5062897 -0.24398959 0.7201594 0.09246551 0.07030732 0.683609 0.84893477 0.13012621 -0.05072719 -0.23755693 0.9898211 -0.8509949 -0.10438119 -0.48019594 -1.0258836 -0.089007564 -0.35204536 -0.27811733 -0.38424686 0.68360573 0.38595274 0.7535231 -0.37567714 -0.6593264 -1.5032178 0.113227785 0.19998483 -1.1639998 -0.8132506 0.13119045 -0.13094012 0.48146412 -0.44388452 -0.08551256 -0.19585429 0.5049798 0.37246716 -0.1547407 -0.14051445 -0.3937987
prefecture:秋田県 -0.2190916 -0.12518485 -0.7195526 -0.20621268 -0.18273078 0.1017611 1.1829464 -0.12213057 -0.7287365 0.6708897 -0.023292297 1.0261912 0.9346184 -0.04496625 0.40888274 0.38846248 -0.50409335 -0.45116732 -0.19139066 1.1484438 0.5986907 0.44707033 -0.5359726 -0.18261157 -0.51624817 0.6189178 0.098558225 -0.6078448 -0.016366273 0.6668622 -0.10663766 -0.504349 -0.45528805 0.81585723 0.26375112 0.38564622 1.1458788 -0.22037712 -0.27671134 0.5004421 -0.5684586 0.46912506 -0.68905884 0.44385356 -1.1262035 0.18654947 -0.10979743 0.66063493 -0.3609863 1.1671755 0.7920026 -0.8099367 -0.0641879 0.67932934 0.7171241 0.070164695 0.23120911 -0.25300705 -0.14083253 0.14690463 -0.49524787 0.24762583 -0.38877916 0.2946562 1.5238267 0.50122297 -0.35960773 0.15434593 0.49404377 0.09686628 0.15941069 0.14755596 0.71779233 0.14247084 -0.635893 -0.179082 -0.32664934 -0.017945373 0.6283977 0.16578327 0.3724155 -0.13600112 0.11391956 -0.4443709 0.034429904 0.21487209 -0.25878713 -0.7850457 -0.11194846 -0.5399421 -0.941921 -0.11715681 -1.7906036 0.24272776 1.0808471 0.79101133 -0.2247402 0.45291772 0.20157297 -0.59707373
dgree_of_sweetness/dryness: 0.8715358 -0.18877088 -0.029682387 -0.27296758 0.7009735 0.4097019 0.50190985 -0.12510754 -0.92461973 -0.21243063 0.10942021 -0.054634128 1.3484246 -0.80307853 0.56866896 0.63626635 0.3286995 -0.60766906 -0.16192044 0.8794204 0.29833972 1.0595752 0.14519542 -0.3862858 0.36667302 0.20879078 -0.38970375 0.80330545 -0.7857807 0.4776306 1.281319 1.2995648 -0.12981488 -0.2182598 0.32829672 0.6723872 0.2397906 0.6800601 -0.3644551 0.10812684 0.37984943 1.0791584 -0.63315797 -0.15663789 -0.6051156 -0.021266438 -1.5276206 1.1592252 -0.71654946 0.737881 -0.28118294 0.13661869 -1.0534613 0.06631209 -0.75513923 0.87221706 -0.095789075 0.6966825 0.3490893 0.628152 0.6658095 -0.9317967 -0.49171406 0.07754053 0.353869 0.20221715 0.00279257 0.36059654 -0.470569 -0.11541859 0.15198788 -0.67688257 -0.13140976 -0.31388468 0.089944065 0.3698297 -0.016685084 0.4810305 -0.5563659 0.6315576 -1.3004595 0.50610673 0.12590294 -0.07932986 -0.3009193 -1.4944159 0.8038386 0.005253544 -0.6235512 -0.20849127 -0.020553384 -0.65208167 -0.23101456 -0.12217317 0.2849969 -0.6053941 0.09961252 0.19812728 -0.69299585 0.20018703
prefecture:新潟県 0.3164837 -0.3814811 -0.50052345 -0.5588935 0.2971895 0.93406755 1.0836642 -1.0905341 0.11132166 0.36826634 0.3671575 0.3517876 1.0954491 -0.43164924 0.2861409 0.04070142 0.68744755 -0.19736117 0.76489156 -0.49065384 0.9199598 -0.5913656 0.3084446 0.8780331 0.19458523 0.1981614 0.6217761 0.21328902 1.3552189 0.4958628 0.6679517 0.29961103 0.011259741 0.06415303 0.19881888 0.2249934 0.7056277 0.0021251212 -0.5634247 0.6149992 0.0086026015 0.5857071 -1.1739844 -0.7257509 -1.1842732 -0.16258326 0.5475236 -0.5048599 -0.5993818 0.5801325 -0.1011408 -0.09162538 0.25787675 1.0713687 0.13480937 -0.613003 0.25977814 -0.61398834 0.6279138 0.6985227 -0.5059771 -0.53385013 0.068415985 1.3979672 0.79315627 -0.0738706 0.8780431 -0.37878427 0.40680245 0.37716773 -0.3656664 -0.34047922 0.09590748 0.6982571 0.46374428 -0.72165394 -0.4409242 -0.13466822 0.98572814 0.038187467 -0.3304127 -0.432335 0.59465337 0.0042579323 -0.23115644 0.3550548 0.12086951 -0.39255002 -0.39499864 0.22141565 0.13711764 0.12457203 0.14873429 0.24857669 1.2060447 -0.7159993 0.51535344 0.4094724 -0.14147058 -0.16762337
method_for_making_sake:扁平精米 1.6764464 -0.23881735 0.13150553 0.3289866 -0.18323192 0.08205919 1.212828 0.40258458 -0.09687077 -0.015159508 0.84207153 -0.29178357 0.09720066 0.04987716 -0.6010649 0.2281189 1.1066779 -1.0945554 -0.045481924 0.5926992 1.0873188 -0.43929344 0.033218507 -0.2622352 0.01569103 -0.021419223 0.12142812 -0.38472086 0.35620165 -0.14123404 0.365269 -0.047711805 0.07298392 -0.11586133 -0.35102698 0.10222811 0.44573212 -0.972141 -0.077942304 -0.69221276 -0.49302703 0.27571785 -0.9936501 1.1225373 0.49319857 0.80485314 -0.7822758 0.4129563 0.62267894 1.1392304 0.48161364 0.8294533 -0.29508275 0.47681707 1.3060374 0.27487555 -0.3670132 0.4078523 0.07933983 -0.9473312 -0.718042 0.022796527 -0.6869322 0.8780026 0.51287776 -0.15545395 1.2832063 1.2502146 0.2798613 1.5412984 -0.40367824 -0.20011632 -0.121245846 0.100880705 -0.37889743 0.03942319 -0.7172978 -0.34733522 -0.8577226 0.0903179 0.092955336 0.93629605 -0.07344904 0.05422809 0.25146717 1.0714164 -0.5594171 0.7212185 -0.46549848 -0.7893239 -0.46065542 -0.5680668 0.3894583 -0.8905119 0.41453192 -0.05440949 0.5344813 -0.3773732 -0.019619362 -0.64401263
prefecture:高知県 -0.23968057 -0.69272405 -0.83326215 -0.16042322 -0.8728526 0.3867622 -0.17622192 -0.3150378 -0.17253722 0.7106134 0.78538835 0.20563316 1.6531619 -0.6798462 -0.07106713 -0.1134229 0.6671029 -0.7916139 0.6349166 -0.12204191 0.5692055 -0.02623684 0.78041035 0.19733955 0.42569992 -0.5966169 -0.95150596 0.2622695 -0.4961244 -0.7807347 1.1707529 -0.66636384 -0.4847724 0.21883366 -0.34266832 -0.3265928 0.3820443 -0.2520239 -1.1656241 -0.6856568 -0.7924001 -0.08255704 -0.37530738 0.3196188 -0.64870423 0.3002633 -0.32217216 0.38988635 -0.067488775 -0.1326564 -0.08719875 -0.34746167 0.7648327 1.0982316 0.106570855 -0.32986456 0.40805057 0.83354604 0.70281655 -0.4494873 0.18729672 -1.0414264 -0.79979044 1.3870283 -0.074499734 0.21531375 0.40711197 -0.2997028 1.4044832 0.3554985 0.112467796 -0.1422154 0.19954218 0.8096267 0.30213246 -0.32515758 0.05010122 0.6100034 0.38305363 0.55041516 -0.96061057 -0.26124993 -1.1422315 -0.110189445 0.09427585 0.496908 -0.7006524 -0.637092 -0.13897629 -0.40184206 -0.45236832 0.13625544 -0.3494297 0.7416494 0.23836474 0.048887264 -0.6035564 0.098592505 0.0046468475 -0.20936494
titratable_acidity: 0.64574856 0.20011315 -0.5804052 -0.19829421 0.41530675 0.8214784 1.2954118 0.16398819 -1.1194568 0.39538842 0.33492133 0.5548972 1.2669817 -0.8278761 0.39436692 1.1040463 0.5122705 -0.75727737 0.38685644 0.6635733 -0.24735513 1.5030129 -0.65977913 -0.061748233 0.82934505 0.37554643 0.1137718 0.9429492 0.16853327 0.6306094 1.1624997 0.47994772 -0.36563975 0.053103298 -0.320514 0.4459765 0.8484527 0.18262215 -0.062261436 0.16051184 0.33928046 0.95314413 -0.9125249 -0.019558212 -0.7661306 0.12864031 -1.8266299 0.6688575 -0.41361597 0.5774161 -0.524052 0.5272974 -0.72217554 0.5367369 -1.0028352 0.91895664 0.5246423 1.136918 0.3459347 -0.20499593 0.7669553 -0.6719856 -0.11836005 0.7945828 0.33209926 0.48532793 0.599375 0.40148515 -0.059004087 -0.45592555 -0.6372373 -0.64723086 -0.036909163 0.1652175 -0.54106075 0.045675818 -0.29901955 0.7772974 -0.40666416 0.2855927 -1.4507091 0.75478035 -0.41433394 -0.35126266 -0.25950545 -0.7670598 0.09446946 0.11746726 -0.28954113 0.6124628 -0.35794446 -0.41875562 -0.42791516 -0.48194623 0.33376738 -1.2404662 0.22575921 0.10571318 -0.45443672 -0.30604154
rice_polishing_rate:35 -0.20053758 0.10219298 -0.80703497 0.4160451 -0.20428213 0.16534236 0.56476253 -0.78795135 0.39629528 0.21930614 -0.025958128 -0.009640767 -0.026953787 -0.61218536 0.55371875 0.18604168 -0.04723057 0.04280116 0.39572996 -0.013691433 0.5195349 0.8688531 1.1831954 0.012181672 -0.30717406 0.11347944 -0.10274598 -0.4226259 0.5060055 0.68435407 1.1183184 0.29181218 0.101558834 0.3099756 -0.27220598 0.5718924 -0.31137514 1.971567 0.36515206 0.43365756 -0.06679235 0.04440127 -0.5594307 -1.0981624 -0.27681077 0.4920812 -0.58194727 0.9554579 0.08529078 -0.51177233 -1.2716029 0.84243107 -0.3813519 0.8765053 -0.101556115 0.57800347 -0.124032035 -0.7485808 0.8715009 0.074069306 -0.028455587 0.4438652 -0.14438425 0.57052505 -0.12290584 1.1056885 0.4728714 -0.24825318 1.007807 -1.5093408 -0.6101401 -0.10893847 0.47669634 0.33480632 0.3552827 0.25146106 -1.1797769 0.055219755 -0.90546054 -0.4419057 0.09805031 -0.34870404 -0.790315 0.030250806 -0.41479573 0.3360398 -0.9583153 0.7907156 0.2772396 -0.44472224 -1.0230459 -0.6215239 0.26549092 0.29430488 0.10238 -0.030777808 -0.7346319 -0.6425125 1.1547748 0.59369266
amino_acid_content:1.50 0.8770183 0.08213543 -1.3568761 -0.5011365 0.0011516173 0.25583798 -0.38382336 -0.6640601 0.6095992 -0.058547776 -0.30275086 -0.08987247 -1.0556046 -0.3417108 0.3102267 -0.06046579 1.7811309 -0.30407453 0.023904977 0.4660674 1.2451688 0.24763684 1.5485653 -0.28225663 1.133602 0.78952116 -0.14174777 0.11552864 0.51827943 1.5095545 -1.2633415 0.0016446391 1.3378989 1.7199405 1.5131737 1.1923238 -0.44174907 0.29585388 -0.27219784 0.33000982 -0.6261053 0.5669492 -0.23866704 -0.6125887 1.1441616 0.93790096 -0.6005492 0.51728046 -0.6449592 -0.018182907 0.8579641 -0.18623206 0.7798122 -0.37533194 0.84360516 -1.5940655 -0.67298967 -0.6160984 -0.5480305 0.04333112 0.8486089 -0.90344095 0.3213375 0.054048628 0.6664897 -0.004825314 -0.3347087 -0.7838833 0.65536743 1.1048425 0.015168038 -0.036300756 0.009740338 -0.47662422 0.6005256 -0.83309877 -0.89076394 0.5213008 -0.16881923 -0.33834326 -1.4806626 -0.15342991 -0.2470269 0.052938357 -0.61636853 -0.25064412 -1.1643581 -0.6767229 -0.42771792 -0.7374838 -0.30193272 -0.13514346 0.3046527 -0.43826103 -0.4123454 0.16888131 0.69733226 0.14330867 0.25153178 -0.88071966
sake_class:本醸造 0.2466354 -0.515207 -1.1483916 0.7949357 0.8023018 1.1428729 0.3721074 0.62275296 0.4033388 -0.57025605 -0.16765122 0.48588118 -0.9276921 -0.7025131 -0.2780306 -0.7385086 0.35482168 -0.28090686 0.5930924 0.8222436 0.6128995 1.2248702 0.6503497 -0.9394741 -1.0966746 0.36642453 -0.7570987 -0.18331626 0.24813606 -0.2108198 0.86826503 -0.55374664 -0.6949937 -0.3796081 -0.7591863 1.2217184 -0.036109567 0.80797786 0.12854798 0.12060595 0.24401054 -0.76203847 -1.3313351 -0.84920955 -0.37431052 0.013996888 -0.39841384 0.4577439 0.32360598 -0.5693195 0.4820104 1.2971874 0.15799807 0.7905632 0.13122341 -0.5731247 0.65773636 0.6790608 -0.3905447 -1.0809747 -0.3494678 0.5021096 -0.001183661 0.7696807 0.1755881 0.27956885 0.09881496 -0.022656089 0.71168643 -0.6367474 -0.7859965 -0.39027968 0.64649826 0.21099211 0.26682457 -1.6549228 -0.91337115 0.85770196 0.47065574 -0.011701404 -0.82562613 0.93849283 0.59203047 0.14988245 -0.117245674 0.895581 -0.3211944 0.07996955 0.067170486 -0.57335234 -0.7170889 0.73463684 0.06228098 -0.6576345 1.0701518 -0.41133177 -0.15559718 -0.33272538 -0.23451537 -0.27988493
amino_acid_content:1.40 -0.0037799226 0.60980403 -1.5585756 0.04489024 0.9331032 -0.5993386 -0.08837233 0.5911917 0.055638097 0.30549788 -0.7216558 -0.9639865 -0.12854691 0.22112831 -0.26924983 -0.3717216 1.4712043 -0.09677161 -0.39476374 0.32864714 0.37538242 0.046043523 1.0164053 -0.14887932 0.0019152184 0.13809639 0.23570736 0.15228558 0.7257076 0.16597466 -0.6217516 0.015138223 0.95824355 -0.051459692 0.597705 1.9392884 -0.33179522 0.54848766 -0.8649265 0.13809031 -0.84387517 1.3917804 -1.7514904 -0.122477114 1.56021 0.7612542 0.028324885 0.86289454 -0.4227996 0.72532415 0.116915025 0.08974034 0.24104312 -0.34001333 0.25154713 -0.5868405 -1.2311574 0.20470871 0.13531226 -0.025926143 -1.0325435 -0.95226014 0.87374556 -0.17729276 0.74708366 0.34936288 -0.037365057 -0.48816985 0.39772135 0.96162057 1.3092864 0.20664471 0.51724064 -0.64265406 1.283901 -0.4440979 -0.8592799 0.50589216 0.29296598 -0.4296206 -0.1383007 -0.008914389 -1.0348252 0.78967905 -1.1145697 0.3582441 -0.31531048 0.8389128 -1.4348009 -1.2395648 0.23350823 -0.14223646 0.5833032 -0.67099476 -0.02979845 -0.06308501 -0.27535066 0.68814147 0.5287932 -0.7254117
prefecture:静岡県 -0.24617359 0.113318756 0.12484495 -0.270088 -0.3210588 1.7244761 1.3203077 -0.14128515 0.12010367 0.7588195 -0.17373629 0.80982685 0.9050679 -0.19896162 1.1878912 0.26679206 -0.22166593 -0.78207237 -0.16529933 0.38585064 0.32632965 0.025866859 -0.1366268 0.8811872 -0.25806692 0.19020131 -0.3255668 0.045782153 -0.305269 1.0860234 0.70907676 -0.18489943 0.8708469 -0.16698532 -0.6623107 0.69860375 -0.20155352 0.1315686 -1.392838 0.097065575 -0.49336433 0.93704975 -0.5976979 0.70047295 -1.2757021 -0.542805 -0.4526164 0.2191482 -0.2381689 0.09762956 -0.20785348 0.59970886 -0.95862436 0.17571922 0.1265843 0.28303146 0.65042907 0.5616803 0.42290524 -0.32582524 -0.36246476 -0.48143336 -0.3959431 -0.72358805 0.20539956 0.5971273 0.47640404 -0.4192888 0.32118532 0.31628358 -0.3602509 -1.0015057 -0.76128685 -0.016194886 0.6093458 0.11144054 -0.6644123 0.86689645 -0.2515553 1.0051229 0.42581707 -0.41449335 -0.05128067 -0.8323727 -0.6597735 0.9311462 -0.23058575 -0.29729098 -0.43240297 0.025888942 -1.1113834 0.27276373 -0.039583813 0.01669752 0.4563778 -0.028361987 -0.12664868 0.8003905 -0.13673995 -0.45840585
yeast:きょうかい701号 -0.64559907 -0.7218113 -1.1034397 -0.2656004 -0.7417237 0.44412807 -0.803502 1.1183566 0.45835012 -0.5174273 0.057560306 0.07204465 0.113097355 -0.2520789 0.35172307 0.32952276 0.1813365 0.205459 0.523122 -0.22508797 0.066525236 0.7836503 0.27211514 -0.48499146 -0.2544071 0.6676646 0.17358702 0.7667981 0.20368937 0.60714936 0.6181994 -0.48596686 -0.53100026 0.444687 0.43814316 0.6856166 0.84258544 -0.5483657 0.538558 0.11407624 -0.21020691 -0.013239852 -0.13438153 -0.55754673 -0.7612452 0.12598962 -0.9062814 0.23337196 0.017214902 -0.06550951 -0.20472418 0.021556264 0.15059997 0.6950814 1.0378773 0.88459784 0.06827224 0.957495 -0.58929616 -0.41223207 -0.052532323 -0.4105246 0.2969153 0.37655222 0.79286057 0.835232 0.032308854 -0.005799608 0.253678 0.0735874 -0.024135347 -0.0908562 0.015237701 0.7603328 -0.12475075 -0.5451905 -0.6882991 0.3608953 -0.11822568 0.33920032 -0.9215765 0.98156977 -0.8564479 -0.6764431 -0.5923411 0.7359078 -0.80016226 0.21933499 -0.23739827 -0.64112383 0.42075536 -0.2792373 -0.96678406 1.2370607 0.38215375 -0.1686255 0.45249352 0.014142299 0.04898364 -0.20956329
sake_meter_value: 1.1152701 0.28956074 -0.62753344 -0.4298021 0.49503243 1.0009786 0.6222707 -0.11472265 -1.193857 -0.19249727 -0.41999874 0.36585158 1.1766495 -0.88541126 0.30155078 0.32636705 0.5290545 -0.721039 -0.009177766 1.4210861 -0.25022298 0.7728803 -0.6863421 -0.287114 0.82318175 0.38746494 0.4064886 0.69218606 0.4010747 0.12159401 1.0086489 0.61308134 0.030083233 0.21138552 -0.12418921 0.8475919 0.7559942 0.32750237 0.18065572 0.26503906 -0.4438423 0.7889499 -0.49154183 0.11499718 -0.7821576 -0.07380327 -1.6683396 0.86462176 -0.6470594 0.27605975 -0.5749489 -0.07028111 -0.3254689 0.3976005 -0.68060887 0.64463603 -0.26501304 1.0361985 -0.32356378 0.80113244 -0.32308117 -0.8989992 -0.20319766 0.56899375 -0.19422919 1.1001713 0.43812022 0.008038034 -0.37345597 -0.8894273 -0.063248925 -0.4829152 -0.09695727 0.22389913 0.054174636 -0.1799587 -0.034795925 1.0203433 -0.69638705 0.3823245 -1.0531163 0.42259994 -0.28508523 -0.10370918 -0.22479486 -0.75790465 0.59312993 0.31933048 -0.535679 0.62419176 0.27768934 -0.8028148 -0.17702967 -0.21515054 0.66843754 -0.26938078 -0.14581117 0.19159897 -0.11815779 -0.17057267
prefecture:福島県 0.51099694 0.6135952 0.21432707 0.5367716 -0.5687783 0.9714489 0.9127019 -0.9420074 -0.415672 0.0832411 0.39746368 0.89658433 0.5371945 0.31758913 -0.020501252 -0.5410386 -0.40425724 -0.077859126 0.07980231 1.0530347 1.2022052 0.18470593 0.27923337 1.0345947 -0.7791439 -0.010308813 0.6189478 0.10197658 -0.09227083 0.77312255 0.8751635 -0.15505055 -0.25725082 0.75409746 -0.06986665 0.10722562 0.45957953 0.17391407 -0.20545615 0.3735141 -0.08007741 -0.23481126 0.13841294 0.62398565 -0.56249785 0.8686474 -0.22176147 0.062277704 0.9548932 -0.022609787 -0.39022252 -0.4486726 -0.13443385 1.1585454 -0.0017708493 0.61319953 0.4475243 -0.0031496887 0.5826394 -0.6660179 0.29063565 0.52784586 -0.06220739 1.2618458 0.5870224 0.26696238 0.38272813 0.1489937 -0.6378503 0.6728016 -0.44430336 -0.38022354 -0.30555686 0.5797851 1.2425201 -0.014810475 -0.1337298 0.28185782 -0.32003415 0.5065404 -0.19722696 0.32354432 0.033678453 -0.5678986 -0.97615033 0.5551096 -0.4196004 0.24854305 0.1608103 -1.2297121 -0.09264087 -0.6250293 -0.3980613 -0.13915811 0.9468495 0.007601144 0.21639036 0.51197374 -0.37323973 -0.46009117
prefecture:福岡県 -0.09875514 0.74734926 -0.5743758 -0.36683282 -0.30630177 0.2811826 0.9769058 -0.3135105 0.347276 0.40720135 0.8370519 0.81116843 0.8228452 -0.28035808 -0.056626886 0.76502734 0.49299008 0.5961179 -0.18697277 0.75615245 0.6025455 0.23028691 -0.057457488 1.1027107 -0.5338125 -0.37115213 -0.7419259 -0.048989587 -0.30516824 1.1904354 0.15958834 -0.05404834 -0.6965999 0.1047545 -0.51892596 0.09018283 0.78937 0.12011304 -0.5565762 -0.45280287 0.026150934 0.7390825 -0.0122921225 -0.62706983 -0.19499116 0.10525466 -0.6517247 0.5481675 0.032560967 0.45578638 0.27620292 -0.16094999 -0.38943174 0.8704895 0.8121409 -0.08837831 0.29480866 0.7498763 -0.3825197 0.96986747 -0.6787791 -1.4386028 0.63258606 0.39116228 1.1427034 0.25955594 0.4629549 -0.5720985 0.3418727 -0.13052683 -0.22485787 0.124769695 -0.5479743 0.122811176 0.2174287 -0.51304495 -0.09623507 0.1453566 0.32666317 0.48468414 0.16777149 -0.5060754 -0.75177544 0.31308824 -1.1414764 1.1511937 -0.45507675 -0.86691743 -0.49215266 -0.54990613 -0.017651476 -0.5302994 -0.124598555 0.56280977 1.133615 0.28208318 -1.1200248 0.021905115 -0.7377696 0.5416097
dgree_of_sweetness/dryness:-0.54 0.6456802 0.53813624 -1.4475703 0.10050276 -0.28547513 -0.9555067 1.4261812 -0.80212396 0.42770803 -0.8902117 -0.5097802 0.8096046 0.960082 -0.43258572 -0.06589546 -0.858692 1.0005294 0.21017055 0.03331559 -0.93212914 -0.042274456 -0.31522125 -0.36356968 -0.7119558 -0.33336776 -0.06838329 -0.118391566 -0.25082523 -0.6756976 -0.3226663 0.06928753 0.5747661 0.4127896 -1.0867327 1.0195346 0.10370235 1.9698595 0.35940737 -0.013711326 -0.13611847 0.63433874 -0.7495026 -0.23716053 0.47211787 0.13436425 -0.4303646 -1.6868033 -0.36449805 -0.16722172 0.9472037 -0.06416902 0.6273375 -0.21358041 0.53951067 0.51290965 0.16546546 0.22097619 0.26468542 1.158285 -0.5065904 -0.24668431 -0.6080998 0.056868035 -0.780202 -1.0209705 0.6450194 -0.029930623 -0.2552283 0.8341062 -0.09072709 1.1779904 -0.40723515 -0.59820896 0.4130939 0.5888557 -0.08903705 0.29598176 -0.26281175 -0.36805242 0.61717486 -1.5168145 0.041127 0.45783618 0.036156543 0.13885936 -0.5486854 0.39344501 1.4555303 -1.0636497 -0.779393 0.5437929 -1.0794511 -0.30979154 0.40599394 0.005938237 -0.06990827 0.6821779 -0.6692887 -0.77790105 -0.68818474
prefecture:石川県 1.1135591 0.13567796 -0.11791224 -0.11952185 0.39004466 0.25963223 0.40454417 0.14126177 0.4388044 0.5464946 0.7714977 0.78174055 0.6117509 -0.5942053 -0.5960167 0.81692845 0.15662159 -0.35150158 -0.3369807 -0.16153285 -0.19547355 -0.40927672 0.50294715 0.5764203 -0.33611917 0.69440657 -0.7901792 -0.39305693 0.38258883 1.0828196 0.7325977 0.1677736 0.20236915 0.9540529 0.20978218 0.55963904 0.8680168 -0.17048453 0.11429436 -0.06329201 -1.1129587 -0.5421181 0.1978333 -0.096245006 0.3649566 0.86678326 -0.037048105 1.2024314 -0.2629899 0.079534635 0.719259 -0.41994688 0.002108089 0.38959098 0.7584449 0.34336197 1.2947028 1.214215 0.8121145 -0.6248525 -0.6398413 -0.3762977 0.06303282 0.44660756 0.2908455 -0.18292628 0.53570026 0.55310214 0.68670285 -0.2760271 0.5257928 -0.15405914 -0.3776625 1.4791723 0.46293893 -0.90036505 -0.111188024 0.6879487 0.63792443 0.51020235 0.5238009 -1.1691428 -0.19423024 -0.92188203 -0.3899051 0.74691564 -0.0901367 -0.42450425 0.0014538676 -0.40535724 -0.5617886 -0.23964879 0.41245133 -0.09595086 0.50266176 0.004191134 0.028936408 0.70583993 0.24592693 -0.8077572
yeast:詳細不明(熊本酵母) -0.12901014 -0.2537389 -0.77614665 -0.16942023 -1.2492858 0.7393767 1.0346239 0.37838945 -0.13400929 0.020388313 -0.14079621 0.9025645 1.2681079 -0.61550593 -0.043730866 0.35330248 0.6625251 0.124984324 0.16693094 -0.21749808 1.0617536 -0.120984204 1.269204 0.8442548 0.26993808 -0.29078382 -0.79733545 0.22706634 -0.43296346 -0.3541394 0.38332918 -0.21732853 -0.3696164 0.45877245 0.60605097 0.13202943 0.9767905 -0.0068610627 0.42020535 -0.9085559 -0.6658784 -0.17611195 0.07974712 0.16628641 -0.4897823 0.2948146 -0.24145997 0.5748475 0.35148242 -0.51724154 -0.22114635 -0.2751059 0.22158277 1.4336448 0.3380165 0.7422777 -0.0809768 0.5232452 0.3233971 -0.18837558 0.2420309 -0.90807146 -0.4710638 0.95736647 -0.065127715 0.69389033 0.4396151 -0.14332497 0.9125657 -0.5474581 -0.082498446 -0.56138873 -0.27517352 0.41064158 0.032197043 -0.9360158 -0.28417197 0.608724 -0.24307957 0.93560123 0.07272426 0.9141522 0.13813609 0.23177572 0.36656883 1.2751223 -1.5865834 -0.6156869 0.017747253 -0.33735886 -0.19119684 0.7215673 -1.3877637 0.3261912 0.46658206 -0.42729363 0.39034942 -0.12364004 -0.37135988 0.057189636
titratable_acidity:1.10 0.77645767 0.44183752 -0.40308565 0.30855852 -1.1706667 0.49245304 0.45367998 0.79701287 -0.1899196 1.0379887 -0.01605575 0.2643964 -0.39003375 -0.4331233 -0.0019691656 0.046968188 0.23764317 0.0057662753 0.046276193 0.86237866 0.032415275 1.081451 -0.4647626 0.19096111 0.35744834 0.6564366 0.10423381 -0.14023776 -0.2291783 1.275524 -0.31932312 -0.27185467 -0.078424394 0.36801034 -0.11142989 -0.11212175 1.2259291 -0.16736026 -0.6347673 0.43188417 0.01501944 -0.19587724 -0.6894506 0.121968895 0.37735376 -0.1640472 -0.16086368 0.41450354 0.989789 -0.20496748 -0.3059096 0.9202506 -0.52655286 0.9356047 -0.6365195 0.121014364 1.2104468 0.102273405 0.35516644 -0.09108728 0.6403958 0.020885576 -0.40454826 1.4077733 -0.45957172 0.91387546 0.3402438 -0.111249074 1.1437736 -0.8303117 -1.4294152 -0.23092891 -0.043953262 0.33877668 0.52181375 -0.07956083 -0.64882857 0.8969046 -1.5151522 0.16090298 -1.3260238 0.17433071 -0.17559935 0.13055938 -0.21881717 0.7695166 -1.4442495 0.2427843 -0.1761897 0.8458989 0.37666732 -0.53344786 -0.70042634 0.1933168 0.03823647 -0.646859 0.13629292 -0.5098785 0.11573266 -0.117646426
method_for_making_sake:山廃酛 1.6020093 -0.7863739 -0.03717921 -0.37639204 1.472371 0.4136141 1.1648153 0.85040355 -0.5806674 -0.37686348 0.5821466 0.98915863 0.51589245 -0.5201858 -0.6183403 0.86962974 -0.4121414 -0.01999752 -0.4373355 -0.22970764 -0.28497112 0.025707107 0.3658099 -0.26395816 -1.2498987 -0.49269286 -0.16196476 0.7967459 0.8330723 0.3762046 0.26400554 0.31330383 0.18588392 0.83445686 0.465595 -0.5466089 0.06558414 -0.699354 0.17593361 0.07809055 0.3442418 -0.13117234 -0.8032207 -0.1688053 0.5727012 -0.042255376 -0.73981404 0.10350716 0.08757488 -0.4625857 0.5552624 0.50112915 0.034786355 1.0788056 -0.29132888 -0.30950177 0.71000266 0.35166794 -0.27303213 0.46020758 -0.34196827 -0.46036795 0.16389197 -0.6088582 1.2732477 0.0125073865 -0.07175398 -0.052146673 0.2994795 -0.3446053 0.89152676 -0.28836617 0.8829712 -0.76891625 0.95851076 -0.6487278 0.478436 1.6907771 -0.40723708 0.34493583 -0.6059774 0.44852227 -0.06994187 -0.22487263 -1.0102028 1.1607056 -0.6940384 -0.45706797 -0.4888371 -0.015452923 -0.42514798 -1.0233567 -0.31410867 0.5747181 0.3980648 0.15137716 -0.58668214 -0.36292452 0.0046201246 -0.30018026
sake_class:吟醸 0.36466897 -0.001187482 -0.37770987 0.6544425 -1.0470985 0.98535556 0.8807056 0.87253195 0.1546012 -0.57819515 0.74471265 0.7656465 -0.5021124 0.008032033 -0.40165088 -0.11818563 0.23839554 -0.97697395 0.70070034 -0.5000492 0.89295053 0.22153157 0.12310967 0.46097457 -1.2248458 -0.29834345 -0.016178126 -0.05259766 0.19396855 -0.19816153 1.1146251 0.98258257 0.4833313 -0.5162177 0.04836003 0.5361273 0.9896226 -0.073612 0.24411196 1.0995904 -0.67922056 0.0840856 -0.48360664 -0.24419937 0.15880845 0.015252676 -0.5051208 1.3323252 0.2003002 -0.90259117 0.38377246 1.0927726 0.16230161 0.58626205 0.88893574 -0.45841968 -0.06273905 -0.3444468 0.14076185 -0.15523256 0.728191 -0.0016483457 -0.24795206 1.2484683 -0.73402953 -0.15516792 0.39038658 -0.5840767 0.17838986 -0.42811882 -0.12558183 -0.6253907 0.21666697 0.21756741 -0.4591798 -1.082019 -0.583622 0.5725939 0.24811462 0.13535209 -0.61115 0.059924178 1.0285859 -0.47949478 0.14182018 -0.16351172 -0.1373879 0.34008968 0.30735943 -0.99916434 -0.83146054 -0.17282005 -0.7467399 0.31452143 0.61529416 -0.88378525 -0.9978276 0.102286324 -0.6893647 -1.7168959
yeast:詳細不明(山形酵母) -0.22830564 0.3108767 -1.1064605 0.0010469601 -0.5622415 0.9424018 0.64829755 0.72420144 0.17426181 0.56937224 -0.6198622 0.31119993 0.9683301 0.45355934 0.54192567 0.44489568 0.3553249 -0.7615229 0.42674416 0.6019864 -0.30492997 -0.21680506 -0.43641356 0.7921918 -0.55131537 0.3216544 -0.12218372 0.94663 0.14027368 0.76287514 0.15445074 -0.6393268 -0.89699364 0.4031761 0.22143616 1.1709263 0.901879 -0.90981275 -0.22877608 0.5036278 0.025826814 -0.27252465 -0.51684463 -0.6095898 -0.6783478 0.6442966 -0.75094664 0.3227161 0.13808395 1.1583863 -0.14419846 -0.17001484 0.23231353 1.1151013 0.9419336 0.78470224 -0.01653311 0.42696983 0.8431098 -0.72744846 -0.8892427 -0.7026088 0.03203729 1.1606805 0.2615748 -0.16924594 0.7273446 0.6073708 0.81587046 0.56460667 -0.019237058 0.028856933 -0.3020955 0.3972887 0.57024705 0.6202905 -0.5505565 0.28060856 -0.41836336 0.6424576 -0.0013013755 0.198226 -0.3375989 -1.1419736 -0.43081933 0.95926917 -0.60307175 0.19053048 0.30268666 -0.8451544 -0.24275662 0.2395956 -0.81484777 1.373802 0.54425555 0.0233652 -0.29136497 -0.009605745 -0.19742078 0.39276114
city:鶴岡市 0.12530975 -0.08808032 -0.34294495 -0.2548957 0.82866275 1.1698593 0.034146667 -0.27741376 0.42765623 0.7314112 0.80222666 -0.3374656 0.41942707 -0.15115234 -0.1120105 -0.1267162 1.1448647 -0.828942 0.028104765 0.053114235 0.24820171 -0.13207032 -1.180911 -0.11787064 -0.052575946 0.8193257 -0.066489965 0.61356515 -0.3541364 0.54815996 -0.35023856 0.01889646 -0.04281794 -0.26481572 -0.17716032 0.38053855 0.57767546 0.08956885 -0.24383695 0.66551405 -0.7368121 0.5292684 0.5456709 0.60994035 -0.6944202 0.6089076 -0.38933805 -0.022326184 -0.35888392 0.34463757 -0.5739246 0.487115 0.3804814 0.59230006 0.1477061 1.0200251 0.10632303 0.33604994 0.79672205 -0.73324704 0.00097072875 -0.08167653 0.619482 0.8137651 -0.6773689 -0.7773758 0.3100347 0.1238948 1.1049374 0.8423784 -0.07216791 0.18754175 0.6499306 1.1921116 0.93536156 -0.32843047 -0.7685663 -0.20315824 0.30256453 0.34631655 0.34790665 0.7532816 -0.013278056 -0.037802607 -0.28335577 1.4140568 0.07195146 -0.38310114 0.21998449 -0.25621167 -1.1641735 -0.20190744 -1.2813609 1.290348 0.42565292 -0.07684581 -0.8036259 0.6725197 0.06476488 0.29003543
prefecture:滋賀県 0.19292988 0.08679157 -0.38866785 0.6165803 0.54508007 1.0360647 0.4600199 0.0118740965 -0.3895667 0.9220997 0.9927098 0.7738505 0.4275359 0.5879504 0.40645167 0.16976613 0.61349195 0.22717153 -0.3099404 -0.38328385 -0.2785006 0.13504478 0.29179865 0.0659415 -0.8431926 0.17118514 0.80559593 -0.23185153 -0.036433768 0.57765824 0.5625654 -0.698673 -1.0832362 1.1030722 0.017557252 1.2797635 1.0145161 -0.56908137 -0.7050902 0.08145855 -0.6402579 0.603219 -0.8616968 0.28470144 -0.25429502 0.28923753 -0.5744812 0.33202204 0.8151688 0.6083891 0.6151167 -0.49335322 0.17299084 0.17118704 0.93757844 0.4921297 1.2315934 -0.47961894 0.8481371 0.20255262 -0.76765007 -1.1584432 -0.21380232 0.83412015 -0.23639292 0.20980635 -0.18410738 -0.50779617 1.3294482 -0.39163515 0.7131436 0.69332755 -0.47415084 -0.03822979 0.3258989 -0.8492892 0.20249076 0.25373122 -0.21199219 0.61254853 -0.46763965 -0.33910874 0.24953894 -0.7036574 -0.08764345 0.2475787 -0.09435952 -0.94677526 0.3706752 -0.19137475 -0.24145146 -0.589791 0.1653695 -0.23651877 0.36787754 0.18135297 -0.4945029 0.32055676 -0.05456636 0.5014709
alcohol_rate:16.45 0.5710026 -0.32051668 -0.4622215 -1.0359159 0.6608034 -0.5309963 -0.35847935 0.28300792 0.3493767 0.0023272517 1.2854099 -0.27999112 0.0434018 -1.2533392 -0.71819955 0.34176856 -0.13030027 0.03427008 0.43094066 -0.1646642 1.3107142 -0.38425022 0.39072633 -0.54297817 0.2141673 0.5890885 0.1594847 -0.47398323 -0.6096975 -0.74048656 0.17304173 0.17145191 -0.1976964 0.48460284 1.3376485 0.23644936 -0.004854649 -0.27781764 -1.364453 -0.14941597 -0.6832974 0.7441685 0.40072748 -0.6935548 0.18344146 -0.70298713 -0.9238236 -0.21435988 0.05873263 0.0062546264 -0.14572534 0.05849316 -0.29246283 -0.012651617 -0.2689892 -0.28078836 -0.8479475 -0.18209678 -0.16176017 -1.1633798 0.70659 0.8213495 0.26671892 1.2470114 -1.3034358 0.52849424 0.8843119 -0.19060633 0.5492116 0.38881376 0.21386063 -0.73803174 -0.3233341 0.0869129 -0.05539536 -0.26955616 -0.8076889 0.19680168 -0.33676633 -0.44077793 -0.3014617 0.97900546 -0.07075564 -0.43889344 -1.0061091 1.6048088 0.06202351 0.5388617 -0.33668882 0.08975692 -0.34248567 -0.46031415 -0.52063316 -0.29023325 -0.38186735 0.68825656 -0.6997222 -0.7614558 0.65949374 -1.152503
dgree_of_sweetness/dryness:-0.43 0.6051169 1.522779 -1.0568472 -0.5862709 -0.4716995 -0.86371434 1.1255491 -0.29632455 0.52819717 -0.4835249 0.1315238 0.1923533 1.2346921 -0.7408811 -0.50228703 0.94154507 0.38422534 0.52322197 -0.21687078 -0.4968677 1.3195262 -0.27888387 0.36609778 -0.8348947 0.054432504 0.78688306 -0.45307276 0.5110008 0.07791187 0.6577708 0.77120376 1.1999993 0.047203258 -0.39807907 1.70303 0.2732497 0.64800304 0.03819558 -0.32770666 0.39208293 -0.43933946 -1.107012 -0.2376499 0.2412872 -0.65753543 -0.96207845 -0.6263972 0.22739899 0.07509041 1.1587925 -0.15094635 -0.085172065 -0.36600044 0.018406788 -0.53826684 0.6079914 0.50844777 0.027975176 -0.16033533 0.17772016 -0.0045591583 -0.039004225 -0.09914382 -0.18052565 0.47716248 0.52713585 0.6465898 0.66724175 -0.13729991 -0.7609036 -0.13516422 -0.38043383 -0.95012087 0.066947825 1.0923425 0.080926836 0.53662926 0.66000324 -1.1994022 -0.5295546 -1.6884862 -0.35900936 0.47105882 -0.32991225 -0.78869456 -0.7176501 0.86227745 -0.04500587 -0.24359827 -0.2811408 0.8684356 -0.716007 0.8286005 0.629385 0.24845845 -0.7430604 -0.41034868 0.34956405 -0.8477354 0.41550815
yeast:きょうかい7号 0.16954936 0.08537725 -0.7957157 -0.304743 -0.37300628 0.6491759 0.16513778 0.29452056 -0.06107194 -0.08501146 -0.32940513 0.5247271 0.5990784 0.35815766 0.09029142 -0.6608944 0.32906893 0.0813803 0.33403566 -0.054500718 0.109556004 -0.18916807 0.26987347 0.22502527 -0.8470476 0.86507684 -0.2554336 0.09271801 0.67837757 0.13545452 1.3713185 -0.22152086 -1.0217631 0.45406714 0.6953835 0.24369656 0.12344903 -0.78502953 0.24925983 -0.20054883 0.81740135 0.35218656 -0.45220512 -0.0058883284 -0.80956155 -0.4575155 -0.25499484 -0.31710947 0.0039940123 0.13970384 -0.0786721 0.010599239 0.943739 0.43854678 -0.14581737 0.08715659 -0.54172444 0.4266268 -0.21923226 -0.65868706 -0.24641451 -1.1682571 -0.118451566 0.97919524 0.28466797 0.22524802 0.7552287 -0.016767247 -0.081377305 -0.01718998 -0.44207588 6.0655817e-05 -0.28881297 0.300994 0.88216937 -0.5059222 0.1324235 0.6867516 -0.6411083 0.63303375 -1.1568898 0.6697217 -0.46602193 0.29742542 -1.5809625 1.0645908 -0.9893636 -0.11948856 -0.5247825 -0.79859865 0.39093322 -0.23268382 -0.9064293 0.13363662 0.16044618 -0.19834992 0.96253705 -0.59381694 -0.59038484 -0.3610087
dgree_of_sweetness/dryness:-0.20 0.46986213 1.0721515 -0.108623676 0.53926545 -0.6624412 -0.048006564 0.21308407 0.56696004 -0.13585815 -1.2137591 -0.86664987 -0.5001457 0.7680816 -1.1600639 -0.8859371 0.7387606 -0.31929424 -0.70081395 -0.5107487 0.005905025 0.5007782 0.32218155 -0.9682977 -0.86779994 0.17094725 0.8955277 -1.1483378 -0.4022178 -0.34775037 -0.5452392 0.17176402 0.32669383 0.3392881 -0.0537409 0.5027715 -0.6600182 1.8243611 -0.12496121 0.3956672 0.6443745 -0.5881255 0.064535365 -0.6294229 0.110768795 -0.007882494 0.9095551 0.19544886 -0.09284593 0.24319771 1.100302 0.34951967 -0.45584384 -0.71695733 0.28961462 0.3096102 0.6160821 0.5459495 0.13368009 1.7157869 -0.4195623 0.29665416 -1.4504408 -0.38340074 0.60032886 0.41364563 -0.043662783 0.17698519 0.020164251 -0.22443919 -0.304764 -0.059208393 -0.60853225 0.03356487 0.04622841 0.16028664 -0.5937203 -0.55491775 1.1905551 -0.28365743 0.35929498 -1.3617773 0.10593041 0.6750757 -0.13370244 0.39584076 0.10409983 -0.24456264 0.5581864 -1.4330404 -0.6859685 -0.12094181 0.47178257 1.2318562 0.9029891 -0.77154434 0.7474828 -0.50636536 -0.41411987 -0.5254266 -0.52105945
sake_meter_value:6.00 0.1450895 0.97441334 -0.91708684 -1.197032 -0.12169514 0.5644283 0.6214738 1.5249962 -0.7942081 -0.058447134 -0.1765623 0.21570611 0.6331785 -0.96130466 0.607896 0.7921435 -0.29947942 -0.17814179 0.85888344 0.18001738 0.39911267 0.41954133 -0.011094656 0.16909948 0.568283 0.42503464 -0.328688 0.64840794 0.50624174 -1.0693561 0.7399038 -0.26440835 -0.32064068 -0.850786 -0.66809875 1.1440655 0.90903664 0.1272968 -0.23014466 0.7661032 -1.7931266 -0.07062165 -0.21137224 0.07526338 0.60187584 0.25615117 -0.8796029 0.21361679 -0.74836344 -1.0034066 -0.15097265 -0.9405495 1.040838 0.66059417 0.42874214 0.41987047 0.7736653 -0.07345896 0.8297755 -0.038812153 -1.4004544 -0.59528977 -0.52549005 0.31991684 0.02143077 0.5711333 0.5687218 -0.7030592 -0.21729718 -0.7862775 -0.4955124 0.3461324 0.10461567 -0.60637486 -0.12239175 -1.1325129 -0.057186358 0.17425206 -1.067254 0.4657083 -0.3260742 0.21295142 -0.50590026 -1.2139609 0.16503428 0.50494814 0.03922061 -0.67273635 -0.16281046 -0.16007574 0.11789079 -0.6135079 -0.047634512 0.50154024 0.5926634 0.35957137 0.10633679 0.029460495 -0.5790247 -0.49798602
city:旭川市 0.029554224 0.011868011 0.042424783 0.17429177 0.27428812 -0.16682297 -0.2798303 -0.624877 0.42136917 0.330763 0.4016111 -0.5511915 0.7580983 -1.1613328 0.41368374 0.905425 0.46482134 -0.30986136 -0.023871137 0.13839561 0.75801945 0.3191235 -0.28756535 -0.2473161 -0.1458328 0.46462482 0.068455234 0.31468004 -0.37155738 0.6060028 -0.11618228 -0.19775856 0.48830077 -0.0048181145 -0.23140317 0.3956306 0.9364316 -0.56315076 -1.0000019 0.43534532 -0.38380706 0.7890977 -1.0765393 0.46480992 -0.48509666 0.40589127 -0.40331867 0.27766684 0.34862322 0.4802035 -1.3468138 -0.1400529 0.29936984 0.07490166 0.6640915 0.071510024 0.13487148 0.15743317 0.47014305 -0.49325 -0.42169076 -0.1251463 0.47742596 1.3401511 1.0037694 -0.6378141 -0.19588597 -0.31820387 0.17449713 0.09695972 -0.81746733 -0.45370263 -0.06704953 0.79253167 -0.27349892 -0.045663647 -0.09182792 0.8975935 0.544559 0.8973017 0.037614234 -0.13913631 0.29156345 -0.62260824 -0.29477155 0.41329655 -0.5852957 0.4236567 -0.36643523 -0.09452674 -0.25847247 0.38496837 -0.6448517 0.50243956 1.2290112 -0.12897298 -0.75153947 1.416439 -0.45340303 0.95765567
prefecture:北海道 0.21062285 -0.095334165 -0.09770119 0.4383389 -0.4312922 0.16372538 -0.45977867 -0.42436388 0.5025333 0.23980115 0.4410624 -0.23972043 0.8592918 -0.8754655 0.7946793 0.8220803 0.30777887 -0.1777312 0.024701405 -0.003055816 0.42759317 0.28250322 -0.31049097 0.1979312 -0.44025195 0.691872 0.083885886 0.5918257 -0.084654935 0.61120164 0.47101286 -0.16267459 0.6845725 0.10076257 -0.10617024 0.51514167 1.149765 -0.54049385 -0.8185438 0.466043 -0.42716363 0.38332957 -0.7778371 0.20233195 -0.82684845 0.21813427 -0.6814318 0.12454623 0.31306928 0.77182406 -0.9979604 -0.1313743 0.39930066 0.38926023 0.32420573 -0.17120111 -0.058936086 0.7927015 0.39784685 -0.32086623 -0.6137353 -0.1021152 0.6295242 1.4367478 0.94506013 -0.43729463 0.20100614 -0.21710032 0.20494513 0.19606929 -1.0167077 -0.31051192 -0.3179338 1.24368 -0.60178936 -0.058184292 -0.29421148 0.7091556 0.50498164 0.59682345 -0.17923547 0.17190382 0.120546855 -0.701181 -0.28125587 0.7608456 -0.6089983 0.16635911 -0.27701232 -0.5567346 -0.24808398 0.49736577 -0.83526814 0.39637947 1.5011234 -0.1507015 -0.38722324 1.3003098 -0.23145007 0.5962687
rice_polishing_rate:45 0.14918467 0.83647865 -0.865919 0.60918474 0.27397183 0.6264488 -0.16247423 0.37146348 -0.38338405 0.5063825 -0.2906485 0.65571797 0.82389283 -1.4857492 -0.5266469 0.968395 -0.85908216 0.5506277 0.5505001 0.7603174 -0.043216698 0.04780436 0.28246978 0.8870741 -0.050244775 0.45815116 0.0033778113 0.2795151 -0.06454688 -0.11338846 0.33626842 0.47851267 0.32031286 -0.11249829 0.5252248 0.10755525 -0.25046325 -0.2846057 1.0143301 0.8317705 -0.020957286 0.98805344 -0.59634537 -1.0221461 -0.7972243 -0.7042945 -0.98212117 0.3850473 0.33362937 0.007289577 -0.81107277 -0.2966401 -0.5317148 0.2592984 0.70519114 0.60341847 -0.4563557 -0.8342476 0.33055532 -1.4510546 -0.51588416 -0.34660834 -0.062115267 0.2527172 0.10406816 0.22078738 0.4426492 0.5653278 0.67602783 -0.6406369 -0.44128692 -0.38831306 0.9602909 -0.52925295 -0.4982376 0.19565402 -0.79667056 0.45339367 -1.8436685 -0.2481066 -0.0853287 -0.3951097 -0.68234104 -0.42762756 -0.6231709 0.32016832 -0.34937826 0.71464515 -0.19583629 -0.78862846 -0.97113425 -0.56589 -0.3517686 0.04166309 0.5563768 0.26456168 0.49722192 0.16735403 0.44835114 0.521138
dgree_of_sweetness/dryness:-0.38 0.506392 0.38720945 -1.1412692 -0.6876687 -0.3772069 0.2378006 0.9638934 -0.45673147 -0.34977862 -0.97886205 -0.3026295 -0.7801515 -0.065494426 -1.7765832 0.49556533 0.90333843 0.14632054 -0.570009 -0.03960128 0.6618737 0.84144187 0.072017595 0.29186517 -0.53971857 0.8958832 1.336149 -0.10532989 1.0347676 0.45828086 0.123934925 0.40159252 0.474961 -0.109574825 -0.39179733 0.93670833 -1.6167389 0.46652478 0.67946875 -0.20877188 -0.6275082 -0.063157395 -0.73810476 -0.6335583 0.056567486 -0.48147842 -0.84276366 -0.41764575 0.5828842 -0.9084225 -0.7144494 0.07265518 0.87502265 -0.95108294 0.97345173 0.4573232 0.5223123 -0.09730423 -0.5420862 0.0066267108 -0.21217063 -0.36928704 0.08375758 -0.114538416 0.6628527 -0.57210654 0.97495955 0.8036493 0.45735595 -0.6527162 1.089777 0.26597488 0.40288287 -0.043064956 0.1287269 0.82818466 -0.23971397 0.07112623 1.167091 -0.458995 0.23111407 0.45982614 0.6400013 -0.07387448 -1.0893265 -0.11274121 0.00059329806 -0.17341726 -0.8786964 0.019208746 -0.4864506 0.8084354 -0.7345095 -0.44905078 0.6015339 0.50412375 1.1404555 -1.0698327 -0.8656612 -0.2956415 0.008922366
method_for_making_sake:雫酒/斗瓶取り/斗瓶囲い/袋吊り/袋取り/槽搾り 0.7209578 0.36279708 -0.32287177 0.3273048 0.30190367 0.56705415 -0.8379008 -0.32337892 1.1480529 -0.5994821 0.5326167 -0.5267463 -0.05751107 -0.3550594 0.11510222 -0.41458037 0.6057505 -0.30468732 0.9113853 0.64373696 0.12069766 -0.6903576 0.08818435 -0.07369761 -0.4454223 -0.27219012 0.22758912 -0.14226514 0.4807897 -0.32167193 -0.0026380885 0.36088172 -0.120973766 0.3313059 0.4091945 0.23910531 0.46772698 1.458241 -0.56196016 -0.28094524 -0.06563578 -1.0450782 -0.056446426 -0.4621489 0.1027465 -0.61527765 -1.3098562 0.6952717 0.6177185 -0.15647459 0.2955022 0.054572813 -0.93561757 1.2873092 -0.28120545 1.0140828 0.33450824 -0.26953012 0.8610225 -0.118252225 0.19165827 -0.54300296 0.52091056 0.56176215 -0.2519303 0.5060955 1.1350019 -0.43339205 0.3926933 0.1626033 0.46388322 -1.0559635 0.8527085 -0.19858602 0.27990273 -0.24725206 -0.88742745 1.299982 -0.6836508 0.2608778 0.30192745 0.46596783 -0.45257226 0.460158 -0.9018938 0.41163838 -0.86243105 0.32645154 -0.5993723 -0.03076164 0.19359586 -0.4093954 -0.22257002 0.4400134 -0.82990336 -0.5622254 -1.0157646 0.5431966 -0.41901714 -0.02005331
yeast:きょうかい9号系 0.53896606 0.20132649 -0.18685925 -0.1720015 0.11978536 0.5185332 0.43874177 -0.23761924 -0.25194913 0.19272265 0.5779042 0.11972034 0.8522397 0.25688055 0.2303737 0.004385464 0.073785245 0.16488627 0.3943883 0.18708968 0.49113858 0.0675963 0.7101529 0.0009703634 -0.5531983 0.45140576 -0.21398081 0.9422942 0.7970348 0.83550763 0.7716538 -0.69668436 0.10113139 0.036157247 0.2756486 0.18265882 1.132176 -0.50424904 0.104693055 -0.020836733 -0.030217933 0.005732934 0.19814959 0.27862227 -0.3607937 0.34167027 -0.86478436 0.26124007 -0.07604697 -0.20360059 0.18391436 -0.13514583 0.44544858 1.3239412 0.45742413 0.37134346 -0.09645704 0.44930625 -0.20626567 0.023424014 -0.41342515 -0.36612907 0.43593854 0.25570187 -0.08855496 1.1093233 0.1834873 0.34478968 1.1934438 -0.18194331 -0.18078803 0.004579775 -0.74922335 -0.24700741 0.20902115 0.15308993 -0.7194647 -0.6249575 -1.295782 0.63306123 -0.21824008 0.68585885 -0.08325007 -0.3537473 -1.0185965 1.5024376 -0.63799036 -0.05438716 0.39829043 -0.47861996 0.46071845 0.5897694 0.6280867 0.036900222 -0.18738434 -0.44787022 -0.35930774 -0.0314449 -0.057946317 -0.7991573
